nep4 2 Li Al 
cutoff 7 6.5 253 210
n_max 8 8
basis_size 10 8
l_max 4 2 0
ANN 60 0
  6.8208534e-01
  6.0495257e-01
 -2.5879617e+00
  2.6312761e+00
 -5.7009256e-01
  8.0351037e-01
  2.7932557e-01
 -1.1562361e+00
 -2.9192300e+00
 -4.6434501e-01
  2.5011787e+00
  1.9299686e+00
  1.7791982e-01
  1.3427856e+00
 -1.8141990e+00
  5.7743542e-02
  1.2449447e-02
  4.6183512e-01
  3.6270937e-01
  2.4385786e+00
  1.7684515e+00
  8.3577341e-01
  1.3906258e+00
 -1.6968966e+00
 -2.3416617e+00
 -4.0688398e-01
 -8.9473826e-01
 -1.0314295e-02
  2.9570248e+00
  9.7812217e-01
  8.3033091e-01
  6.8955988e-01
 -7.4180293e-01
 -1.1546581e+00
  2.0134368e+00
  4.0795118e-01
  1.3803463e+00
  8.2893717e-01
  8.4837860e-01
  4.6794349e-01
  8.7302905e-01
 -8.4140301e-01
  1.8327482e-01
 -2.0737387e-01
  8.2539953e-02
  2.0449741e-01
 -4.8863485e-02
 -1.6207899e-01
 -1.2937221e-02
  7.1339494e-01
 -2.9601008e-03
 -3.0271554e-01
 -1.5828726e-01
 -1.3122798e+00
  5.8598852e-01
 -5.3726774e-01
  1.7870034e-01
  1.8930483e-01
  3.5157427e-01
 -2.6642266e-01
 -1.6892649e-02
 -6.7566380e-02
 -1.1435974e-01
 -2.9272923e-01
  4.2521264e-02
  2.3911153e-01
 -2.5259089e-01
 -4.7387511e-02
  5.6265019e-02
  1.0354580e-01
  5.4863278e-02
 -2.7814141e-01
 -5.3002989e-01
  4.2162910e-01
 -4.4314239e-02
 -3.7902793e-01
  3.7339333e-01
  1.1547765e-01
  4.0727818e-01
  7.3946662e-02
 -3.0330515e-01
  6.0392219e-01
 -3.1985991e-02
  2.0164238e-01
  1.7947149e-02
 -3.1327212e-01
 -1.8387916e+00
  5.6030166e-01
 -3.1215993e-01
  2.9577013e-02
 -4.0061772e-01
 -9.2753395e-02
 -4.4919211e-02
 -2.0088423e-03
 -1.1213049e-01
 -1.1706832e-01
  2.2172466e-01
 -1.1717606e-01
  6.2735071e-03
  6.4915456e-02
 -8.7210417e-02
  7.6531209e-03
  3.6894046e-02
 -2.7590451e-01
  1.3315409e-01
 -1.4031948e-01
  7.9593159e-02
 -8.8930622e-02
  2.1042151e+00
 -5.1417381e-01
 -1.4017142e+00
  1.7519253e+00
 -8.8823915e-01
 -9.4416159e-01
  5.6848091e-01
  2.1733762e-01
  8.5156322e-02
  3.5371125e-02
 -4.4533573e-03
 -5.6690484e-01
  7.3684186e-01
 -2.2874163e-01
  2.3401361e+00
  3.3734299e-02
  6.9386542e-01
 -1.1254166e+00
  9.2213923e-01
  6.4151567e-01
  1.5657648e-01
 -1.9680378e-01
  4.2928156e-01
 -4.8208628e-02
 -2.4366309e-04
 -1.4616965e-01
  3.7490167e-02
  8.0867505e-01
 -5.0191581e-01
  1.2814053e+00
 -2.7041578e-01
 -4.8091945e-01
 -1.9877738e-01
 -2.1760608e-01
 -2.5485845e-02
  2.1726216e-01
 -6.4330481e-02
  3.7996638e-01
 -2.7218103e-01
  2.3293373e-01
 -9.8340653e-02
 -4.7928326e-02
 -2.1567537e-01
 -2.3449510e-02
 -4.3199835e-03
  5.5406213e-01
  3.2793388e-02
  6.0208678e-02
 -1.4861596e-01
  1.0608720e-01
 -2.8286537e-03
  2.7562016e-01
 -4.5535189e-01
 -2.6392081e-01
 -1.2510995e+00
 -1.6047052e+00
 -4.2937808e-02
 -1.0335437e+00
 -1.3171105e+00
  1.5454907e+00
 -3.3348173e-01
 -1.6795079e-01
 -6.0968685e-01
 -5.8739573e-01
 -6.4141285e-01
 -1.3125751e+00
 -2.4856129e+00
  2.6566637e+00
  1.8875891e+00
  1.8741047e-01
 -6.0479122e-01
  5.0641960e-01
  5.9828073e-01
  3.6608472e-01
  9.5244664e-01
 -1.1157485e+00
  1.0196270e+00
 -2.5062555e-01
  1.0022299e+00
  1.2303382e+00
 -1.2810785e+00
  1.1342649e+00
  6.8716967e-01
 -7.9016998e-02
  4.4724205e-01
 -1.5996172e-01
 -4.8398837e-01
  3.0478623e+00
 -5.6500453e-01
 -1.8266289e+00
  1.2843800e-01
  1.8609222e-02
 -1.2622184e+00
 -1.7881267e-01
 -3.6317819e-01
  1.9980668e+00
  3.8005915e-01
  1.4078100e-01
 -4.1064864e-01
 -1.6055228e+00
  5.6734729e-01
  1.1317677e+00
  1.5880525e-01
  2.9543611e-01
 -1.7223057e-01
  3.9592281e-01
  1.2688391e+00
 -2.1216029e-01
 -2.7943368e+00
  1.8417528e+00
 -1.5149627e+00
 -3.7461850e-01
  2.6644781e+00
  8.8631898e-02
 -4.2378679e-03
 -1.9454874e-01
 -7.5424010e-01
  7.6530516e-01
  1.3882253e-01
 -4.2750306e-02
  1.9301152e+00
  1.0012270e+00
 -7.3565447e-01
  4.6470305e-01
 -5.1304030e-01
  3.4698114e-01
  8.2718945e-01
  2.0468077e-01
  2.8103834e-01
  6.5837961e-01
  1.3437464e+00
 -2.2713511e-01
  8.6006647e-01
 -4.9406388e-01
 -2.4589746e-01
 -9.4699138e-01
 -1.1969530e-01
  1.4387882e+00
 -2.3960844e-01
  7.5845271e-01
  5.2736368e-02
  5.5602562e-02
  9.8405853e-02
  1.6454885e+00
  3.1684697e-01
 -3.6094284e-01
  5.6118655e-01
  3.0197406e-01
  1.0231129e+00
 -2.0893831e-02
 -4.2828822e-01
 -9.6627511e-02
  6.4284569e-01
  1.1145433e-02
 -3.1351480e-01
  4.9351254e-01
 -4.2675751e-01
  3.7381315e-01
  7.7659436e-02
  1.1042884e-01
 -1.0996851e-01
  1.7847548e-01
 -3.3969939e-01
 -3.7058121e-01
  1.4255106e+00
 -8.7653622e-02
 -7.0533741e-01
  1.3789735e+00
 -8.3288735e-01
  7.8711390e-01
  2.1050745e-01
  8.1415191e-02
  6.4250324e-03
  1.7048551e+00
  2.0912254e-01
  1.2313659e+00
 -1.6957259e-01
 -3.3593160e-01
  4.1591832e-01
 -1.3359289e+00
  1.0412883e+00
  1.2758828e+00
  2.1271794e+00
  4.9026522e-01
  9.9639952e-01
 -2.6654878e-01
 -4.7452647e-02
 -6.6186804e-01
 -7.3066831e-01
 -1.3326457e+00
 -1.2371693e+00
  1.8153386e+00
 -8.7394571e-01
  6.3816214e-01
 -1.1083643e-02
 -3.0106065e-01
 -8.3367556e-01
 -9.6507305e-01
 -6.7064367e-02
 -5.2224445e-01
  5.7195145e-01
 -5.7831228e-01
  1.2266213e-01
  2.5666878e-01
 -1.7086346e-01
  1.8259794e+00
 -1.5635515e+00
  3.3538598e-01
 -1.1366493e-01
  4.0498251e-01
  7.7104902e-01
  4.3702532e-02
  5.1770228e-01
  3.6477107e-01
 -2.8748176e-01
 -1.9182962e-01
 -3.0674249e-01
  4.3441764e-01
 -7.6105915e-02
 -1.4957924e-01
  2.2662115e+00
  1.2783225e-01
 -1.4976224e-02
  2.4620317e-01
 -1.2841820e+00
  1.3403045e-01
 -7.7193983e-02
 -2.0656711e-01
 -5.5873379e-02
 -3.6998489e-01
 -3.7372768e-02
 -6.8523407e-02
 -1.4408067e-01
 -7.3857278e-02
  9.9535935e-02
  1.4636621e-01
  1.9237027e-01
 -2.3832535e-03
  5.2025542e-02
 -1.6063905e-01
 -3.7842512e-02
  3.1670224e-02
 -2.1318719e-02
 -6.3003141e-01
 -5.4032177e-01
 -6.7741439e-02
 -1.8980056e+00
 -2.7753448e-01
 -1.5226569e-02
  9.9815354e-03
 -5.5904442e-01
 -9.7624429e-02
 -3.8506907e-01
 -1.3946977e-01
  5.0082242e-01
  2.7134779e-01
  4.7190499e-01
  1.7317167e-01
 -1.2487277e-02
 -1.5742311e-01
  1.5514711e-02
 -4.3602780e-02
  3.3347800e-01
 -1.9234781e-01
 -1.0160033e-01
  4.7851381e-01
  5.8038330e-01
 -1.4768682e-01
  1.4945227e-01
  3.5105902e-01
  1.3278049e-01
  1.7758489e+00
  6.6311836e-02
 -6.3266680e-02
 -3.1277370e-01
  7.4601632e-01
  3.5374683e-01
  4.8001613e-02
  2.9529405e-01
  2.6683754e-01
  1.3114339e-01
 -6.8745553e-02
  3.2881069e-01
  2.9230613e-01
  2.3963079e-03
  3.6956331e-01
 -1.5074140e-01
 -1.0408986e-01
  1.1363608e-01
 -8.0393553e-03
 -9.7995266e-02
  1.6012099e+00
  2.3296778e-01
 -2.2404906e-01
  1.2475808e-02
  2.3207718e-01
  7.9562448e-02
 -5.3715104e-01
 -1.3203286e-01
 -1.9567208e-02
  9.1213405e-02
 -2.8901929e-01
  2.6204210e-02
 -3.5453135e-01
  3.8747415e-01
 -6.2470388e-01
  6.9599502e-02
 -8.2206681e-02
 -4.1324291e-01
  1.4011811e-01
  6.0466713e-01
 -3.4857425e-01
  3.9911434e-02
  2.9396150e-01
 -1.0517913e-01
 -2.4631834e-01
 -2.2044078e-01
 -4.6311671e-01
  4.9800777e-01
  6.7773290e-02
 -4.6282414e-01
  2.3345651e-01
  4.3901853e-02
 -1.8210657e-02
  1.9016604e-01
  6.4064651e-03
 -6.4773828e-01
  4.7639185e-01
 -1.2055706e+00
  2.4402204e-01
 -1.5563611e+00
 -1.7477649e+00
 -1.3072155e+00
  7.1285951e-01
  1.3315867e+00
 -5.8503069e-02
  4.1436756e-01
 -9.0874767e-01
  4.7652230e-01
 -4.8827775e-02
  2.6970318e-01
  3.2235491e-01
  1.0871378e-01
 -7.0618910e-01
  8.3294773e-01
  3.2489046e-02
 -4.8513780e-04
  8.9785743e-01
 -1.4744541e-01
  1.0647846e+00
  7.8517663e-01
 -1.9377761e-01
 -1.5799966e-01
 -5.8716994e-02
  4.6168190e-01
  4.7593623e-01
 -1.2953673e-01
  3.2491252e-02
 -3.5723016e-01
  1.9038613e-01
 -8.6784703e-01
 -2.0743327e-01
  2.9360896e-01
 -3.1341556e-03
  6.9956756e-01
 -5.1049852e-01
 -1.7432030e-01
  3.1937140e-01
  2.8248066e-01
 -2.2728114e-01
 -7.9237568e-01
 -3.6453950e-01
  4.1942108e-02
 -3.3490422e-01
  3.0934736e-03
 -9.5900431e-02
  2.6968411e-01
  8.5821211e-01
 -7.1330875e-01
 -1.6918677e+00
 -3.2138252e-01
 -5.5116568e-02
  1.2376035e+00
  1.9102982e-01
  5.3814124e-02
 -1.4263114e-01
  1.4284073e-01
  6.2372208e-02
 -2.5320809e-02
  5.0987446e-01
  4.8848938e-02
 -1.6509075e-01
 -1.9963250e-02
  3.2738277e-01
 -7.7580750e-02
  5.9313398e-02
 -1.3666545e-01
  5.5963956e-03
 -5.6557253e-02
 -1.2514879e-01
 -2.1389568e-01
 -4.2521775e-02
  5.7542913e-02
 -1.8453033e-01
  2.2697608e-01
  4.0041953e-02
 -4.6486551e-01
  5.2082244e-02
 -7.9232156e-02
  4.0788350e-01
 -1.3879277e-01
  2.0366940e-01
  5.0872087e-02
  4.9878736e-03
  1.5824716e-01
  1.6573787e-01
  6.6412315e-02
 -3.4094349e-01
  9.4128348e-02
  3.9716963e-02
  2.5463647e-01
 -3.5892227e-01
 -5.1571377e-02
 -2.8696138e-01
  7.2347522e-02
  3.8548335e-01
  4.0311322e-01
  2.8332466e-01
 -2.6184481e-01
 -2.5809017e-01
 -1.6609073e-01
 -3.5793042e-01
 -2.8686652e-01
  8.5192695e-02
  7.3906857e-01
 -8.7600487e-01
  5.1717186e+00
  1.8082231e-01
  5.4307282e-01
  1.7359875e+00
  4.9403563e-01
 -7.6067299e-02
 -8.4683768e-02
 -4.4731930e-01
 -1.3820802e-01
 -4.0163174e-02
  6.0972318e-02
 -1.7197150e-01
 -2.8667963e-01
 -7.5739250e-03
  3.0990764e-01
  7.0124991e-02
  4.4322747e-01
 -6.0018457e-02
 -2.9640660e-01
  1.8808737e-02
 -1.1611448e-01
 -1.4504133e-01
 -3.5653347e-01
 -2.2624608e-02
  1.4209890e-01
  4.0710840e-02
  3.7183672e-02
 -1.5816467e-01
  6.6431707e-01
  1.3104971e-01
 -3.1699750e-01
 -5.2703285e-01
  2.0710284e-01
  1.0946746e-01
  2.0400885e-01
 -3.5866386e-01
 -9.8800138e-02
 -5.7625171e-02
 -1.2293252e-01
 -6.5587908e-02
 -6.5389730e-02
 -1.4362642e-01
  5.1196092e-01
  1.6851893e-01
  3.4453893e-01
  4.7378626e-01
 -1.5046071e-01
 -1.8598281e-01
 -3.5532942e-01
 -1.3685551e-01
 -6.4559442e-01
 -5.6197545e-03
 -4.8414379e-01
 -5.1667977e-02
 -4.8568708e-01
 -7.2548002e-01
 -1.1740161e+00
  1.8253637e-02
 -7.2083598e-01
 -1.9548528e-01
  1.2680264e-01
  6.8435133e-02
  9.0261579e-02
 -6.1670387e-01
  3.0548081e-01
 -3.8129158e-02
  5.9861952e-01
  4.4358585e-02
  2.2737427e-01
 -3.8422474e-01
 -1.4446408e-01
  1.9141574e-01
 -6.6135639e-01
 -4.4381216e-01
  5.0168544e-02
 -1.4154117e-01
 -4.2807186e-01
  3.0007529e-01
  5.9849805e-01
 -3.8967256e-02
  3.4855597e-02
  1.3111331e-01
  2.4352387e-02
 -8.5958362e-02
  9.5405161e-02
  9.0152621e-03
 -4.9706760e-01
  2.3822945e-01
  3.3259232e-02
 -2.2109269e-01
  6.4979100e-01
 -7.3623860e-01
  6.1098270e-02
  2.9508078e-01
  1.4358095e+00
  1.8546128e-01
 -1.1205953e-03
  1.6399351e-01
 -6.9440112e-02
 -1.8798210e-01
 -1.2179035e-01
  1.1472864e-02
 -3.0500203e-01
 -2.6644915e-01
 -8.9837724e-01
  1.6419122e-01
  2.9926279e-01
 -1.6167899e+00
  4.9941924e-01
 -2.5757304e-01
  1.0361112e-01
 -1.7058459e-01
 -6.8239051e-01
 -2.3781686e-01
 -2.3551586e+00
  4.0896907e-01
 -8.2701308e-01
  1.0386716e+00
 -1.3150856e+00
 -2.5939620e+00
  1.3658741e+00
 -2.9700451e+00
 -3.8512018e-02
 -3.2446948e-01
  7.2751194e-02
 -2.7054625e+00
  6.6831127e-02
 -2.2573018e+00
 -2.7285047e+00
  4.4748145e-01
 -8.1478393e-01
  5.7851315e-01
  1.8628124e+00
 -2.5617411e+00
 -4.1463223e+00
  1.4033258e+00
 -2.7581396e+00
 -3.0394363e+00
  6.7342889e-01
  1.0080982e+00
 -5.4243177e-01
  2.5028655e-01
 -2.6849303e+00
 -1.0007962e+00
  7.3891234e-01
 -1.4737871e+00
 -1.1026793e+00
  7.4219471e-01
 -5.1393503e-01
  5.3361738e-01
  6.1853707e-01
  1.7978977e+00
 -3.6055523e-01
 -1.0589369e-01
  2.8649354e+00
 -1.3168666e-01
  3.7125480e-01
  1.0779305e-02
 -1.1138692e-01
  4.1094661e-01
 -3.9078716e-02
 -3.2362241e-01
  8.8942945e-02
  4.1980386e-02
 -1.3780892e-01
 -6.8572092e-01
 -8.0538738e-01
  1.2682393e-01
 -4.3355558e-02
 -1.1592831e-01
  2.2109202e-01
  2.8942257e-01
 -1.1885916e-01
  1.3215142e-01
 -1.2482335e-01
  3.9621755e-01
  2.4683756e-01
  7.9530418e-02
 -1.2542515e-01
 -4.3554607e-01
  2.9975060e-01
 -1.0990855e-01
 -2.3941740e-02
  8.1657104e-02
 -3.7121415e-01
 -1.0296525e-02
  4.3262769e-02
 -9.5947367e-01
 -2.0166781e-02
 -1.2883005e-01
  9.0182647e-02
  5.1279187e-02
 -2.6344237e-01
 -6.3404962e-02
  6.7717589e-02
  1.3286794e-02
  7.4070036e-02
  2.9259157e-01
 -4.7206932e-01
  1.8530072e-01
 -5.5808765e-01
 -3.6477584e-01
 -3.8600522e-01
  3.3012876e-01
  2.5357381e-01
  1.8810554e-01
  2.4416290e-01
  1.1592183e-01
 -3.4696609e-04
 -5.0953913e-01
 -1.8727148e-01
  3.7452735e-02
 -2.3261966e-01
 -1.2522372e+00
  8.5634887e-01
  1.1536047e-01
 -6.1212838e-01
 -1.4742434e+00
 -3.2448873e-01
 -3.4191030e-01
  9.7286209e-02
  1.6190474e-01
 -2.8647549e-02
  2.7945513e-01
  3.6987463e-01
  2.8122699e-01
  5.0055638e-02
  1.1442733e-01
 -5.4882616e-01
  4.6513159e-02
  2.6147753e-01
 -4.9010806e-02
 -1.5265699e-01
  8.6964026e-02
 -7.8857899e-01
  1.1007684e-01
  4.8765466e-01
 -9.8023057e-02
 -1.7716575e-01
  3.9974689e-02
  2.2932746e-01
  7.1629965e-01
  6.2174451e-01
  1.2328023e+00
  1.3262534e-02
 -5.8388317e-01
  5.5568162e-02
  1.0319123e+00
  2.0884255e-02
  7.3600151e-02
  3.4882390e-01
  1.1561923e-01
 -4.0296385e-01
  7.0850563e-01
  8.0739811e-02
 -9.4627869e-01
 -5.1572031e-01
  6.8632565e-02
  5.4563519e-02
  9.2273019e-02
 -3.5453595e-02
  7.3151976e-01
  1.6462420e-01
 -4.3830842e-01
  2.5969632e-02
 -3.2029909e-01
  2.5237039e-01
 -5.2258015e-02
  5.3387899e-02
  1.8432894e-01
  1.5119333e+00
 -5.7225597e-01
  3.1621534e-01
  3.1395618e-02
  2.7336359e-01
 -9.6727043e-02
  9.2323706e-02
 -1.7970593e-01
  1.3445728e-03
 -4.6086684e-01
  3.6375019e-01
  9.1957301e-04
 -1.0771137e-02
 -3.6024606e-01
  2.3098144e-01
  2.0440307e-01
 -1.1984254e-01
  1.3421434e-01
 -2.2331264e+00
 -8.5632436e-02
 -6.2151021e-01
 -5.5013114e-01
 -5.8618373e-01
 -3.4242648e-01
  5.7666743e-01
  3.3294982e-01
 -1.5546054e-01
 -6.6942644e-01
 -2.9887753e-02
  3.2965583e-01
 -8.2268298e-02
 -7.9934728e-01
 -2.3405746e-01
  3.3493036e-01
  1.5540671e-01
 -3.1097355e-01
  1.1935823e-01
 -1.0747805e-01
 -3.0334401e-01
 -1.8991499e-01
  2.3852627e-01
 -1.5895675e-01
 -1.9608243e-01
 -6.5541007e-02
 -8.5877813e-02
  3.1269771e-01
 -5.8176482e-01
 -2.9512757e-01
 -2.7971733e-01
  5.5667460e-03
 -1.4013081e+00
  3.1177762e-01
 -4.4712079e-01
  3.9979389e+00
 -4.0814133e+00
 -2.4701722e-01
  9.2589152e-01
  1.6590530e-01
 -7.0829147e-01
  6.7126441e-01
 -1.7822920e-01
  1.2452272e-01
 -4.7288138e-01
 -1.6483068e+00
  2.1318076e+00
 -9.0401477e-01
  7.0121318e-01
  1.3194532e+00
 -5.5258483e-01
 -6.7215699e-01
  2.3256983e-03
  4.2014697e-01
 -1.1943007e+00
  1.4956672e+00
  4.8376054e-02
  6.8123472e-01
 -2.1259198e-01
  7.9934642e-02
  1.7370723e+00
 -7.2542030e-01
  5.8620322e-01
 -1.8987907e+00
 -5.1968832e-02
  9.3241155e-01
 -1.4459555e+00
 -7.0718610e-01
  6.7533815e-01
 -1.6891892e-01
 -1.3114505e-01
  1.4778037e-01
  8.3218950e-01
  1.4478663e-02
  3.6801937e-01
 -6.7338043e-01
 -3.2042849e-01
 -3.2884941e-01
 -3.6380488e-01
 -3.2339163e-02
  3.7253928e-01
 -2.5843519e-01
  1.2096792e-01
 -2.8491849e-02
 -8.5531607e-02
 -4.2124879e-01
 -1.7443009e-02
 -3.3316797e-01
  4.7183654e-01
 -2.8203958e-01
  3.5913411e-01
  1.5860367e-01
 -2.0040485e-01
  1.0367466e-01
  4.1097352e-01
 -8.3856896e-02
  8.2039490e-02
  4.5572981e-02
 -2.4187626e-01
  2.0989133e-02
 -6.5651432e-02
  3.3501935e-01
  8.4065497e-02
 -3.4312108e-01
  6.3257372e-01
  4.2805918e-02
  1.5528390e-01
  1.4045793e-01
  5.0561186e-03
 -2.2146362e-01
 -2.3648266e-01
  2.5904450e-01
  2.0215359e-01
 -1.5294600e-01
 -1.7019549e-01
  3.6865789e-02
 -1.4675736e-01
  3.6648363e-01
  3.5181947e-02
  1.8813729e-01
 -2.7151477e-01
 -1.7604606e-01
  3.4237778e-01
 -2.2568500e-01
  6.6759028e-02
 -2.0099667e-01
 -9.4600683e-01
 -3.5046324e-01
 -5.4704314e-01
 -1.7797172e-02
 -9.6967250e-02
 -1.1175172e-02
 -2.0446736e-01
 -2.4095468e-02
 -3.3641074e-02
 -3.9448459e-02
  8.2232960e-02
 -1.5422462e-01
 -1.1275922e-01
 -1.9622064e-01
  6.9489330e-01
  1.1223670e+00
 -1.4674933e-01
  8.2964402e-01
 -4.3093535e-01
  1.1058086e-01
 -4.6793383e-01
 -4.6548743e+00
 -2.1690180e+00
  2.0720582e-01
  4.3113625e-01
 -6.0865760e-02
 -2.7058092e-01
  5.6280589e-01
  1.1124743e-02
 -1.0604572e-01
 -2.4219818e-02
 -1.3931819e+00
 -4.0114172e-02
  7.5267732e-01
  1.4477587e-01
  4.8013970e-01
  5.7263982e-02
 -4.3880185e-01
  9.7383700e-02
 -1.7201486e-01
  1.3247778e-01
  3.3300638e-02
  1.5899368e-01
 -4.5127717e-01
  7.8628320e-01
 -1.4600010e-01
 -5.5336278e-02
 -3.5921505e-01
 -1.9185019e-01
  4.4550329e-01
 -9.3871671e-01
  9.5867044e-01
 -2.8660554e-01
 -2.7695000e-03
  4.0219176e-01
  3.9045855e-02
 -4.9772281e-02
 -4.1926887e-02
  5.5801499e-01
 -3.2846802e-01
  7.7940726e-01
 -4.4092294e-02
  5.9597798e-02
 -2.0940536e-01
  6.8932062e-01
  8.4615611e-02
 -2.9362664e-01
  1.6384946e-01
  5.6834060e-01
 -8.3199598e-02
 -1.8809003e-01
 -2.3962784e-01
  1.4379722e-01
 -2.4933484e-01
 -3.6619172e-01
 -3.9930403e-01
 -1.0541879e-01
  1.4424513e-01
 -2.1831766e-02
 -8.0021292e-02
 -1.1511800e-01
  5.2619427e-02
 -7.6052241e-02
  7.3087126e-02
  8.0823377e-02
  1.2240662e-01
 -2.0756461e-01
 -7.5325565e-03
 -1.0995287e-01
  6.4768612e-02
  1.2773386e-01
  9.6232593e-02
 -2.4573088e-01
 -4.3738112e-01
 -1.6602837e-02
 -1.1675362e-01
 -7.1503145e-01
  3.8905058e-02
  2.6475780e-02
  1.4620087e-01
 -3.3319026e-01
 -1.4984493e-01
 -4.7197659e-02
 -2.0946746e-01
 -1.0462721e-01
  1.0226370e-01
  1.1388627e-01
 -2.5143912e-01
 -4.1324213e-01
 -3.5435805e-01
  8.4215291e-03
  3.8417870e-01
  6.0243592e-02
 -2.0824148e-01
  4.5327719e-02
  2.9287642e-01
  1.0743397e-01
 -4.6852048e-02
 -1.6531506e-01
 -4.5248963e-02
 -2.7573478e-01
  3.5296759e-01
 -1.6084276e+00
  1.2476957e-01
 -4.1311201e-01
  5.4613739e-01
  1.1823113e+00
  8.4581578e-01
 -4.6076167e-01
  3.1962037e+00
  8.1065178e-01
  2.9950953e-01
 -9.4780356e-01
  1.5484776e-01
  6.2498945e-01
 -6.1140943e-01
  5.0895356e-02
  5.5595845e-01
 -1.0498657e+00
  1.0486585e+00
  1.2001446e+00
 -1.1799687e-01
 -6.5266842e-01
 -1.9650927e-01
  1.2140693e-01
 -2.3164532e-01
  7.2917148e-02
 -1.6805617e+00
 -1.5783057e-01
 -8.5944009e-01
 -3.8533834e-01
 -7.7938032e-01
 -1.2361565e+00
 -6.6552693e-01
  1.4677063e-01
  7.7468807e-01
  4.6105990e-03
 -6.4777809e-01
  1.2830058e+00
 -1.6379651e+00
 -1.9033149e+00
 -2.3686054e-01
 -9.5668554e-01
  5.7674235e-01
  5.5208081e-01
 -3.2800478e-01
 -3.9702630e-01
 -1.7555323e-01
 -9.3846522e-02
 -4.8482466e-01
  3.5345513e-02
  8.9240861e-01
 -1.1122090e-01
 -4.5999929e-02
 -5.9383295e-02
  8.4373528e-01
 -4.9220040e-01
 -3.4085937e-02
  5.5856889e-01
 -1.8211749e-01
 -9.1236001e-01
  1.0211604e+00
  3.9637494e-01
 -6.5211773e-01
  2.5081149e-01
  1.7876166e-01
  1.7658241e-01
  6.5079130e-02
 -7.1489885e-02
 -1.9953214e-02
 -1.5884203e-01
  4.2559347e-01
 -2.1471198e-01
  2.3711888e-02
 -7.1243569e-02
  1.4244455e-01
 -1.6445701e-01
  4.7629964e-02
  9.0507843e-02
  3.0404419e-01
  1.1986376e-01
  1.3555992e-01
  2.4913953e-01
  7.9676211e-02
  3.4106266e-01
  3.7097938e-02
  1.2888917e-01
  1.8430935e-01
 -4.3888238e-01
  1.2426466e-01
 -4.0117866e-01
  1.4809859e-01
 -1.1662699e-01
  3.3304501e-01
  2.1926714e-01
  4.3846358e-02
  3.2935259e-01
  1.0676605e-02
  3.8453296e-02
 -5.5469394e-01
  1.5951820e-01
  6.8946313e-03
  5.3789300e-01
  3.4545504e-02
 -8.0748117e-01
  1.7812292e-01
  1.2118901e-01
  3.6912939e-01
 -9.2835482e-03
 -8.1111088e-02
 -1.1944377e-01
 -1.9737011e+00
  6.8981424e-03
 -3.1731803e-02
  1.2150153e+00
 -2.7305749e-01
  1.1169639e-01
  2.2778301e-01
  5.5452728e-01
  9.6427783e-02
 -9.8686777e-02
 -7.2776973e-02
 -1.4387004e-01
 -3.2405462e-02
  3.4475211e-02
 -2.6069474e-01
  2.0920193e-01
 -5.0494656e-02
  7.7016667e-02
  1.6735838e-01
  6.0948092e-01
 -4.3454267e-02
  1.1977331e-01
  2.0536904e-01
 -6.9370425e-01
 -7.2059524e-01
  7.7691063e-02
 -2.3543967e-01
 -3.0422878e-01
  1.4365016e-01
 -1.8511766e-01
 -8.9456085e-03
  1.6143286e-01
  2.4747024e-01
  7.3359236e-02
 -3.3671969e-01
 -9.1566332e-03
 -9.9517286e-02
 -1.2566146e-01
 -2.9225117e-01
 -3.4396720e-01
 -1.6076675e-01
  2.3020223e-02
  1.1670887e-03
  1.2921209e-02
 -7.2884522e-02
  1.6666215e-02
  2.9571640e-01
 -9.9113151e-02
 -1.1772840e-01
  1.9365180e-02
  4.7747478e-02
  1.1570522e-01
 -1.9391757e-01
 -1.7170920e+00
  1.5096908e+00
 -1.4781548e-01
  2.1200430e+00
 -5.9307748e-01
 -7.7050292e-01
 -1.0913949e+00
  1.7458395e+00
 -5.9503001e-01
  1.9557413e+00
  1.1368389e-01
 -8.5151009e-02
  8.4819621e-01
  3.6288567e+00
  5.3658664e-02
 -1.2721349e+00
  6.3038486e-01
  2.9674113e+00
  6.3583791e-01
 -2.2896439e-02
 -1.6453467e-01
 -5.1738832e-02
 -1.6988102e-01
  8.7157853e-02
 -1.6214761e-01
 -2.8553712e-01
  1.0551251e+00
 -6.0120708e-01
  1.8953712e-01
  2.7500504e-01
 -4.2381299e-01
  2.7773621e+00
 -1.9129274e-02
  1.7443923e+00
 -4.1244127e-02
  1.1096699e+00
 -9.1041899e-01
 -9.5606908e-02
 -5.9277330e-02
 -1.4522741e+00
 -1.4664462e-01
  4.9786398e-01
  6.5182960e-01
  1.3426227e-02
 -5.1226324e-01
  2.0351031e-01
  1.3614975e-02
 -3.3552922e-02
 -1.2517652e-01
  4.8619193e-01
  2.5497806e+00
 -1.4526506e-01
 -3.0325544e-01
  4.5768389e-01
 -3.4896832e+00
 -2.6376703e-01
  1.5798165e-02
 -2.4572189e-01
  4.8159024e-01
 -3.6962375e-01
  1.9233003e-01
 -3.1050915e-01
 -1.7990028e+00
  5.4964170e-02
 -5.6345105e-01
  1.9989735e-01
 -3.0819023e-01
 -5.1938295e-01
 -2.8386761e-02
 -3.3590198e-01
 -3.9162785e-01
  8.9224689e-02
  4.0511116e-01
  1.9554578e-02
 -5.6321651e-01
 -2.2777933e-01
 -1.8493028e-01
  8.5120507e-02
 -3.2653481e-01
  2.5918938e-02
  1.5084359e-01
  2.1986580e-02
  1.6752556e-01
 -1.8860655e-01
 -3.5993257e-01
  7.4225679e-02
  2.0789124e-01
  5.0012987e-02
 -4.0630162e-02
 -1.6444610e-01
  1.7194003e-01
  4.4457433e-01
 -2.7239799e-01
  1.2714389e-01
 -1.1032727e-04
 -5.2655801e-02
  2.5445178e-01
  3.2726690e-01
  2.1719806e-01
  2.3558104e-01
 -2.8399983e-01
  2.7680650e-01
  5.7490534e-01
  3.0395943e-01
 -2.9459737e-02
  9.3906716e-02
 -5.9275979e-01
 -9.2697307e-02
  1.9995165e-01
  1.4925018e-01
 -6.3643545e-02
  1.6431059e-01
  1.5176144e-01
 -3.3274047e-02
  2.4923768e-02
 -2.5780186e-01
  3.1970069e-01
 -6.4950779e-02
  7.8765288e-02
 -4.7098331e-02
 -1.7377748e-01
 -1.1479951e-01
 -7.3169243e-01
  1.6403706e-01
  9.6708193e-02
  4.4335198e-02
  2.8097602e-02
  4.6533309e-02
  2.3292202e-01
 -1.5321206e-03
 -1.2990746e-01
 -3.6616588e-01
  1.9893833e-03
 -2.7497225e-02
  4.9672954e-02
  3.6832672e-02
 -1.3902301e-01
 -1.4909539e-01
  2.0145334e-01
 -1.7576490e-01
 -2.3440698e-01
 -6.9358006e-02
  2.6044276e-01
 -5.9904075e-01
  2.8593689e-03
 -1.7884669e-01
  9.8219223e-02
  9.9937059e-03
  3.0629575e-01
 -3.4159267e-01
  1.6782013e-01
 -1.1729443e-01
 -1.3633889e-01
 -4.2228708e-01
  9.5775262e-02
 -1.8253168e-01
  4.8753673e-01
 -5.2836295e-03
  4.3661460e-02
 -4.0261233e-01
 -3.6323804e-01
 -1.6980324e-02
  1.6686442e+00
 -9.8500621e-01
  2.9608409e+00
 -7.8699951e+00
 -4.6042204e+00
  3.0585003e+00
 -2.4061172e+00
 -4.0002900e-01
 -7.4029499e-01
  6.0665287e-02
 -1.5098186e+00
  1.1200465e+00
  5.3015125e-01
  2.7610809e-01
  3.1773949e-01
 -1.8632201e+00
  1.1850958e+00
 -1.5710241e+00
  1.9506806e+00
 -4.5673952e-01
  1.9375912e+00
 -6.1124152e-01
 -8.4429300e-01
 -5.5404073e-01
 -1.0186718e+00
  1.9838802e+00
 -3.8557690e-01
  1.4068021e+00
  7.6064020e-01
  1.9929379e+00
  6.4951414e-01
 -7.6975322e-01
 -4.5911771e-01
 -3.2919320e-01
  1.2789023e+00
  6.3270144e-02
 -2.2906770e-01
  1.5596703e+00
  1.1224772e+00
 -1.6454150e-01
  2.8305420e-01
 -3.7932718e-01
 -3.3200651e-01
  1.6980940e+00
  2.8117546e-01
 -3.7490901e-01
 -4.9300201e-02
 -7.0277862e-02
 -1.0730597e-01
 -2.5478014e-01
 -7.7536458e-01
 -1.7468634e-01
  8.8082939e-02
  5.4855001e-01
 -5.3842500e-02
 -3.0611398e-02
 -2.9682642e-01
 -1.4690676e-01
  4.8423457e+00
 -1.2919863e-01
  1.0278079e-01
  4.2059589e-02
  1.9117312e-01
  3.0865133e-02
  8.9235291e-02
 -2.3511402e-01
 -4.1667562e-02
  3.7062392e-01
  3.2840568e-01
 -3.1854707e-01
 -2.9800850e-01
 -1.7205282e-01
  3.8709383e-02
  1.0624417e+00
  7.3883712e-02
 -1.5799928e-01
 -3.9429512e-02
 -3.0074394e-01
 -3.3618760e-01
 -1.1802395e-01
  9.2259526e-02
  3.1615952e-01
  3.9876941e-01
 -6.9799930e-01
 -3.4804261e-01
 -4.5293128e-01
 -9.8079115e-02
  7.4174231e-01
 -4.0125242e-01
 -2.6168820e-02
 -4.7051191e-01
 -8.0742888e-02
 -1.5603904e-01
  1.9324118e-01
  3.3238289e-01
  2.0540178e-01
  1.7045973e-01
 -1.5705942e-01
  4.3301836e-02
  2.2593632e-02
 -7.8924522e-02
 -9.8854825e-03
 -4.6365812e-01
  2.8714836e-03
  1.2007380e-02
 -3.4587014e-02
  1.4311974e-01
  1.8974560e-01
 -8.0044490e-01
 -2.1242310e-01
 -1.8296620e-01
 -3.1647389e+00
 -1.3139846e+00
  7.9938579e-01
 -1.9172155e+00
 -1.2921568e+00
 -3.3940575e+00
  1.3505937e+00
 -5.0587451e-01
  5.7442278e-01
 -2.3914976e-02
 -2.3012386e-01
 -4.3493673e-01
  7.1785316e-02
  4.1647181e-01
  6.6055602e-01
 -1.9702393e-01
  5.5956429e-01
  4.7187306e-02
  4.1305208e-01
 -3.4846216e-03
  2.7385921e+00
 -7.2740771e-02
 -2.0853989e-01
  8.7075889e-02
 -1.6814122e-01
 -5.9284770e-01
 -5.0915116e-01
 -5.4962349e-01
  1.2178490e-01
  1.4744074e+00
  1.6788645e-02
 -2.1096718e-01
  2.1367395e-02
  5.3648251e-01
  5.4076441e-02
  2.8259388e-01
 -3.7477103e-01
 -1.4516465e-01
 -9.7082388e-01
  2.6339136e-02
 -1.5490906e-01
  3.8627681e-01
 -9.4054833e-02
 -1.0002369e-01
 -1.2416136e-01
 -2.1100447e-01
 -1.4290443e-01
  6.3928857e-02
 -4.7548369e-01
 -1.1999865e-01
 -3.7258404e-01
  5.7227474e-02
 -1.8494990e+00
 -9.4575578e-01
  2.3304664e-01
  5.5770487e-02
 -5.1508778e-01
  4.7822377e-01
 -2.1094376e-01
 -9.8214602e-01
  3.6695915e-01
  2.1066833e-01
  1.1767404e+00
  2.5858039e-01
 -1.9079483e-01
  2.2804618e-01
  1.4995033e+00
  7.3698394e-02
  2.0375261e-01
 -5.5790301e-02
 -1.1519731e-01
 -2.4026427e-01
 -2.3882453e-01
  6.1571282e-01
 -5.0388183e-02
  3.9572102e-01
  8.8340174e-03
  5.8516103e-01
  5.2313828e-01
  1.8599267e-01
  6.9534052e-03
  5.3453557e-03
 -2.5133952e-02
 -1.4306137e-01
  4.9485117e-02
  3.1615481e-01
 -5.6320257e-02
 -2.3124114e-01
  6.9685668e-01
  2.1300049e-02
  6.7668241e-03
  1.4303550e-01
 -5.1396631e-02
 -6.4849637e-02
  2.9436722e-01
  3.2638821e-01
 -5.9990849e-02
 -2.0118363e-01
  1.5641907e-01
  2.2963619e-01
 -2.3383352e-01
 -3.5539515e-02
 -6.1485276e-02
 -2.8546438e-01
  9.6716546e-02
  1.6162291e-01
 -1.3829482e+00
 -3.2077178e-01
 -6.6183090e-02
  3.2828999e-01
  2.2278605e-01
  1.2412955e-01
  2.2665447e-01
  1.7071141e-01
  1.0321473e-01
 -6.0316227e-02
  5.2731586e-01
  5.3138252e-02
  1.1791799e-01
  6.1538875e-01
 -1.7981844e-01
  1.7784248e-01
 -2.4486974e-01
 -6.8134326e-01
  9.3670391e-02
  1.0705732e-01
  4.2847339e-03
  1.1596153e-01
 -2.0918791e-01
  8.8276424e-02
  2.6238482e-03
  1.5813862e-01
  1.0886898e-01
  1.1636455e-01
 -2.7575742e-02
  4.0270470e-02
 -1.8028285e-01
 -2.2691084e-01
 -4.1425800e-01
 -1.5946867e-01
 -2.6510793e-01
  2.0967649e-01
  3.9381048e-01
  1.1595055e-01
  4.1690683e-01
  5.9831243e-02
  1.0655302e+00
 -6.8273738e-02
 -3.4574765e-01
 -3.9778104e-01
  3.5166636e-01
 -2.1256696e-01
  3.1307019e-02
 -1.5767306e-01
 -1.3440752e-02
  3.2973361e-01
 -1.4831659e-01
  2.0374662e-01
  1.8626601e-01
 -4.1032776e-01
  9.1861469e-01
 -5.2680415e-01
 -1.4898944e-02
  3.0255958e-01
 -1.1272056e-01
 -3.1649601e-01
  1.5990072e-01
  8.6684013e-04
 -3.0931786e-01
  4.6226565e-02
 -8.2497519e-01
  7.2177994e-01
  2.8222775e-01
  7.2825775e-02
 -6.0696974e-02
  3.7046388e-01
 -2.8835955e-01
 -1.4102390e-02
  7.6404475e-02
  2.7002953e-02
 -2.8135327e-01
  2.3122345e-01
  6.0787611e-03
  4.8064534e-02
 -1.9604287e-01
  1.3571846e-01
  2.9227261e-02
 -7.3664922e-01
  1.3686430e-01
 -1.3760190e-01
 -3.0531722e-01
 -1.2479299e-01
  9.9514350e-02
  8.1634983e-02
  4.5457222e-02
 -4.3325803e-01
  2.2837810e-01
  3.5453928e-01
 -3.4149629e-01
  4.6632415e-01
 -1.2595783e-01
  1.7960976e-01
 -3.4085259e-02
 -4.1242141e-01
 -8.9107978e-01
  5.9890735e-01
 -1.9159681e-01
  4.3118063e-01
 -7.1681246e-02
 -4.1441956e-01
 -4.4944048e-02
 -5.2103177e-03
 -1.1413497e-01
  3.5572946e+00
  6.0119593e-01
 -1.3546029e+00
 -7.4580657e-01
 -4.3158665e+00
 -2.5341439e+00
  2.0689273e+00
  3.6198032e-01
 -3.2981257e+00
 -4.3279031e-01
 -8.5620844e-01
  3.1173625e-03
 -1.2921120e-01
 -7.4432212e-01
 -2.0789321e-01
 -6.0976011e-01
 -2.3290625e-01
  4.7864896e-01
  1.1402024e+00
  1.6443988e-02
 -8.5781819e-01
 -7.1916401e-01
 -4.1206190e-01
  2.6139572e-01
  8.0868199e-02
 -1.0077979e-01
  6.2800086e-01
 -1.4685136e+00
  1.0552933e-01
 -4.9588338e-01
 -3.9470533e-01
 -3.4605939e-02
 -2.4582971e-02
  6.9200367e-01
 -5.7831925e-01
  1.2017129e-01
  6.0878575e-01
 -2.2900234e-01
  1.0371838e+00
 -8.9039582e-01
  2.1356653e-01
  1.5137354e-02
  3.3383676e-01
 -3.1375092e-01
 -1.1449918e-01
 -3.8944624e-02
 -1.1026832e-01
  4.4256486e-02
  4.3275874e-02
 -1.0157690e+00
  1.4192283e-01
  2.8351450e-01
  3.2338426e-02
  9.5418513e-02
 -1.1984936e+00
  7.5466019e-01
 -1.6307520e+00
  4.0727571e-01
  4.8860347e-01
  1.8078862e-01
 -1.0237648e-01
  2.1121943e+00
  1.5691271e-03
 -2.2541061e-03
 -5.4365486e-01
 -3.0392957e-01
  9.9044487e-02
  7.4833065e-01
 -1.4966846e+00
 -9.1099119e-01
 -1.1697784e-01
  9.9667120e-01
 -1.2014434e+00
  2.9465777e-01
  1.7980462e-01
  2.8324130e-01
 -1.2841822e-01
 -9.4943994e-01
  5.0793678e-01
 -1.1758371e-01
  1.4138548e+00
  1.9157970e-01
  5.5052098e-03
 -7.0615238e-01
  1.7947757e-01
  6.5606165e-01
  2.2725677e-01
 -1.4535610e-01
 -6.0176748e-01
  2.1120179e-01
 -1.4570248e-01
  4.7552565e-01
 -3.8134819e-01
  3.4398022e-01
  5.9194684e-01
  4.7228104e-01
 -2.8589234e-01
 -5.6166345e-01
 -1.1037704e-01
  7.4135922e-02
  1.0492993e-01
 -3.4830868e-02
  2.6256227e-01
  1.0015118e+00
  3.5663497e-01
 -1.1949332e-01
 -4.9441963e-01
  9.2692403e-03
  2.7858299e-01
  7.2849178e-01
  3.8344952e-01
  5.9045619e-01
 -7.0385516e-02
  6.4339685e-01
  3.2336169e-01
  1.7750761e-02
 -2.5041145e-01
 -1.5252307e-01
  2.6177216e-01
 -4.6866256e-01
 -2.1371875e-02
  5.7912804e-03
 -1.2264197e-01
  2.4411019e-02
 -1.2363546e-01
  5.1873922e-04
  3.7608233e-01
  3.6149928e-01
 -3.7116277e-01
 -2.6957141e-02
  1.8353865e-02
  1.3058162e-01
 -2.7409312e-01
 -1.8580242e-01
  2.4058625e-01
 -9.6633285e-02
  1.6043134e-01
 -1.9161169e-01
 -4.5141667e-01
 -1.4009435e-01
  8.2749121e-02
  3.8079906e-01
  2.3940860e-01
 -1.4217822e-03
 -4.3274175e-02
  3.1031483e-01
 -3.3001316e-01
  2.1362509e-01
 -2.6291510e-01
  1.2178823e-02
  7.6134957e-02
  1.0124944e-01
  6.7529075e-02
  5.8988458e-01
  1.9875247e-02
 -4.6249580e-01
  1.1880938e-01
  8.1339449e-02
  5.8608200e-02
  4.0126917e-01
 -3.1549692e-01
 -5.3748125e-01
  1.9833525e-01
  1.7068145e+00
 -2.3599619e-01
  1.3920579e+00
 -3.1066692e-01
 -1.8165324e+00
  1.4516336e+00
 -3.5808879e-01
 -1.4410117e+00
  2.8018792e+00
 -5.1974423e-02
 -1.8612685e+00
  4.4069004e-01
 -1.6318378e+00
  1.1503184e+00
  1.0760626e+00
 -8.4001881e-01
  4.6018810e+00
  1.8549386e-01
 -7.9801941e-01
 -2.2894523e+00
 -4.7944930e-01
 -2.2752306e+00
  1.8180789e+00
  4.9084428e-01
 -5.0760889e-01
  3.7131078e+00
 -1.8693119e-01
 -4.1276005e-01
 -2.8233435e+00
  5.3313911e-02
 -7.4604994e-01
 -4.4957590e-01
  1.6066030e+00
 -1.5526857e+00
  2.4224460e+00
 -1.1613405e+00
  3.1734639e-01
  1.4867742e-01
 -1.3892994e+00
 -6.2894410e-01
  1.5900869e+00
  2.6377192e-01
 -8.2085931e-01
  1.6438358e+00
 -6.3664889e-01
 -2.0382674e+00
 -1.8790442e-01
  6.7586237e-01
 -4.4868168e-01
  2.8230081e+00
  3.0150924e-02
 -4.9152344e-02
 -7.5195551e-02
 -2.0952278e-01
  2.5930944e-01
  1.1607982e+00
  1.1680189e+00
 -2.4707180e-01
 -3.9238796e+00
 -2.1836364e+00
 -8.7014866e-01
 -3.0184190e+00
 -1.2353675e-02
 -1.6949394e-01
  1.0927620e-01
  2.1494034e-01
 -2.1796775e-01
 -2.5744808e-01
  9.0673059e-02
 -4.1987991e-01
  6.0615969e-01
  1.9717765e-01
  1.4931746e-01
  1.4628902e-01
  2.6701647e-01
 -3.6725739e-01
 -2.7778977e-01
  1.6334015e-01
  6.5516531e-01
  2.0358074e-01
 -6.5905929e-01
 -2.1058105e-01
  9.3339247e-01
  3.4775412e-01
  7.8247893e-01
  1.1591212e-02
 -2.7743194e-01
  1.2260302e-01
 -3.5924891e-01
 -1.9087717e-01
  1.9357304e-01
  3.2863918e-01
  3.3035758e-01
 -2.1473303e-01
 -2.7946600e-01
 -4.9167052e-03
 -6.4905152e-02
  3.9058301e-01
  2.1146357e-01
 -3.9508194e-04
 -8.1713043e-02
 -1.4653458e-01
 -4.2238331e-01
 -8.1608087e-02
  8.6746447e-02
  3.0730781e-01
  3.2264155e-01
  1.0159487e+00
 -1.1041508e+00
  1.2926973e+00
  3.4856195e+00
  7.6723181e-02
 -2.7930114e+00
 -6.6404647e-01
  1.3180847e+00
  3.3451426e-01
 -2.1934076e-01
  3.9742774e-01
 -5.2994418e-01
 -1.6091352e-02
 -1.7053336e-01
 -2.5274485e-01
  8.4979989e-02
  2.5883061e-01
  6.1406970e-01
  3.4977566e-02
  1.1003835e-01
 -4.7918868e-01
  2.7479339e-01
  9.4649261e-01
 -3.7050384e-01
  2.4848955e-03
  6.9303885e-03
 -2.1824022e-01
  5.2352828e-01
 -1.5208219e-01
  1.4871123e-01
  1.7263764e-01
 -2.3322710e-01
 -3.8382110e-01
  4.2192955e-02
 -3.0255350e-01
  3.3388648e-02
  3.6721197e-01
  3.6614966e-01
 -3.0841261e-01
  4.7907639e-01
  2.9984150e-02
 -2.3376012e-01
  3.2919523e-01
 -2.8456903e-01
 -4.1475433e-01
 -4.0255946e-01
  5.6553608e-01
 -9.6132979e-02
  1.6321798e-01
 -9.3826510e-02
  2.8150640e-02
 -3.4683135e-01
  7.1082354e-02
 -6.6422576e-01
 -2.6967883e-01
  9.4809693e-01
  7.3792702e-01
  3.1411722e-02
 -2.8671402e-01
 -8.4418943e-04
  6.7774124e-02
  2.2885521e-01
  7.5465348e-03
  5.1576938e-02
 -1.6905192e-02
  3.5308588e-01
  7.3148198e-03
  3.8709801e-02
 -2.8465790e-01
 -3.9364621e-01
  2.4776830e-01
  1.3840537e-01
  3.7880489e-01
  2.7715135e-01
  4.0580276e-02
  2.1462539e-01
 -5.9246860e-02
  1.0044365e-01
  2.6306251e-01
 -7.6263621e-02
  2.5823042e-01
 -2.0087823e-01
 -2.0707598e-01
 -1.1156116e-01
  1.9236879e-01
 -3.6651659e-01
 -1.1792871e-02
 -1.0245934e-01
  8.9992487e-01
  6.9436468e-02
 -2.7512473e-01
  2.6028785e-01
  6.8022095e-02
  1.5702100e+00
  2.0724531e-02
  2.8921297e-01
 -1.8218186e-02
  6.3072100e-02
 -6.6582672e-02
 -3.1406319e-01
  4.5480523e-01
  8.2186773e-02
  1.7674285e-01
  2.2778030e-01
 -3.9149001e-01
 -1.2817193e-02
 -5.4388124e-01
  2.0545369e-01
  4.4423872e-01
 -9.4069797e-01
  7.1581388e-01
  5.0374424e-01
 -1.5288985e-01
  3.0689675e-01
 -6.2933880e-01
  1.1639156e+00
  2.8342690e+00
 -2.6618874e-01
 -1.6469412e-01
  2.8701458e+00
  1.1946591e+00
  1.1329043e+00
 -1.0392285e-01
 -5.0199151e-01
  3.6555633e-01
  1.5261551e+00
  9.9544728e-01
  1.2515827e+00
  1.7673550e+00
  2.3460484e+00
  9.3948960e-01
 -9.3694472e-01
  9.9307552e-02
 -3.6410779e-01
  1.4646344e+00
  1.3199078e+00
 -6.4842308e-01
  1.7338599e+00
 -2.5612953e-01
  5.4897797e-01
  7.5841635e-01
  3.9394796e-01
 -1.0070978e-01
  1.2007382e+00
  6.5241110e-01
 -7.2300923e-01
  9.6812677e-01
 -3.6612917e-02
  3.3934936e-01
 -1.6422048e-02
  1.0883091e-01
  2.0844147e-01
  4.2189792e-01
  6.4452076e-01
 -2.7268361e-03
 -4.2484629e-01
  8.7048531e-02
  4.9516538e-01
 -7.8066960e-02
 -1.2117619e-01
 -4.7307941e-01
 -7.1021092e-01
  4.3078274e-01
 -2.3985967e-02
  3.4211159e-01
 -1.2047396e-01
 -1.3111001e-01
 -1.7545514e-01
  1.9272369e-01
  3.8833994e-01
  3.0000541e-01
 -5.4851051e-02
 -1.1478876e-01
  2.1854958e-01
 -1.4204491e+00
  2.2812316e-01
 -2.9296002e-01
  2.1237078e-01
 -3.1495705e-01
  8.9120731e-02
 -1.2931661e-01
 -1.9872023e+00
 -4.5742169e-02
  1.9721505e-01
 -1.0591861e-01
  1.5720916e-01
 -1.2908068e-01
 -5.4240084e-01
  3.2662556e-02
  5.4321796e-02
 -3.5184407e-01
  2.9220654e-02
 -1.7470337e-01
 -3.5756209e-01
  1.1729957e-01
 -4.0637884e-01
 -7.5823992e-02
 -1.3072307e-02
  6.6407877e-01
  1.1945168e-01
  1.5855648e-01
 -2.4387655e-01
 -1.8023691e-01
  3.9252080e-02
  2.2607548e+00
  3.5527068e-01
 -2.4395116e-01
 -2.6426327e-01
 -1.6630751e-01
  8.5685588e-02
  7.6849587e-02
  1.9928442e-01
  4.1325572e-01
 -1.8727349e-01
  1.2740599e-01
  4.1701239e-01
  1.0167063e+00
 -9.0699005e-01
  1.7364328e-01
  2.0761292e+00
  6.2323326e-01
  1.3444451e+00
  2.9445309e-02
 -1.1111511e+00
 -4.4831333e-01
 -2.5466883e-01
  1.2513231e-01
  6.9171518e-01
  2.7302057e-01
 -6.8686176e-03
 -6.4289659e-02
  2.3066124e-01
 -7.2929226e-02
 -1.0713233e-02
 -1.4074817e-01
 -2.8691122e-01
  1.7912790e-01
  6.7264861e-01
 -4.5475912e-01
 -4.9682245e-01
 -5.1048714e-01
 -7.4004889e-02
  2.9925951e-01
 -8.6115740e-02
 -7.5826511e-02
  1.3765004e-02
  5.8208745e-02
  1.0192562e-01
 -1.5368038e-01
 -1.1547418e-02
 -3.7605906e-01
 -1.0089389e-01
  1.0954024e+00
  9.2824258e-02
 -1.5984721e-01
 -1.3230783e-01
 -4.4346951e-02
  1.4710402e-01
  5.3962791e-01
  3.6720937e-01
 -3.9577302e-01
  3.1524143e-01
  3.3897462e-01
  2.8416637e-01
  1.2126038e-02
 -5.2684460e-02
  8.6358726e-02
  4.2177880e-01
  1.8121351e-01
 -4.9207726e-01
  2.3495443e-01
 -3.2442784e-01
 -2.7764085e-01
 -1.7195664e-01
 -3.8728949e-01
  1.5520452e-02
 -2.5536608e-02
  7.2476834e-02
  1.3447043e-01
 -1.0584442e-01
 -2.0657536e-01
 -8.6723782e-02
  4.3290097e-01
  1.3427314e+00
  2.5210530e-01
  1.7133987e-01
 -9.3211971e-02
  1.3627416e-02
  2.8254041e-01
 -4.9802753e-01
  9.9948719e-03
  1.0949072e-01
  3.2916501e-01
 -6.0255384e-01
  2.6751509e-01
 -3.6298990e-01
 -4.6212220e-01
  4.1022083e-01
  2.2655103e-01
 -1.0505603e-01
 -2.2697899e-01
 -8.8707995e-01
 -7.2198190e-02
 -2.6216525e-01
 -6.7342192e-02
 -2.0283461e-02
 -5.1174581e-01
  1.5428686e-01
 -4.3070585e-01
  1.0469835e-01
  4.5711452e-01
  1.9971579e-01
 -2.0456365e-01
  4.4879686e-02
  7.6129772e-02
  6.6723367e-03
 -4.7126997e-01
  5.8162911e-04
 -1.0791463e-01
 -4.0040487e-01
  7.0388332e-02
 -2.6259765e-01
  1.7542434e-01
  1.4457425e+00
 -1.2357255e+00
 -1.9075893e-01
  7.4637681e-03
 -9.9236004e-02
  2.2990566e-02
  1.6631830e-01
  1.7872632e-01
 -2.2933277e-01
 -1.0732996e-01
  2.8760132e-01
  3.8278699e-02
 -2.6483897e-02
  2.8077558e-02
  1.5877084e-01
 -7.9257406e-02
  5.5564505e-01
  8.2164742e-02
 -2.1313815e-01
 -2.0906484e-01
 -8.6007975e-02
 -4.1804593e-02
 -2.7692392e-03
  9.9677704e-03
  2.4023365e-02
  2.4424872e+00
 -2.3639858e-01
  5.3714937e-01
 -2.7950673e+00
 -9.8777905e-02
  6.5919781e-01
  1.5237226e-01
 -1.3562180e-01
  3.8578305e-01
  1.4832500e-01
 -5.1422346e-01
  4.0226066e-01
 -1.1612945e-01
  2.6440644e-01
  2.1082120e-01
  6.4924031e-02
 -5.4261017e-01
 -7.3174417e-02
 -2.2313625e-01
  1.8186757e-01
 -1.5158929e-01
 -6.4259688e-03
  1.2446122e-01
 -6.3634109e-01
 -7.0344627e-01
 -1.7806733e-01
  1.3908437e-01
  4.2004833e-01
  3.0382823e-02
  1.6302302e-01
  2.9822460e-01
 -1.6427279e+00
  6.5068287e-01
 -5.7014127e+00
 -3.3611396e-01
  1.1994090e+00
  4.5819828e-01
 -6.5580410e-01
  9.7934902e-02
  2.7525334e+00
 -8.8760817e-01
  3.6710209e-01
 -4.3852501e-02
  1.3634385e-01
  1.5525606e+00
 -3.8424404e+00
  5.4915208e-02
  1.5539569e+00
  2.0788462e+00
 -2.0834770e+00
 -3.8399038e-01
  1.1408483e+00
 -9.0427744e-01
 -5.6900316e-01
 -3.7951311e-01
 -1.3371555e+00
 -1.0185902e+00
  1.3767732e+00
  1.4123949e+00
 -2.7807158e-01
  1.0639860e-01
 -3.2877463e-01
 -1.5504761e+00
  7.4320294e-02
 -3.8549989e-01
  1.6801490e+00
 -3.0329892e-01
  1.2247379e+00
 -1.6781907e+00
 -5.0290555e-01
 -5.5445457e-01
  1.2747204e-01
 -3.5132939e-01
  2.9468876e-01
 -3.6624369e-01
  9.9034213e-02
  5.2619424e-02
  1.2120964e-01
  1.3974386e-01
 -9.2378370e-03
 -8.2227391e-01
 -1.4451486e-01
 -3.2034084e-02
  4.7983147e-02
 -1.0003743e+00
 -2.3896155e+00
  2.1829686e+00
  2.4067969e+00
 -3.6478207e+00
 -6.9508918e-02
 -3.1244838e-01
 -4.7219658e-01
  1.3850691e+00
 -3.4898180e-01
 -1.0774089e-01
  4.5241246e-01
  2.3657605e-02
  2.5594407e-01
  3.8274497e-01
  8.0002469e-01
  3.8981764e-03
  9.6414015e-02
  1.0862042e-01
 -7.5092494e-02
 -4.0672818e-01
 -1.4597020e-01
 -4.8038617e-01
  8.8175014e-03
  4.6078558e+00
  8.1933916e-02
 -1.6243633e+00
  1.6158878e+00
  9.4348878e-01
  7.0579566e-02
 -3.0659461e-01
  6.1844736e-01
 -2.9149804e-01
  4.4936410e-01
  6.3608360e-01
  2.7710119e-01
  1.0302905e-01
  1.2289927e-01
 -1.4634481e-01
  7.1418434e-02
 -6.6410333e-02
 -1.9553222e-01
  1.6055465e-01
  1.1569964e-01
  5.9292608e-01
 -8.0586076e-03
 -1.3187392e+00
 -1.9275789e-01
  4.6254132e-02
  1.5103766e-01
 -5.0248865e-02
  9.4355129e-02
 -2.3907655e-01
 -1.0211863e-01
  1.8096235e-02
  1.5461378e+00
 -3.9743334e-01
  4.7896254e-01
  5.3204632e-01
 -1.0338061e-02
  1.1341643e-02
  2.7028322e-02
 -2.4533014e-01
 -9.0522301e-01
  8.6736277e-02
 -1.2023823e-02
  1.8588001e-01
 -1.0614033e-01
 -2.9635914e-02
 -1.2232358e-01
 -4.0355065e-01
  5.4675019e-01
 -2.3619428e-01
  7.1885526e-02
  4.7109661e-01
  4.3061435e-01
 -3.9487731e-01
 -8.3606448e-03
  3.0906010e-02
 -1.3345543e-01
  3.8906813e-02
  5.9765118e-01
 -1.8107510e-01
  1.1252210e-02
 -5.8357634e-02
 -1.3977855e-02
 -1.2779471e-01
 -1.5558429e-01
  4.1436276e-01
  1.2553462e-01
 -1.9812308e-01
  5.4273945e-01
 -7.5071938e-02
  2.1436869e-01
 -2.1761049e-01
 -6.8386860e-02
 -5.8992356e-02
 -6.0092032e-02
 -3.4452781e-02
 -3.0997172e-01
 -2.4511743e-01
 -7.3764019e-02
 -3.4390494e-01
  1.1657254e-01
  5.4958856e-01
  2.1573113e-01
  1.7999513e-01
  4.3648414e-02
  1.0883446e+00
 -5.4156405e-01
 -9.6323907e-01
  8.8763583e-01
  8.0014873e-01
 -6.3904762e-01
 -5.0193644e-01
  1.5630004e-01
  2.7743580e+00
 -8.0627695e-02
  1.1868565e-01
 -7.0793307e-01
  3.1200588e-02
 -1.5505058e+00
  9.3326801e-03
 -1.2653880e-01
  6.5583014e-01
  5.1633763e-01
  1.1887596e+00
  4.6373969e-01
  1.9845895e-01
  3.6844350e-02
  2.1351783e-01
 -1.6694969e-01
  5.3341722e-01
 -6.3475072e-01
  1.1884910e-01
 -2.2534777e-01
  7.5195476e-02
  3.8212401e-01
 -2.1309561e-01
 -3.2030813e-02
  4.8309124e-01
 -3.2892499e-02
 -1.2065942e+00
 -3.2642812e-02
  2.7968056e-02
  5.7745528e-01
  2.5656310e-01
  4.0490162e-02
 -2.2068039e-01
  1.8373840e-01
  3.5789618e-01
  4.0967390e-01
 -8.7846294e-02
  1.7235515e-01
  6.0606968e-01
  3.5504684e-01
 -1.6812593e-01
 -1.1501856e-02
 -1.0871332e-01
  9.7085035e-01
 -6.4543173e-02
 -3.9827979e-01
  7.1321988e-01
  1.9317971e-01
 -3.6430973e-01
 -9.1440402e-02
  7.8749698e-01
  4.3335225e-02
 -7.4275784e-02
  6.0992157e-01
 -1.7156850e-03
 -6.7417626e-03
 -1.9889717e-01
 -1.5844363e-01
 -4.1651049e-01
 -1.0553463e+00
 -1.6918051e-01
  2.3481825e-01
  7.6977842e-02
 -1.3014486e-01
  6.3935417e-01
  4.7862649e-02
 -2.5933817e-01
 -2.9225504e-01
 -2.8618902e-01
  4.4791180e-01
  5.9574943e-02
  1.9698885e-01
 -1.5577886e-01
 -9.1541380e-02
 -7.2564363e-02
  8.4462479e-02
 -4.3783866e-02
 -1.1426263e-01
  1.4140038e-01
 -2.2989206e-01
 -4.0821370e-01
 -3.8307738e-01
 -3.2808498e-01
  2.0779464e-01
  7.1719122e-01
  5.7529002e-01
  2.1052326e-01
  7.1565837e-01
 -1.4551657e-01
  2.5131751e-02
 -1.4247720e-01
 -1.1912701e-01
  1.3705654e-01
  1.1213699e-01
 -2.7024296e-01
  4.3326935e-01
  1.4583389e+00
  2.1048702e-02
  1.9395512e-01
  1.0138761e-02
  2.1816781e-01
 -6.4200413e-01
  1.0875187e+00
  3.0847591e-01
 -9.7713403e-02
  5.1335707e-02
 -7.2134620e-01
 -2.2550954e-01
 -6.5411618e-03
 -4.4802171e-01
 -5.4801702e-01
  3.1251934e-01
  5.6893730e-01
  1.1561961e+00
  2.7369136e-01
  2.2892892e-01
 -5.4935124e-03
 -2.1512708e-01
 -1.0941602e+00
  1.3126543e-01
  1.4181216e-01
 -8.8383825e-03
  1.6440728e-01
  2.2421911e-02
 -2.7608016e-01
 -2.1862425e-02
  8.7070876e-01
  1.4426726e+00
  2.2695701e+00
  4.5678440e-01
  3.7593904e-01
  1.4111625e+00
  2.7342990e-01
  1.6780560e-01
  1.1890662e+00
  1.6961488e-01
  1.2261237e-01
  8.8124567e-01
  3.2562036e-02
  5.4538012e-01
 -2.2390948e-01
 -2.9351315e-01
  1.0026588e-01
  3.6169606e-01
 -1.8233867e-01
 -6.6007864e-01
 -1.1815620e-01
 -3.1913435e-01
  1.0950915e-01
 -3.7532011e-01
  2.1692771e-01
 -5.9863174e-01
 -1.8638405e-01
  2.9069862e-01
  3.2571692e+00
  4.0742981e-01
 -5.6037992e-01
 -9.3227431e-02
  3.6856696e-01
 -5.9467947e-01
  1.7511107e+00
  3.1261384e-02
 -1.2754928e-01
  3.3339642e-02
  8.4370181e-02
 -3.1492358e-01
 -4.6812406e-01
  7.8416124e-02
 -1.6210340e-01
  5.3850353e-01
 -5.9060955e-01
  4.6151258e-02
 -6.2887710e-01
  8.6541110e-01
 -1.0213072e+00
  1.7588761e-01
 -6.5662003e-01
  5.2828777e-01
  3.0559089e-02
 -2.3570639e-01
  3.5862693e-01
 -1.5454599e-01
  2.1702234e-01
 -4.0623587e-01
 -1.5329538e-01
 -1.9236961e-02
 -8.6533697e-03
  2.3953067e-01
  1.6090082e-01
 -3.2382604e-01
  1.3971102e-01
 -1.1589041e-01
 -6.0003497e-02
  1.1229035e+00
  9.4500206e-02
  2.7731439e-01
 -3.2379732e-01
  1.7299968e-01
 -7.3562860e-03
 -3.1296042e-01
  8.2303390e-02
  2.8773192e-02
 -6.9974995e-01
  1.1603821e-01
 -5.7529563e-01
  3.2106453e-01
  2.5490500e-02
 -1.4991651e-01
  1.8455151e+00
  1.0321748e-01
  2.1995296e-01
  4.1526508e-01
 -4.4655879e-03
  1.3510239e-01
 -3.0340147e-01
  4.7809044e-01
 -7.9068655e-01
 -1.9602595e-01
 -8.5316217e-03
 -2.8927627e-01
 -4.9142894e-01
 -6.1649926e-02
 -3.1051803e-01
  6.0520526e-03
  6.3409537e-02
  7.4714214e-01
  2.8730690e-02
 -7.0750123e-01
  3.3066452e-02
  2.0131384e-01
  1.4493826e-01
 -2.6599687e-01
  1.9700289e-01
  3.7136931e-02
 -1.3232683e-01
  1.5327796e+00
  1.8355367e-01
  4.2735302e-01
  3.4781736e-01
  4.0718388e-02
 -4.1676767e-02
 -1.7638536e-02
  2.4555925e-01
  2.0200375e-01
 -3.7129778e-02
  2.0790958e-01
  2.2200035e-02
 -4.3412793e-02
  2.9197624e-02
  1.6556695e-01
 -7.7791065e-02
  5.1584768e+00
 -1.7883460e-01
 -1.7535031e-01
 -2.8831989e-01
  4.5618072e-02
 -2.0240346e-01
 -1.5235458e-01
  2.0922719e-01
 -3.1421041e-01
 -6.0902107e-01
  1.8164282e-01
  6.5974161e-02
  4.5104489e-01
 -1.4594227e-01
 -1.0016656e-01
 -1.4261141e-01
  3.6310050e-01
 -1.7925726e-01
 -3.8433790e-02
  9.0348691e-02
  1.5112288e+00
  2.4532135e-01
  5.6521237e-02
 -3.5544898e-02
 -1.4385115e-01
  1.6200729e-03
 -1.3952139e-01
 -1.4778316e-01
 -9.2335083e-02
  7.3730081e-02
 -3.9297032e-01
 -3.4385756e-02
  4.8992157e-01
 -2.2920597e-01
 -6.0307428e-02
  4.2658135e-02
  1.9283164e-01
 -7.4434921e-02
  5.8486462e-01
  1.6458811e-01
 -3.7286279e-01
  3.8814038e-01
 -5.2280441e-02
  4.4968169e-02
  2.0737948e-01
  1.2620719e-02
 -2.6832685e-01
  1.0817944e-01
  4.3578187e-01
  1.9030961e-01
 -5.4894811e-01
  7.0392734e-01
 -1.6272026e-01
  1.7819501e-02
 -1.0008823e-01
 -1.6616426e-02
 -2.5370380e-02
 -1.6570941e-01
 -2.6668906e-02
 -1.9779354e-01
 -3.1277454e-01
 -6.3726477e-02
  1.8241081e-01
  1.3621165e-01
 -6.1203230e-02
 -3.1454349e+00
  1.0655967e+00
  1.6838119e+00
 -6.4728385e-01
  1.0370937e-01
  1.3144820e+00
 -9.4355822e-02
  4.9829322e-01
  9.1089892e-01
  3.7661085e-01
 -3.2376382e-01
 -6.0650051e-01
 -4.3008739e-01
 -8.4205323e-01
  1.0105704e+00
 -2.3468371e-02
  2.5376350e-01
 -1.1568494e-01
  2.2573346e-01
  3.8313884e-01
 -1.4005433e-01
 -1.0164824e+00
 -9.2348015e-01
  8.5948139e-02
  1.0192572e-01
  9.7127503e-01
 -2.2725831e-01
 -1.0724125e+00
 -1.6057917e+00
 -6.9257045e-01
  1.0352007e+00
 -1.1508337e+00
  2.7281177e-01
 -2.7545017e-01
 -4.5051992e-01
 -1.1223785e+00
 -1.3450552e+00
 -1.1689266e+00
  6.3090730e-01
  6.2207770e-01
 -5.3378093e-01
 -2.5583196e-01
 -2.2684371e-02
 -2.5911221e-01
 -1.0820243e+00
  8.0862075e-02
 -4.2226809e-01
 -2.6745420e-02
  3.2919657e-01
 -2.3562884e-01
 -2.1159852e-01
 -2.0565137e-01
 -1.6212733e-01
  1.7551007e-02
 -5.5265877e-02
 -4.8586386e-01
  6.7964517e-02
  1.7335339e-01
 -3.9896572e-01
 -5.7106555e-01
 -3.5163957e-01
  2.8544730e-01
 -1.2876429e-02
 -1.8697964e-01
 -1.7920132e-01
  4.9627888e-01
  6.7745015e-02
  4.4329193e-01
  2.3673229e-01
  1.5859947e-02
  5.0958568e-01
 -1.4550465e-01
  7.5431205e-02
  1.0408879e-01
 -1.3232349e-01
  5.9646875e-02
 -1.1417853e-01
 -2.2264976e-02
 -1.5450408e-01
 -8.2745224e-01
  3.5028428e-01
 -6.0842786e-02
 -1.7379367e-01
 -6.7013741e-02
 -4.7277203e-01
 -2.9791015e-01
  8.9864861e-03
  1.4767373e-01
 -9.0703115e-02
  1.3982379e-01
  3.3175302e-01
  1.3696347e-01
  1.2577627e-02
 -2.8453809e-01
  1.1168742e-01
  1.3926078e-02
  4.1753374e-02
  3.9625496e-02
 -1.0502319e-01
  1.4283296e-01
  3.5141900e-01
 -2.7204739e-02
  2.8852537e-01
  2.1607205e-01
  2.6513748e-03
  5.8810645e-01
  1.2666434e-01
 -1.8118452e-01
  5.0440367e-02
  4.7332235e-02
  3.2107258e-01
 -4.8082122e-01
 -1.4075492e-01
 -6.7850120e-02
 -6.5445200e-02
  4.0477794e-02
 -4.1369149e-01
 -8.4015027e-02
  1.0419328e-01
  2.3317260e-01
  1.4169097e-02
 -1.4390299e-01
  1.6351399e-01
 -1.7353636e-01
 -1.5601921e-01
  3.9319787e-02
  5.2920842e-01
 -2.4678754e-03
 -1.8501966e-01
 -9.3391269e-02
  1.9508496e-02
  1.6005686e-01
  9.5008135e-02
 -6.9208972e-02
  9.7276293e-02
 -4.6637595e-02
  1.1403883e-01
  4.1577086e-02
  3.4691811e-01
 -9.5115304e-03
 -3.3507740e-01
  2.0205344e-01
 -3.7153432e-01
  1.0848427e-01
  1.7472842e-01
 -3.7406487e+00
 -1.2186638e-01
 -4.1777883e-03
 -4.1738266e-01
  5.4301471e-01
 -2.4497859e-02
 -8.4651008e-02
 -3.6307997e-01
 -1.6784188e-01
 -4.0297177e-01
  4.6035692e-02
 -1.3219252e-02
  1.1944244e-01
 -2.9154643e-03
 -3.3149451e-01
  2.5428516e-01
 -1.2225883e-01
  1.3173169e-01
  4.9453223e-01
  4.3030781e-01
 -6.4120895e-01
 -8.3484316e-01
 -3.1546453e-01
  1.1654834e-01
 -1.0272330e+00
 -1.0407218e-01
  2.4024285e-01
  5.6744963e-01
 -5.4758638e-01
  1.9199280e-02
 -4.8471773e-01
  3.9894529e-02
 -8.0576306e-03
  1.1564432e-01
 -8.0826305e-02
  2.6351184e-01
 -1.4295904e-01
 -9.8624349e-02
 -1.1787752e-01
  5.6926832e-02
  7.4512109e-02
  2.2120458e-01
  7.7979103e-02
  2.9093709e-02
  1.4445913e-01
 -1.6895168e-01
 -1.4804026e-01
  4.3563530e-01
 -7.3574907e-03
  6.3645117e-02
  4.0831885e-01
 -6.4132020e-02
  1.0873041e-01
 -3.7834942e-01
 -2.1931139e-01
  1.8453147e-01
 -3.2398266e-01
 -3.2588899e-01
 -3.0484340e-01
 -8.6476706e-02
 -2.5496325e-01
  1.6051845e-01
  1.3712174e-01
 -4.0992606e-01
  1.8558772e-01
  2.1441048e-01
 -2.9538295e-01
  9.5420793e-02
 -2.3026866e-01
  2.0444247e-01
  1.2415195e+00
 -1.5957703e-01
  5.7625717e-01
 -1.2283482e-01
 -1.0327826e-01
 -4.8878834e-02
 -2.7815604e-01
  5.5679269e-02
 -1.0730405e+00
  2.0739284e-01
 -1.1532459e-02
  7.3091006e-01
 -3.2501228e-02
  1.2530547e-01
  3.9136240e-01
  4.4956747e-01
  2.3357892e-01
  1.0674115e+00
  1.3929875e-01
  5.3695340e-02
 -5.9770495e-01
 -5.1771134e-01
  3.3453804e-01
  3.7405038e-01
  2.0906189e-01
  5.6114186e-02
  1.6989931e-01
 -2.9553205e-01
 -5.5079979e-01
 -2.1263656e-01
  2.8909272e-01
  2.1340278e-01
  9.5965974e-02
 -2.2981565e-01
  1.8820125e-01
 -5.0509042e-01
  1.4012334e-01
 -2.3484927e-02
 -2.1875441e-01
 -2.8547549e-01
 -2.2594871e-01
 -6.9308043e-02
 -2.0826274e-01
  6.7688927e-02
 -1.3980868e-01
  1.5106699e-01
 -2.9912516e-01
  5.5742395e-01
  1.4935382e-01
  2.3673095e-01
  1.5428865e-01
 -2.9530078e-01
  1.2684560e-01
 -1.2970793e-01
 -3.8302568e-01
 -3.7913904e-02
 -3.0725053e-01
  4.7150785e-03
  4.8151749e-01
 -2.9459235e-01
 -1.4582178e-01
 -3.0054489e-01
 -1.2580995e-01
 -2.4103101e-02
 -3.5784271e-01
 -3.6875871e-01
 -2.2487913e-01
  6.3243908e-01
  1.8375818e-01
 -9.5097888e-03
  3.8240723e-02
  3.4397706e-01
 -8.7175602e-03
  1.0833003e-01
 -6.2535390e-02
 -5.9496212e-01
 -1.2196922e-01
  1.4632453e-01
 -2.6050627e-01
  6.2040463e-02
  6.2412992e-02
  2.0590803e-02
  5.9792346e-01
  1.9453488e-01
 -6.7756909e-01
  2.9836819e-03
  5.9542157e-02
 -3.3434474e-01
 -2.4243712e-01
  2.0937130e-01
 -7.2011721e-01
  2.9538384e-01
 -7.9494268e-03
 -4.2921150e-01
 -3.5342623e-02
  7.0087612e-01
  3.6991307e-01
  2.9974040e-02
 -9.1084138e-02
  8.4535196e-02
  2.7070007e-01
  2.4453472e-01
  3.9526045e-01
  1.1248977e-01
 -1.1618423e-01
 -6.3275379e-01
 -1.4142348e-02
 -1.3854410e-01
 -7.7791706e-02
 -1.8421678e-01
 -1.6984502e+00
 -2.2960138e-02
  5.2187953e-02
 -6.8675762e-01
 -7.6633281e-01
 -2.2112128e-01
  1.0028917e-01
  6.3193291e-01
 -3.0708769e-01
 -1.2589635e-01
  2.3417187e-01
 -2.0706825e-01
  2.4018180e-01
 -6.0430851e-02
  2.2773565e-01
  5.2204914e-03
 -2.2025028e-01
 -1.2505068e+00
  1.5811466e-01
 -5.6750596e-01
 -2.8470000e-02
  5.2788947e-02
 -1.0554769e+00
 -1.4555486e-02
 -1.8307291e-01
  5.0599650e-03
  7.8403257e-02
 -5.0764251e-01
 -5.3744328e-01
 -4.1011374e-02
 -1.6896904e-01
  2.2277083e+00
 -9.7308807e-02
  1.8605131e-01
 -1.2830228e-02
 -3.9792636e-01
  1.1408003e-01
  3.5334933e-01
 -1.0059093e-01
 -1.2749255e-01
 -3.2405731e-01
  4.3764135e-01
  2.0292123e-01
 -1.8892531e-01
 -2.1411507e-01
  1.6143025e-01
 -2.5098795e-01
 -8.5254848e-02
  3.2313716e-02
 -1.8205160e-01
 -3.0941330e-02
 -1.8192710e-01
 -2.7504718e-02
  9.9704021e-01
  1.5208385e+00
 -2.7779800e-01
 -2.1338129e+00
 -1.7659339e-01
  9.6110737e-01
 -1.1605248e+00
  2.4023817e-01
  2.5256844e+00
 -1.2303984e+00
 -2.0468185e+00
 -4.5644715e-01
 -1.6667298e+00
 -3.2403929e+00
 -5.2531743e-01
 -5.5481642e-02
  3.7174923e+00
 -4.3978193e-01
  2.0734932e+00
 -1.7833398e-01
 -3.2320952e-01
  5.9847470e-02
 -1.1641358e+00
  3.8593984e-01
  1.0460520e-01
 -3.7292093e-01
  1.1055781e+00
 -2.0442219e+00
  6.7738193e-01
 -4.1390385e-02
  4.4873428e-01
  1.0855799e+00
  8.6625367e-01
 -1.1257439e-01
 -3.3676162e-01
  2.7723749e+00
 -2.8234032e-01
 -1.0305080e-01
  1.0737270e+00
  2.9179997e+00
 -1.5906310e-02
  7.6615441e-01
  3.3921838e-01
  5.3283229e-02
 -1.4564214e+00
  1.3057519e+00
 -2.3217866e-01
  2.2855661e+00
 -1.0293701e+00
  7.2006154e-01
 -2.7633315e-01
  3.8496029e-01
 -6.4606726e-01
 -1.9296418e+00
  2.3296278e-02
 -8.5153103e-02
  2.0142105e-01
  9.6787903e-03
  3.3024541e-01
  1.9842410e-02
  4.1221333e-01
 -2.3715511e-01
  1.7731000e+00
 -5.1136148e-01
  1.9798083e+00
  8.3231479e-01
  8.5332401e-02
  2.1832919e-01
  3.9739686e-01
 -3.2294497e-01
 -1.9582783e-01
  5.8894232e-03
 -9.2720014e-01
 -1.6473825e-01
  1.3459900e-01
  4.1815743e-02
  3.0441850e-01
  1.5040068e-03
  1.8955463e-01
 -1.8730143e-02
 -1.8040562e+00
 -3.3949181e-02
 -1.3753118e-01
  2.6511267e-01
 -4.5221397e-01
  4.2023163e-02
 -3.8306785e-01
  6.3848838e-02
 -7.9953653e-01
 -8.8438153e-01
  3.4754944e-01
 -4.4374000e-02
 -1.4445744e+00
  6.7611331e-01
  2.9469457e-02
  7.2620404e-01
  2.3192592e-01
  2.0842484e-01
 -3.5247613e-02
  3.1185811e+00
 -2.6656255e-02
 -2.0555232e-01
 -2.4943260e-02
 -4.1633122e-02
 -6.3557279e-01
  1.8581618e-01
 -1.2515441e-01
  1.8593679e-01
 -1.0681589e-01
  6.2563914e-01
 -1.0734642e+00
  1.1357751e-01
 -1.3782679e-01
  6.3695109e-01
 -2.4037255e-02
  3.6162660e-02
 -3.0888849e-01
 -1.3594225e-01
 -2.8125953e-02
 -9.7935237e-02
  1.7116928e-01
  2.2136554e-01
 -3.6496428e-01
  7.1963690e-02
  6.0444321e-02
  2.9774377e-01
 -1.4632297e-01
 -4.0401983e-01
  7.4316454e-01
  2.7935386e-01
  2.1912850e-01
 -2.8438386e-02
 -1.8029541e-01
  5.0348181e-01
 -1.6366956e-01
 -1.7975494e-01
 -4.1460833e-01
  5.9799433e-02
 -4.3986508e-01
 -7.7757575e-02
  1.1748568e-01
  1.8093747e-01
 -3.2950535e-02
  2.1113910e-01
 -1.9997694e-01
 -3.0222732e-01
  1.0268609e-01
 -1.9847056e-01
  7.4840617e-01
 -1.9776486e-01
 -8.0817211e-03
 -1.8023202e-01
  1.6441055e-01
  5.1840685e-02
 -3.2728302e-01
 -4.8109669e-02
 -5.8050897e-02
 -6.3337600e-01
 -2.1468610e-01
  3.6058281e-02
 -1.1775946e-02
 -7.1148746e-02
 -1.5415035e-02
  3.4850401e-01
 -3.3283877e-01
 -1.6338865e-01
 -5.7130963e-02
  1.8704664e-02
  1.3082956e-01
  2.3213200e-02
 -9.7603351e-03
 -2.5417009e-01
 -1.2028650e-01
  2.8242218e-01
 -5.1149923e-01
  3.3151411e-02
  9.8202147e-02
 -3.2069987e-01
 -3.9754596e-01
  2.8892645e-01
 -2.8441435e-01
  5.2352577e-01
 -2.4801932e-02
 -7.1603459e-01
 -2.6148352e-01
 -2.9005063e-01
 -1.8025604e-01
  2.3801896e-01
  6.4099446e-02
 -5.0731498e-01
  1.8333113e-01
 -2.1207643e-01
  2.8492850e-01
 -1.9291054e-02
  1.0766849e-01
 -5.3362582e-02
  1.4271718e-01
  4.1856581e-01
  4.5603281e-01
 -1.8712144e-01
 -3.6241293e-02
  8.7693259e-02
 -4.2423022e-01
  3.0372995e-01
  1.1672324e-01
 -1.5026298e-01
 -4.7801819e-01
  1.0690262e-01
  1.4858620e-02
  6.4280486e-01
  2.2040690e-01
 -1.5676209e-01
  5.5242274e-03
 -3.5334218e-02
  8.2522675e-02
  1.4011994e-02
  8.4056491e-01
 -2.7770805e-01
  7.6096660e-01
 -9.7526759e-02
  7.4182048e-02
  1.0442778e-01
 -1.5953702e-01
  4.8491123e-01
 -2.9646033e-01
  7.3076755e-01
  4.8177660e-01
 -2.6384062e-01
 -2.9522774e-01
 -2.2256568e-01
 -4.6098387e-01
 -4.1535608e-02
 -1.1517670e-01
  3.9176899e-01
 -2.6025203e-01
  1.3512851e+00
  3.6686027e-01
 -6.1800741e-02
 -4.3631263e-02
  5.1644910e-02
  3.5958850e-01
 -3.0109778e-01
  5.0246823e-01
  4.3605623e-01
 -3.3323896e-01
  2.2418717e-01
  2.3550725e-01
 -1.7583911e-01
  8.4803253e-02
  2.8808361e-01
  5.4971099e-02
  1.2570378e-01
  7.8903176e-02
  1.8492581e-02
  1.0138147e-01
  4.5725834e-03
  1.2859021e-01
 -2.3182191e-01
 -3.1116050e-02
 -3.1074905e-01
 -4.1346201e-01
  2.8667934e-02
  4.8600537e-01
  2.7348685e-01
  5.9891351e-02
 -4.7681105e-01
 -3.6637753e-02
 -2.4899328e-01
 -2.1539180e-01
  1.1672524e+00
 -1.9394603e-01
 -3.5465902e-01
  1.1985270e-01
 -2.3088852e-01
  1.7187174e-01
  3.8912255e-01
  1.4511786e-02
  4.4139719e-01
 -3.5972036e-03
 -3.7226853e-01
  6.1882410e-02
 -1.3525401e-01
  3.1356663e-01
 -3.8390100e-02
 -1.0643198e-01
  3.8448811e-02
 -3.2182568e-01
  2.7130947e-01
 -2.4871887e-01
 -7.1889460e-02
 -3.5778418e-01
  1.2552431e-01
 -7.9310998e-02
 -8.6038932e-02
 -3.5104305e-02
 -4.4775713e-02
  1.2797043e-03
  3.8972455e-01
 -2.0092703e-01
 -6.2152398e-01
  6.0139221e-01
 -5.8977735e-01
  3.2600906e-01
 -3.2359160e-02
  2.9483175e-02
 -1.7075932e-01
 -3.7949216e-02
 -3.1218141e-02
 -5.0803188e-02
 -3.3461130e-01
  1.7355222e+00
  2.6991421e-01
 -3.0380026e-01
 -4.6395816e-02
  1.1237828e-02
 -1.9434422e-01
  1.0953475e-02
  1.1780152e-01
  1.6515276e-01
  6.6056263e-01
 -2.1386087e-01
 -2.9988545e-01
  1.9362879e-01
 -2.8452727e-01
 -4.3461850e-01
 -1.7977098e-01
 -2.6785028e-01
 -3.4131795e-01
  5.1151138e-02
  5.1516358e-02
 -6.5225422e-02
  7.6009285e-01
 -1.5795024e-01
  1.1131786e-02
  3.9183721e-01
 -7.9713121e-02
 -4.8576379e-01
  1.6062744e-03
 -2.4732356e-01
  1.9996297e-01
  1.7339735e-01
  4.7842979e-01
 -1.0617491e-02
  4.6002813e-02
 -1.6134587e-01
  2.7998635e-01
 -1.1603750e-01
 -1.7889496e-02
 -8.9866757e-02
  9.8640211e-03
 -3.2410468e-04
  1.3249031e-01
 -1.8250309e-01
  1.6622998e-01
 -5.1129799e-02
  8.2316124e-01
 -2.2366893e-01
 -2.8599704e-02
  2.0903436e-02
 -1.3230206e-01
 -1.0177673e-01
 -9.1822237e-02
  8.0064423e-02
 -4.3467898e-03
 -8.8368841e-02
  1.6333148e-01
 -9.2452452e-02
  1.9481571e-01
  6.8321384e-02
  2.6848677e-01
 -4.4767439e-01
 -4.9024847e-01
 -1.5769082e-01
 -5.6626843e-03
  2.1392446e-02
  3.5605288e-01
 -2.7839866e-01
  1.2917310e-01
 -3.7889066e-01
  2.9197642e-01
  3.5774660e-01
  1.5729275e-01
  2.1063364e-01
 -4.5191890e-01
  1.2882388e-01
  9.6490726e-02
 -5.8695793e-01
  1.7177390e-01
 -2.3434792e-01
 -4.6460498e-02
 -2.4543823e-01
 -1.8503268e-01
  3.2103997e-01
 -4.1214383e-01
 -3.3307493e-01
 -3.4134824e+00
  2.0063525e-01
  3.8770884e-03
 -1.3689584e-01
  1.2811013e-01
 -2.0162310e-01
  8.6213291e-02
 -3.4060246e-01
 -9.2902973e-02
 -2.2707437e-01
  4.3525970e-01
  3.1351153e-02
  5.3746945e-01
 -1.9273455e-01
  2.0347998e-01
 -3.1227365e-02
  9.3236312e-02
 -3.3465919e-01
 -1.5518169e-01
 -1.9730911e-01
 -2.9232928e-01
  5.2829757e-02
  7.6009291e-03
 -8.5492074e-02
  2.4340831e-01
  1.1383343e-02
 -2.3695029e-01
  1.5141191e-01
  2.9416242e-01
  4.6879318e-01
 -1.3217075e-01
  1.1303654e-01
  2.2910258e-01
 -2.0988204e-01
 -2.0849168e-01
  4.1873675e-02
  9.1595635e-02
  1.0299879e-01
  1.4476858e-01
  3.1191161e-01
  1.9766149e-01
  3.4131682e-01
  4.1166863e-01
 -1.5797380e-01
 -6.6723049e-02
 -1.6351080e-01
 -2.0071128e-01
  1.1429308e-01
 -1.0081151e-01
  2.0447683e+00
  1.5692924e+00
  1.8831344e-01
  6.6472769e-01
  3.1869945e-01
  9.2287171e-01
  1.4496149e-02
  4.9158183e-01
 -5.6584829e-01
  1.2877293e+00
 -1.7450793e+00
 -5.1991081e-01
  4.9337193e-01
 -1.3291781e+00
  1.0470822e+00
  8.5044420e-01
  1.1914586e+00
  2.3051765e+00
  9.4345826e-01
 -1.0024825e+00
  2.1317418e+00
  9.3420273e-01
  1.0686598e-01
  1.0061414e+00
 -5.2913152e-02
  1.5730631e-01
  1.6168572e+00
  3.1313342e-01
 -7.0112720e-02
  8.5694224e-01
  5.9933442e-01
  3.9489672e-02
  9.2211157e-01
 -6.6709816e-01
  7.1223646e-01
  1.0168939e+00
  7.4979866e-01
  1.4081512e-01
 -1.1469760e-01
  4.4351014e-01
 -2.9709599e+00
 -3.6382306e-01
 -1.2922277e-01
  7.7379745e-01
  1.6803908e+00
  7.0110649e-02
 -1.4347315e-01
 -8.0057675e-01
 -1.0184063e-01
 -3.5805234e-01
 -9.8594472e-02
 -1.6615331e-01
 -3.9122620e-01
  6.3993573e-02
 -3.6371812e-02
 -1.4737538e-01
  2.7866241e-01
 -2.8957057e-01
 -2.5026304e-01
 -4.8802592e-02
 -5.2513167e-02
 -2.4348257e-01
 -9.1031663e-02
  1.3871250e-01
 -3.7091691e-02
  4.1488054e-01
 -8.7997764e-02
 -2.0213239e-01
 -1.7344828e-01
  2.2631783e-02
  6.5287143e-01
  4.2315885e-02
  6.6232875e-02
 -5.8386618e-01
  1.3706037e-01
  1.4112689e-02
  5.6521845e-01
  1.3242757e-01
  3.6830518e-02
 -1.7114647e-03
  7.6451969e-01
 -9.4333172e-02
 -3.1593612e-01
  5.5264598e-01
 -6.7182320e-01
  6.6972956e-02
  2.1365511e+00
  2.0956504e-01
  3.2280457e-01
 -2.8863233e-01
  1.3143781e-01
 -2.6255929e-01
  1.9461704e-02
 -6.9392964e-02
 -1.4223719e-01
  3.5856172e-02
  5.8203489e-03
 -4.2820537e-01
 -4.5645081e-02
 -4.3654826e-01
 -4.5173466e-02
  1.5934674e-02
 -6.0701117e-02
  3.7808624e-01
  2.2458076e-01
 -1.1889043e-01
  9.0625800e-02
 -4.3223816e-01
  2.1219271e-01
 -7.6699167e-02
 -3.0380449e-01
 -3.4705646e-02
 -1.7817134e-02
  5.5409957e-02
  1.5667677e-01
 -2.5125784e-01
 -6.8151116e-01
  4.1676977e-01
  7.2806865e-02
 -7.3224716e-03
  6.1390363e-02
 -2.1631998e-01
  7.4231997e-02
 -2.5589710e-01
  1.1946235e-01
  1.7463829e-01
 -1.3256444e-02
  7.9197191e-02
 -1.7741971e-02
  1.2532663e+00
  1.8276101e-01
  3.4286305e-02
 -6.7452359e-01
  1.7896637e-01
  4.9126200e-02
 -4.0941444e-01
 -1.1795338e-01
 -1.1453332e-01
 -5.0337261e-01
 -7.1477897e-02
  5.5903472e-02
  2.0333130e-02
  5.0362283e-01
  9.7688705e-02
  2.1535914e-01
 -1.7175001e-01
 -9.2136785e-02
  3.6050874e-01
  6.4093217e-02
 -1.7988272e-01
  1.7624767e-01
  2.9337898e-01
  3.4787977e-01
  4.4944805e-01
 -1.5289006e-01
  3.5030684e-01
 -6.7860180e-01
  1.1578378e-02
 -8.7361172e-02
  9.0164468e-03
 -1.7997485e-01
 -2.5498480e-01
  4.5321754e-01
 -3.8242161e-02
  2.3162556e-01
 -4.7254212e-02
 -1.1756696e+00
 -4.5367384e-01
 -7.2889268e-02
  2.6309738e-01
  4.8350024e-01
  8.8243358e-02
 -9.2238978e-02
 -5.5797446e-01
  1.8217780e-02
  3.9756328e-01
  1.3789870e-02
  3.1062149e-02
 -2.1436425e-01
 -1.6244221e-01
 -4.8100058e-02
  4.0707413e-02
  1.0873469e-01
  2.0605411e-01
  3.9937368e-01
  2.5392151e-01
  2.2243957e-01
 -3.7910801e-01
  2.3776954e-02
 -1.2742302e-01
  3.8458165e-02
  5.5503178e-01
  2.7093387e-01
 -2.5869403e-02
  2.6240051e-01
  1.0322104e-01
  2.7730045e-01
  3.0092299e-01
  1.0648359e-01
  2.8508626e-02
 -2.6851557e-03
  1.7027014e-01
 -2.3166867e-01
 -4.0793803e-01
 -3.1651661e-01
 -4.0905863e-01
  4.2320198e-01
  1.3729495e-01
  1.2222897e-01
 -2.6847497e-02
  1.4056629e-01
 -1.1664671e-01
  2.3229229e-01
 -6.0529016e-02
  2.4849571e-01
 -6.1042470e-01
 -3.1755034e-02
 -1.0311196e-01
 -6.9225498e-02
 -5.2932173e-01
  5.9483767e-02
  2.4309006e-01
  1.1903714e-01
 -3.2662022e-01
  4.2601541e-02
 -1.2323313e-01
  2.5451389e-01
  1.0724938e-01
  2.0076890e-01
  2.6764113e-01
  3.5874769e-01
 -2.7594889e-02
 -5.0587386e-02
 -3.4001410e-01
 -1.4419821e-01
 -6.0663432e-01
 -1.2914836e-01
  1.3723738e+00
 -2.5155187e-01
 -5.8772568e-02
 -2.4924700e-01
 -1.4498389e-01
 -2.3498233e-01
 -1.2011092e-02
  1.7196655e-01
  1.0809345e+00
  1.2442391e-01
  6.4614490e-02
  1.0613707e-01
  4.5640685e-02
  1.1949846e-01
 -1.3525035e-02
 -3.3489853e-01
  2.2523364e-01
 -1.8561590e-01
 -1.5115523e-01
  7.2507620e-02
 -7.8367561e-02
  1.2576022e-03
 -8.3559886e-02
 -1.3524035e-01
 -1.0906596e-01
  6.1445609e-02
 -1.8510938e-01
  2.9910129e-01
  4.7908205e-01
  2.1768001e-01
 -4.2385980e-03
 -2.3237112e-01
  3.6582032e-01
  6.7922302e-02
 -2.5242963e-01
 -6.9420123e-01
  2.2002140e-01
  3.5514516e-01
  1.8183301e-01
 -1.1072496e-01
 -3.3348531e-01
  1.1794315e-01
  1.6682041e-01
 -1.0340701e-01
 -6.7663276e-01
 -6.0235280e-01
  6.1482143e-01
 -3.4585929e-01
  3.8082683e-01
 -3.6380094e-01
  1.5550280e-01
 -2.5103194e-01
 -2.8059356e-02
  1.9328226e-01
 -1.7529532e-01
  5.0916299e-02
 -5.9751727e-02
 -3.0994239e-01
 -4.6410227e-01
 -7.0520952e-02
  2.0609547e-01
  1.5301764e-01
 -6.8877235e-02
  4.1625887e-02
  1.4643468e-01
 -1.2729287e-02
 -6.5702444e-01
  6.7437306e-02
 -1.1080443e-01
  4.0239580e-03
 -3.8026076e-02
 -4.8818231e-02
 -3.8494226e-02
  5.3103751e-01
 -8.8302560e-02
 -2.5525162e-01
 -1.7007235e-02
  6.5644488e-02
 -3.5319909e-01
  2.1909626e-01
 -9.5480345e-02
 -1.1292498e-01
  2.4610086e-01
 -2.1111704e-03
 -1.4517031e+00
  1.5579806e-01
  5.6334518e-02
 -2.8755105e-01
 -1.0703874e-01
  2.8755844e-01
  4.3619368e-02
  9.9536300e-02
  2.0028418e-01
 -7.4014997e-01
 -2.5944027e-01
  1.0999818e+00
 -6.1529581e-02
  6.2452644e-02
  3.5854973e-02
 -1.4490247e-01
 -2.9811507e-01
 -1.3992229e-01
  2.2685169e-01
  1.1054881e+00
  1.9802164e-01
 -2.6402295e-01
 -4.6822671e-02
  9.1206342e-02
 -1.6221878e-01
 -5.6929368e-01
 -1.2063378e-01
 -3.0765112e-02
 -2.9367322e-01
 -3.8925624e-01
 -3.2327044e-01
 -6.5858729e-02
 -5.1615274e-01
  1.0771036e-01
 -1.6849355e-01
  3.5906675e-01
 -2.8229615e-01
  9.5429957e-02
 -1.0801225e-02
 -6.8828005e-01
 -3.0303065e-02
 -6.7663863e-03
 -1.6396220e-01
 -7.5211346e-02
 -5.7304817e-01
  1.6522668e-01
  5.8998726e-02
  3.4008554e-01
 -3.1130018e-02
 -1.3674121e-01
  1.0738996e-01
  5.5385336e-02
 -5.5040187e-01
 -2.9257399e-01
  1.4790878e-01
 -3.9209300e-01
 -1.5336074e-01
 -2.3564699e-01
 -1.0049605e-01
 -4.2173281e-01
 -1.8314092e+00
 -1.4869629e-01
  1.1717212e-01
  4.5612565e-01
  1.4090407e+00
 -6.7770988e-01
  5.3129447e-01
  5.7937771e-01
 -4.1712627e-02
 -2.5898495e-01
  7.3520827e-01
  2.1347661e-01
 -3.6659583e-01
  1.1878115e-01
  8.1401825e-02
  1.6203985e-01
  2.2580858e-02
 -1.8333855e-01
  3.5239674e-02
 -2.9470247e-01
  1.5015173e-01
 -9.0030092e-01
 -9.6181232e-01
 -4.2672452e-02
 -6.7731380e-01
 -2.1663234e-02
 -7.0596747e-02
  4.7742161e-01
  3.3030248e-01
  2.0255722e-01
 -1.0011428e-01
  3.6403023e-02
  4.2262301e-02
 -6.5097116e-02
 -5.2597150e-02
  1.2837426e-02
 -2.6810172e-01
 -1.0701155e-02
  3.1311989e-01
 -2.0333095e-01
 -4.8103988e-01
  1.0879864e-01
 -1.8513225e-02
  1.0865380e+00
 -3.3883202e-01
 -1.3441369e-02
 -1.1865637e-01
 -1.1662753e+00
  1.6990474e-01
  5.5089489e-02
  2.4241865e-02
 -7.6499186e-02
  1.5936750e+00
  9.7696902e-03
 -3.0369494e+00
  1.0435255e+00
 -2.8161794e-01
 -7.9485029e-01
  9.7926635e-01
  1.9896053e-01
 -2.0494564e-01
 -7.2176874e-02
  5.5566236e-02
  2.3066701e-01
 -3.1648636e+00
 -1.7379124e+00
 -5.9139401e-01
 -9.1780566e-02
 -2.0585570e+00
  4.9368802e-01
 -2.4903326e-01
  1.5058633e+00
 -1.0315088e-01
 -6.4164162e-01
 -2.1497963e-01
  1.2809147e-01
 -8.5634971e-01
 -1.5707281e+00
 -3.1184608e-01
  3.6532578e-01
 -3.7547998e-02
  1.4792830e-03
  1.2418120e+00
 -6.3307174e-02
 -1.5112040e+00
 -2.9142103e-01
 -7.7936256e-01
  1.0880671e-02
 -5.0100356e-01
 -3.0907923e-01
  1.2124512e-01
 -5.1976544e-01
  3.8915488e-01
 -9.7727799e-01
 -1.3640121e-01
 -4.7564614e-01
 -1.3401517e-01
 -2.7569540e-02
 -6.5638459e-01
 -4.0411718e-02
 -2.8296527e-01
  1.0116529e-01
  2.6920617e-01
 -6.2047249e-01
  2.3719419e-02
 -8.7229782e-01
  9.8347670e-01
 -1.4417074e+00
  3.3136395e-01
 -2.0711005e-01
 -9.2630193e-02
  3.4624342e-02
  6.7706209e-01
 -2.1395014e-01
  4.4396952e-01
 -1.6963123e+00
  2.7575868e-01
  6.6129941e-01
 -1.7208315e+00
  6.9860673e-01
  5.7857656e-01
  1.0685579e+00
 -2.3744171e-02
  1.2348435e+00
 -1.8032844e-01
 -5.8689117e-01
 -3.1915952e-03
 -6.6094655e-01
  3.1171563e-01
 -2.2459381e+00
  1.3602322e+00
  3.8941476e-02
  1.4225806e+00
  3.8922340e-01
  2.2676539e-01
 -4.4604186e-03
 -1.5366167e+00
 -1.7289149e+00
  2.1107466e+00
  1.4102410e+00
 -6.8200551e-02
  2.7398854e-01
 -4.8935145e-01
 -3.6067022e-03
  5.7181740e-01
  1.8867787e+00
  2.9536703e-01
 -1.5699019e+00
  4.9548340e-01
 -7.2760209e-02
 -3.5261777e-01
  1.2450136e-01
 -2.3556218e-01
 -2.1943811e-01
  5.6799150e-01
 -5.7749867e-01
  1.9437036e-01
 -3.4320563e-02
 -1.4124891e+00
 -4.9525939e-02
  1.2258780e-02
 -4.2205684e-02
  6.1471099e-01
 -1.1130145e+00
  3.9286986e-01
 -4.4887203e-01
 -3.9661047e-01
 -1.4201698e-01
 -2.8378460e-01
  2.7412891e-02
  3.2251245e-01
 -7.0499301e-02
 -5.4370709e-02
  8.6665407e-02
  1.2645797e-01
  4.9694978e-02
 -1.3706712e-01
  2.2091515e-01
  5.5910617e-02
 -2.2732943e-02
  1.0513329e-01
  2.6136360e-01
  2.9514402e-02
 -1.1361174e-01
 -1.8142154e-02
 -2.6967224e-01
 -5.0852430e-01
  1.1594298e-01
  3.4465948e-01
 -2.2728620e-03
 -4.3210065e-01
  7.7460036e-02
  3.2053807e-01
  6.5704912e-01
  4.7596136e-01
 -4.6087533e-02
  6.5781973e-02
  2.7654724e-02
 -7.8862377e-02
  5.2007519e-02
  7.9662381e-03
  4.8224684e-02
 -5.6121368e-02
  3.3814099e-02
  6.5527715e-02
 -8.1973644e-03
 -1.0745385e-01
 -1.9120412e-01
 -8.3293393e-03
 -3.3107158e-02
 -2.4740058e-01
 -6.5229893e-02
  2.9090124e-01
  1.3249311e-01
  1.5296290e-02
 -1.0562791e+00
 -1.5952526e-02
 -4.4804122e-02
  1.1585602e-01
  1.1831816e-01
  3.1913057e-01
  1.8150459e-01
 -3.3587733e-01
  5.5806458e-01
  1.1673661e-01
  2.4671790e-01
  9.2136331e-02
 -6.2037885e-01
 -2.3901717e-01
  4.0651771e-01
  3.4039441e-01
 -5.5765772e-01
  1.5733103e-01
 -2.8389296e-01
  2.0996103e-01
  1.5880994e-01
 -4.5306548e-02
  5.4869807e-01
 -1.4967462e-02
 -5.3043562e-01
 -2.0701969e-01
  3.1305039e-01
  9.0019993e-02
  3.7274489e-01
 -1.6688290e-01
  1.8110672e-01
  2.9152628e-02
 -5.2756315e-01
  2.8837249e-01
  6.0281175e-01
  6.5020151e-02
  3.3673281e-03
  2.5345418e-01
 -3.7894833e-01
 -8.1560150e-02
  1.4209636e-01
 -1.3330694e-02
 -2.5714293e-01
 -1.0986497e-01
 -1.8252194e-01
  4.6402324e-02
 -4.0338196e-02
 -2.8975047e-02
  8.2101978e-02
  9.1669865e-02
 -2.5674477e-03
  4.6087638e-01
 -4.4667149e-01
 -2.3738107e-01
 -2.9478906e-02
 -2.7097955e-01
 -1.7765738e-01
 -3.6614254e-02
 -2.4839323e+00
 -1.1671766e+00
 -4.1625446e-01
  5.9203064e-01
 -1.0197705e-01
  2.2108801e-02
 -8.6903445e-02
 -2.0982513e-01
  2.4787908e-02
 -3.9956090e-01
 -1.7774227e-01
 -2.4161020e-01
  1.0938728e-01
 -3.8814619e-01
 -2.5131071e-01
 -6.0586296e-02
  8.8852353e-02
  1.6809323e-01
  2.3401525e-02
  7.6153404e-01
 -3.1335968e-01
  6.2051892e-01
 -1.2151831e-01
  5.2404035e-02
 -1.4238974e-01
 -7.5983629e-02
  2.7077919e-01
 -2.1017334e-01
  1.6058135e-01
 -2.4450250e-02
 -3.2450917e-01
 -3.5415038e-01
 -1.0514054e-01
 -2.7494898e-01
  3.9391664e-01
 -1.9015773e-01
 -3.9945742e-01
 -7.4745661e-01
  7.3230880e-01
  4.4939488e-02
 -2.6159024e-01
  3.2045832e-01
 -8.3619338e-01
 -1.3815808e-01
 -7.4399714e-03
  1.5112281e-01
  2.3191129e-01
  5.0626189e-02
 -1.9926564e-01
 -1.9698861e-01
 -4.8712764e-02
  1.5051180e-01
 -1.6843137e-01
  6.0988877e-02
 -2.1822368e-01
  3.6894286e-03
 -1.1513904e-01
  3.7082627e-02
 -2.9813405e-02
  1.4274139e-02
  4.5521626e-01
 -3.7232655e-01
 -6.1460316e-02
  2.4658181e-01
  1.9691119e-01
 -2.8654614e-01
  5.2256632e-01
  3.0318540e-02
 -3.8236952e-01
 -1.9253212e-01
  9.8100260e-02
  6.6355824e-02
 -4.8072532e-01
 -7.3067941e-02
  4.8743865e-01
 -1.8248865e-01
  7.0209575e-01
 -3.6653105e-02
 -3.9812124e-01
 -3.4470141e-01
  8.9544676e-02
  2.6211357e-01
  6.4027667e-02
 -5.8599734e-01
 -1.8055055e-01
  1.3895823e-01
  1.4458762e-01
 -2.2761323e-01
  2.0316218e-01
 -2.1969305e-01
  5.3103097e-02
 -5.7324451e-01
 -4.0189502e-01
 -6.3059402e-01
 -2.6005250e-01
  3.5212599e-02
  1.3265485e-01
  2.8541666e-01
  2.5331968e-02
  7.0784199e-01
  8.2532817e-01
 -3.0550471e-01
 -4.5347694e-01
  3.0646918e-02
  5.0164330e-01
  1.3730787e-02
  4.5576941e-02
 -5.4299271e-01
 -4.8130381e-01
  4.4180375e-01
  8.6197920e-02
 -5.1166885e-02
  1.1100466e+00
 -4.0460408e-01
  5.5155998e-01
  1.6040179e-01
  2.2491506e-01
  6.8332559e-01
  2.9167292e-01
  4.3736580e-01
  9.5248021e-02
 -1.4186803e-01
 -2.4889256e-01
 -7.6728597e-02
  7.1888119e-02
  3.3566204e-01
 -4.2208977e-02
 -1.5770383e-01
 -7.9057775e-02
  8.8777348e-02
  8.7099753e-02
  1.6849858e-01
 -5.3275061e-01
  6.2910467e-01
  2.2293732e-02
  1.5444821e-01
  1.2507531e-01
  2.3016237e-02
 -5.9675187e-02
 -1.8704255e-01
 -2.0123924e-01
 -3.0645445e-01
 -4.4487366e-01
  2.7532181e-01
 -4.0201342e-01
  1.9978467e-01
  6.9027567e-01
 -7.9582095e-02
 -1.4979452e-01
 -6.7766219e-02
 -1.4862275e-01
  7.9388902e-02
 -1.5661402e-02
 -5.4281466e-03
 -3.0769043e-02
  2.2756511e-01
  9.2211366e-02
  8.3369091e-02
 -1.1729532e-01
  2.5784740e-01
  1.1745761e-01
 -1.4523846e-01
  2.1548326e-01
  1.2512122e-01
  3.7913956e-04
 -4.0860575e-01
  4.5418733e-01
 -2.5944406e-01
  1.4840876e-01
 -7.1700704e-01
  3.6468688e-01
  3.6394428e-03
 -2.4072374e-01
 -3.2452029e-01
  1.8590280e-01
  9.8240286e-02
  1.1136882e-02
  1.9851854e-01
  3.1590971e-01
  1.7359903e-02
  3.9568730e-03
 -3.5376668e-02
  1.3692254e-01
  2.3900312e-01
 -1.6451676e-01
  7.7394150e-02
 -1.7041012e-03
 -5.5890072e-02
  6.7469984e-02
  2.1018036e-02
  3.3720839e-01
 -4.8116222e-02
 -9.7036831e-02
  1.9517604e-01
 -2.2501263e-01
 -1.7409092e-01
 -3.0543275e-02
 -1.1891288e-01
  4.1281322e-01
  4.1126606e-01
  4.5330241e-01
  5.2592528e-01
  2.5490031e-02
 -7.7845760e-02
 -2.5718576e-01
  4.9775636e-01
  3.1017289e-03
  1.3283464e-01
 -5.1603156e-01
 -3.5595474e-01
 -1.0318133e+00
  1.9402328e+00
  4.5709014e+00
 -4.6904516e+00
 -3.8979712e+00
  4.0822539e+00
  4.9237341e-01
  7.6443398e-01
  4.5562556e-01
  6.5718137e-02
  1.4529825e+00
  3.2853639e-01
 -2.6908903e+00
  7.3000818e-01
 -6.5946430e-01
 -5.5202591e-01
  2.5288919e-01
  2.7063593e-01
  5.4186743e-02
  4.1012263e-01
 -6.6810054e-01
 -3.6526912e-01
 -1.1095507e+00
  1.9218716e-01
  5.4100972e-01
 -1.0291246e+00
 -1.2436157e-01
  9.8730354e-03
 -5.3783292e-01
 -1.8862876e-01
 -4.1379857e-01
 -3.5447145e-01
 -2.2003536e+00
  3.2484319e-02
  6.1880215e-04
  6.8344316e-03
 -1.7693599e-01
  5.8788266e-02
 -1.7564486e+00
 -7.5327560e-02
  2.3410544e-01
 -5.4390955e-01
 -1.6385852e-01
 -2.1308265e+00
 -9.9915594e-01
  1.5814480e-01
  8.5358292e-02
  8.4871739e-01
  1.6449565e-01
  2.5543579e-01
  1.7987049e-01
 -1.6807310e-02
  1.8406783e-01
 -2.1043931e-01
  1.7443860e+00
 -2.8047830e-01
 -2.7134252e+00
  1.2949512e+00
  1.1435802e+00
  2.2994668e+00
 -5.5789578e-01
  2.2398481e+00
  1.7261125e+00
 -6.2062334e-02
  7.0798568e-02
  8.9593512e-01
  4.2383373e-04
  6.5147296e-02
 -2.8352100e-01
  6.5667398e-02
 -1.2286773e+00
 -7.8543872e-02
 -1.3731214e-01
  1.6568907e-01
  5.2534229e-01
  5.9404898e-01
 -4.3427989e-01
  4.1030768e-01
 -8.3935492e-02
  1.4679804e-01
 -2.4055521e+00
 -7.5385440e-03
 -9.6065724e-01
  1.3130546e-01
 -4.8435259e-01
 -3.8406226e-01
 -8.3744919e-01
  5.1556897e-01
  1.3008993e-02
 -8.1376010e-01
  1.0633495e-01
 -2.0972952e-01
 -8.8969134e-02
 -5.7049316e-01
 -1.8074444e-01
  2.6641494e-02
  7.1153778e-01
 -1.3661046e-01
 -3.5225645e-01
  3.2489681e-01
 -1.4336263e-01
 -3.0052748e-01
 -5.8365397e-02
  2.4794437e-02
 -6.8732634e-02
 -1.4686413e-01
  1.5287189e-01
 -2.3246610e-01
 -1.1702891e-01
  1.1799551e+00
  3.3773044e-01
 -4.1987956e-01
 -1.7246749e-01
  1.2914628e+00
  1.7206810e-01
  2.0574088e-01
  8.4219712e-01
  2.6796931e-01
  7.4718609e-02
 -1.8411902e-01
 -5.9124190e-01
  5.0348181e-01
 -1.6050589e-01
 -5.4052281e-01
  4.2191958e-01
  5.7209378e-01
  4.3206412e-01
  4.2350560e-01
 -1.4771561e-01
  2.8937981e-01
 -4.1282865e-01
  1.6757321e-01
  4.1321135e-01
 -4.3037079e-02
 -1.0866182e-01
  5.0245339e-01
 -2.7112484e-01
  1.4115045e-02
 -2.9621527e-01
  8.3183050e-01
 -3.6384553e-01
 -6.5160573e-01
  8.5706979e-02
  5.5006158e-01
  7.3561750e-02
  7.1039959e-04
  7.4085796e-01
 -8.5650706e-01
 -5.9460783e-01
 -6.4795566e-01
 -1.9217816e-01
  7.6398402e-01
 -3.4545928e-01
 -4.2873725e-02
  1.7510980e-01
  7.5892085e-01
 -7.5247817e-02
 -3.0704394e-02
  3.2537928e-01
 -1.3173357e-01
 -2.0863278e-01
  5.8337641e-01
  2.7333415e-01
  3.1450977e+00
  1.7077255e+00
 -4.7020631e+00
 -1.4213372e+00
 -2.6423870e-02
  1.4259892e+00
  1.6875437e+00
 -1.6003506e+00
  2.3011349e-01
 -9.2265187e-03
  6.8270802e-01
  2.7769476e-01
  1.4671291e-01
 -3.9858830e-01
  3.3973441e-01
  1.1457721e+00
 -2.9684832e-02
 -7.2155222e-02
 -1.2717618e-02
 -1.1135412e+00
 -1.0340616e-01
  8.9115322e-02
  9.6778430e-02
 -6.2129617e-02
  1.2349682e+00
  1.7338160e-01
  3.3591548e-01
 -7.3714006e-01
 -4.4287421e-02
 -3.3530459e-01
 -1.4895226e-01
 -2.6132295e-01
  1.4683843e-01
 -7.2879732e-02
 -2.8148169e-02
  3.9564297e-01
  5.9039388e-02
  2.1620236e-01
 -5.1569539e-01
  1.1858523e-01
  1.4707458e-01
  1.0749790e-01
 -7.3121667e-02
  4.3104690e-01
 -1.4393020e-01
 -5.6343234e-01
  4.4309143e-02
  2.5597448e-03
 -1.1111281e-01
 -1.2084619e+00
  1.0426830e+00
  1.5412191e-01
  2.3983100e-01
  1.2435403e-01
 -2.9776284e-01
  6.6793017e-02
 -2.1806814e-01
  1.8142864e-01
  2.5986719e-01
 -1.2737164e-01
 -7.5863773e-01
 -2.0595610e-01
  9.6717678e-02
 -4.1177582e-02
  3.9213650e-02
 -3.6234230e-02
 -5.7588369e-02
  7.4217403e-01
  3.0854699e-01
  3.9484879e-01
 -2.4961799e-01
  1.5042584e-01
  2.3724420e-01
  1.0961089e-02
  9.8286740e-02
  3.6624184e-01
 -2.6851580e-01
 -1.6600925e+00
  5.3199637e-01
 -2.9182610e-01
  2.9374701e-01
  3.7117928e-01
  4.3872226e-02
 -1.3109000e+00
  1.8110193e-02
  7.6978493e-01
  4.1331056e-01
 -1.8572310e-01
 -3.1341019e-01
 -5.9033982e-02
 -9.1316655e-02
 -4.5165041e-01
  1.2727895e-01
 -1.7070955e-01
  1.1852382e+00
 -1.6180845e-01
  6.5151447e-01
  1.7024694e-01
 -3.7909180e-01
  1.9586268e-01
 -1.3299379e-01
 -2.4952097e-01
 -1.7801297e-01
  8.6255300e-01
  1.7200077e-01
 -2.4815209e-02
 -2.6631522e-01
 -1.7135213e-01
 -2.1767297e-01
  1.5601290e-03
 -4.0631169e-01
 -6.3974068e-02
  1.7616430e-01
  2.4708219e-02
 -2.2665939e-01
 -4.7029845e-02
 -1.5062381e-01
  2.1539253e-01
  6.5686323e-02
 -2.2830576e-01
  3.8563326e-01
 -4.3346196e-02
 -8.4458731e-02
 -4.8143595e-01
 -1.8559879e-01
  1.4885031e-01
  1.4824334e-01
  1.3160032e-01
 -2.7862984e-01
  4.9952306e-02
  2.1975538e-01
  4.4213986e-01
 -3.8541016e-01
  1.3029960e-01
  3.5892252e-02
  5.9006672e-02
 -2.6460862e-02
 -6.1655223e-02
  2.8657293e-01
  1.4580622e-01
  8.5632645e-02
  7.3875561e-02
  3.4799147e-01
 -1.2099418e-01
 -5.0383016e-02
 -5.0036840e-02
  2.0567934e-01
 -5.6876529e-02
  3.3937314e-01
 -8.4733151e-02
 -3.7404454e-01
 -3.0772185e-01
  1.5746717e-01
  9.2596315e-02
  1.6770296e-01
  7.5877927e-02
 -2.2659704e-01
  8.8390446e-01
  3.6989339e-02
  2.1638855e-01
 -2.0493132e-01
 -2.1732730e-01
  3.4134203e-01
  2.0424466e-01
 -7.2615635e-01
  3.1110352e-02
  4.5049027e-01
 -1.6241431e-01
 -1.2780786e-02
 -1.2847228e-01
  2.8205258e-01
 -1.6677913e-01
 -1.5551765e-02
 -3.7308234e-01
 -4.0697977e-01
  1.8242465e-01
  2.3568638e-01
  2.2395889e-01
 -3.2173759e-01
  1.2428850e-02
  8.2810715e-02
 -2.4471422e-01
 -3.9479178e-01
  2.2123083e-03
  1.3308816e-01
  3.6997858e-01
  8.9316063e-02
  1.6716757e-01
  1.8841594e-01
 -3.6687307e-02
  3.5211441e-01
  2.8350655e-02
  7.2684936e-02
  2.8317904e-01
  6.8872797e-01
 -7.2522789e-02
 -2.0566143e-02
 -1.0787088e-01
 -2.7883840e-01
 -8.1677139e-03
 -3.1171307e-02
  1.5294799e-01
  2.6034972e-01
 -1.6366440e-01
  1.8329430e-01
  1.0376905e-01
 -1.4860754e-01
 -1.1079443e-01
  2.9297380e-02
 -6.0290229e-02
 -1.4139211e-01
  3.5111483e-02
  1.5931096e-02
 -1.2491488e-01
  9.0278819e-02
 -3.9783578e-02
 -6.0480732e-01
 -1.2319980e-01
  1.3660385e-01
 -1.1660647e-01
 -5.8782881e-01
 -4.7051260e-01
 -2.7536884e-01
  4.0400121e-02
  1.5883256e-01
 -1.2615538e-01
  9.4372757e-02
 -1.7812145e-01
  4.4579737e-02
 -3.3034608e-01
  2.4729993e-02
  3.1077898e-01
  1.3014520e-02
 -3.4466967e-01
  5.9301668e-01
  1.2661690e-01
 -6.1105001e-01
  5.1311392e-01
  1.8796703e-01
  5.1877755e-01
  1.1404388e-01
 -1.9657768e-01
  1.2314542e-01
 -9.9293314e-02
  2.2735982e-01
 -1.4751041e-01
  2.8056256e-02
 -2.0124012e-01
 -6.4363703e-02
  2.8442842e-01
  1.0933845e-01
  2.1302825e-02
 -1.4191903e-01
 -6.6396939e-03
 -3.4338649e-02
  3.5237335e-02
 -5.6255534e-02
 -3.1206691e-01
 -1.6062504e-02
 -4.5428938e-01
 -1.0317263e-01
 -2.1822046e-01
  3.9272603e-01
 -4.0017706e-01
 -1.8428658e-01
  3.1678158e-01
  2.5152755e-01
  4.2259540e-02
  2.4658605e-01
 -9.1740304e-01
  9.2997301e-01
 -1.0499656e-02
  1.0705249e+00
 -2.9765496e-01
  6.8569973e-02
 -1.1783922e-01
 -9.3827671e-01
  2.0796353e-01
  5.4892832e-01
 -2.8138921e-01
  3.1596169e-02
  2.1042565e-01
 -1.2584069e-01
 -1.8658718e-01
 -1.8580813e-02
 -8.7495571e-01
  1.7476813e-01
 -5.3339921e-02
 -1.6637194e-01
  1.1535869e-01
 -8.4732555e-02
  1.9107945e-01
  1.5972836e-01
 -2.0832624e-01
  6.3597843e-02
 -9.3435079e-02
 -2.8136998e-02
 -4.1323997e-02
 -2.8419824e+00
  1.8507989e-01
 -5.2205813e-01
  1.1247053e+00
  1.6202345e+00
  1.4008144e-02
  2.4196896e-01
 -6.2747806e-02
  4.1741815e-01
  3.6611369e-01
  1.5281549e-01
  1.3860312e+00
 -1.4506315e-01
  6.2059522e-01
  2.6572070e-01
  1.8192925e-01
 -1.5746528e-01
  1.8523291e-01
 -3.8435212e-01
  3.3674590e-02
  5.0951116e-02
 -2.1639587e-01
  1.0768204e-01
 -1.7590781e-01
  1.0415933e-01
 -5.9764349e-01
  3.4644464e-01
 -6.5692979e-01
 -2.2005326e-01
 -1.4872569e-01
  6.7459702e-01
  9.9626255e-01
  6.9406033e-02
  5.2798277e-01
  2.8467405e-01
 -3.6548492e-01
 -1.1293660e-01
 -2.4548672e-01
 -1.2292024e-02
  2.0706262e-01
 -2.8124252e-01
 -1.0542111e+00
 -4.4494578e-01
 -5.2085325e-02
  5.3132493e-02
  4.1123191e-01
  4.8186147e-01
  1.5849356e-01
  2.9291216e-01
 -1.9294944e-02
  3.0178267e-01
  2.1355373e-01
  1.8817210e-01
 -4.2849874e-01
 -2.7393773e-02
 -1.2341069e-01
 -4.3005356e-01
 -4.5554757e-01
 -1.1930306e-01
  6.9741458e-02
 -1.8253747e-01
  4.3603841e-02
  3.3978596e-02
 -3.2188952e-01
 -2.1460144e-01
  5.5256140e-01
 -1.0228933e-01
  7.7434427e-01
  8.0876406e-03
  4.7448015e-01
 -9.3634188e-02
  4.3708783e-01
  3.5678250e-01
 -1.1998037e-01
 -1.1493859e-01
  3.0417405e-02
  4.1889825e-01
  2.6480237e-01
  6.4550051e-03
  1.0778014e-01
 -1.9209176e-01
  1.1895633e-01
 -1.0054376e-01
 -5.3661090e-01
 -1.9401413e-01
 -4.4583789e-01
 -5.1414031e-01
  9.9521026e-02
 -6.4603850e-02
  2.4625422e-01
 -1.1645491e-01
 -1.5467592e-01
  3.7773496e-01
  2.6715761e-01
  3.1235164e-01
 -1.1079472e-01
 -3.2681327e-02
 -1.0625697e-01
  1.1142220e-01
  2.0476212e-01
 -1.5293886e-01
 -1.2067486e-01
  8.1955649e-02
  1.8868461e-01
 -3.3228435e-02
  4.0121150e-01
 -6.0952842e-01
 -1.9946489e-01
 -7.0980951e-02
  4.4663507e-01
  4.9045026e-01
  2.7050418e-01
  1.2129826e-01
  1.3585939e-01
  2.5168963e-02
 -3.5551399e-02
  5.3294218e-01
  3.7171674e-01
  5.1521176e-01
  2.0952703e-01
 -1.2953382e-02
  2.8045937e-01
  1.1533101e-01
 -2.0422955e-01
 -3.5784274e-01
 -4.5859970e-02
  2.0336124e-01
 -2.7389303e-01
  2.7343172e-01
  1.1736777e-01
  5.3122528e-03
 -5.6371087e-01
 -3.6612144e-01
 -2.3957807e-01
  1.0494354e-01
  2.1540797e-01
  3.3188429e-01
 -2.5399990e-02
 -6.5059114e-01
  1.0647898e-01
  1.4960094e-01
  4.9929708e-01
 -3.7346548e-01
  1.2197801e-01
 -1.5300295e-01
 -3.8773455e-02
  7.3542275e-02
 -1.6101208e-01
 -1.3033926e-01
 -2.2763635e-01
  5.4475582e-01
 -3.2295102e-01
  1.4557862e-01
 -4.8925355e-01
  2.7042669e-01
  2.4855541e-01
 -4.4182816e-01
  2.4924608e-02
 -1.2805396e-01
  2.3274505e-01
 -7.8903988e-02
  5.9724223e-02
 -1.7458040e-02
  9.6814208e-02
  1.7098852e-01
  4.5261223e-02
  1.0916929e-01
 -2.0531137e-01
 -9.6945417e-01
 -2.6986027e-01
 -2.4854484e-01
  3.3334824e-01
  6.2521882e-02
  1.0496353e+00
 -3.6243260e-02
 -9.5603213e-02
  1.2424355e-01
 -2.1286033e-01
  2.8700307e-02
  6.5073363e-02
 -5.8834732e-01
 -1.0805677e-02
  4.0515518e-01
 -1.2132856e-01
  5.6025561e-02
  1.3157828e-01
 -1.9679360e-01
  3.8611212e-01
  7.1426779e-02
 -1.9386864e-01
  2.4560350e-01
  6.0016721e-01
 -2.1856418e-01
  4.4920418e-01
 -4.5979089e-01
  4.2328194e-01
 -1.6180551e-01
 -7.0213288e-02
  8.3586067e-02
  2.5937912e-01
 -4.6625361e-01
 -6.2391475e-02
  2.9762924e-01
 -2.5362104e-01
 -1.2452929e-01
 -1.4707966e-01
  1.3841040e-01
  2.2110775e-01
 -2.3838569e-01
  6.7777961e-02
 -8.6779110e-02
 -2.1855960e-02
  7.8109860e-02
  8.3086058e-02
 -3.4927329e-01
 -7.2642893e-02
 -3.2100532e-02
 -3.3539289e-01
  3.1083259e-01
 -8.7490268e-03
 -1.4883828e-01
  6.7326647e-01
 -1.4731786e-01
  6.3794255e-02
  3.4634876e-01
  4.6219811e-02
  4.7617689e-01
 -2.9976857e-01
 -4.2238510e-01
  3.1323254e-01
 -6.4928599e-02
  3.7267691e-01
 -1.9475713e-02
 -2.1248569e-01
  4.9990874e-02
 -7.0895290e-01
 -2.9004776e-01
 -6.5969832e-02
  7.9366826e-02
  9.3416795e-02
  1.1890012e-01
  1.9144030e-01
 -1.5736607e-01
  1.4080453e-01
 -7.2386414e-02
 -4.1962689e-01
 -2.0065299e-01
  1.5572558e-01
 -3.7819508e-01
 -3.0378890e-01
 -1.2646794e-01
 -6.6411120e-01
  6.3229412e-02
  6.0552543e-01
 -6.9365934e-02
  3.4529603e-01
 -5.5676806e-01
  1.6213197e-02
  2.0444091e-01
 -1.4274150e-01
  1.2229701e-01
  7.3053110e-01
 -1.3635021e-01
  8.4303260e-02
 -1.8203191e-01
 -3.9674148e-01
  3.4376925e-01
 -1.2344035e-01
 -3.7061438e-01
  1.6998915e-01
  1.6053012e-01
  3.6026007e-01
 -2.5511771e-01
  1.9510107e-01
 -9.9075690e-02
 -4.2983525e-02
  1.6760999e-01
 -1.7772755e-01
  2.4859379e-01
 -4.4973075e-02
  3.2618457e-01
  1.7341323e-01
  2.8503177e-01
  5.1671319e-02
  5.3719254e-03
  7.6300718e-02
  1.7478804e-01
 -4.9604702e-01
 -2.7583003e-01
  3.4824306e-01
 -2.3135287e-01
 -2.4527015e-01
  1.0828770e-01
 -1.5718299e-01
 -1.8484067e-02
 -1.4603552e+00
 -1.4921193e-01
  1.8488514e-01
  3.0380815e-01
 -5.8835730e-02
 -9.3851328e-01
  7.2019684e-01
 -8.4328383e-02
 -9.1409612e-01
  3.0480508e-02
 -1.1351149e+00
  7.8461304e-02
  2.4004990e-01
 -2.0360589e-01
  7.1488887e-02
  2.3175551e-01
  2.5782272e-01
 -2.3737942e-01
  4.9786195e-02
  5.1032829e-01
  2.3477504e+00
  1.0840034e+00
  1.9538951e-01
  9.0152484e-01
 -8.7819493e-01
  9.7254544e-01
  7.4930799e-01
 -2.5491238e-01
 -4.4836596e-02
  1.9345517e-01
  1.0656551e+00
  1.8829086e-01
  7.8189671e-01
  6.4194995e-01
  2.7444813e-01
 -5.3360754e-01
  5.5702921e-02
  5.5229741e-01
  5.9362513e-01
  1.6850588e+00
 -1.0437754e-01
  3.9004326e-01
 -5.1845324e-01
  5.2033007e-01
  8.3802742e-01
 -6.4270236e-02
  3.9964259e-02
 -4.7171481e-02
 -3.5668272e-01
  1.3407224e-01
 -2.4567997e-01
 -5.9678026e-02
  1.7594314e-01
  2.2689036e-01
  7.3813790e-01
  5.2848732e-01
  9.9488802e-02
  1.1743181e+00
 -1.0746033e+00
 -2.0764492e+00
  2.6178029e-01
 -1.6828128e+00
  2.3078024e+00
  1.7818001e-01
 -1.4108028e-01
  2.5718689e-01
 -8.8310021e-01
  9.5754415e-01
 -6.6349611e-02
 -9.9542671e-01
 -1.0056280e+00
 -1.5535225e-02
 -5.1525235e-01
  6.5635014e-01
 -9.6386731e-02
 -4.0360132e-01
 -5.2734482e-01
 -1.1794035e+00
  5.1950805e-02
 -8.6953104e-01
 -1.8277588e+00
  1.3866824e-02
  1.2079649e-01
 -1.7783070e+00
 -1.1974312e-01
  2.4247721e-02
 -6.8001968e-01
  1.6299961e-02
  1.4451337e-01
  2.1921560e-01
 -5.6280877e-02
 -7.1171271e-03
 -6.4228839e-01
 -5.5656445e-01
 -6.3918340e-01
  6.9115889e-01
 -9.6331424e-01
  3.7325951e-01
  3.7508541e-01
  3.4242246e-01
 -2.6450095e-01
  4.3778077e-01
  1.9481722e-02
  5.4293223e-02
 -1.0918670e-01
 -1.9652310e-01
 -9.5161572e-02
 -1.1110771e+00
  4.4684481e-02
 -1.2037625e-01
  1.3011345e-01
  5.0373726e-02
  1.9531082e-01
  6.2987477e-02
 -1.9798176e-01
 -1.5755512e-01
  9.8726861e-02
 -1.9586347e-01
  8.7612987e-02
 -1.2935570e-01
  3.1266773e-01
  3.0092299e-02
  3.2680416e-01
  2.4291958e-01
 -3.6506209e-01
  3.5281855e-01
  2.8550315e-01
  6.5451711e-02
  9.3660653e-03
 -7.5811781e-02
 -2.8151524e-01
  9.9053964e-02
 -2.6477662e-01
  6.2859559e-01
  3.2788467e-01
 -3.4280521e-01
 -4.3335032e-01
  3.2406181e-02
 -1.2334455e-02
  4.2978635e-01
 -8.6077772e-02
 -3.4151292e-01
 -1.4320362e+00
 -3.8879776e-01
  1.2675561e+00
  1.3315579e-01
  1.2722740e+00
 -7.1406417e-02
 -5.5005746e-03
 -1.2635281e-02
  1.0381702e+00
 -1.0011211e-01
  5.1377577e-01
  3.1710479e-01
 -1.5332736e-01
  1.7183868e-02
 -4.4626701e-01
  1.6634469e-01
 -3.8305461e-01
  2.1318898e-02
 -4.0140949e-02
  4.6454322e-01
  4.9073300e-01
  1.8596390e-01
 -2.2952500e-01
  2.3918457e-01
 -7.5290971e-02
  5.3417456e-01
  8.7377143e-01
 -2.5559548e-01
  2.6582703e-01
  3.2042700e-01
 -4.7297794e-01
  3.8491863e-01
  3.2841024e-01
  2.0447825e-01
  5.1523459e-01
 -1.1682556e-01
  9.6381977e-02
  6.2878054e-01
 -1.2957454e-01
 -1.4021480e-01
 -6.1969519e-02
 -5.6417216e-02
  2.8605059e-02
  3.2649986e-02
  3.5283092e-02
 -2.7657773e-02
 -3.7176386e-02
  6.2017493e-02
  5.6991030e-02
  8.4945373e-02
  2.0287451e-01
 -7.7876252e-01
  3.5152018e-02
  1.7859939e-01
 -1.7988290e-01
 -3.8197222e-01
 -7.2078168e-01
 -4.7377139e-02
 -6.9540747e-02
 -7.6140821e-02
  1.4535758e-01
  1.1208090e-01
 -2.3063393e-01
 -4.3812245e-02
 -1.9181867e-01
  9.9818952e-02
  1.9754352e-02
 -3.8612388e-02
  8.0264248e-02
 -6.9942348e-02
 -1.5031669e-01
  1.5597674e-01
  8.0804461e-01
  2.0750041e-01
 -2.0859705e-01
 -7.3315457e-02
  3.1594875e-01
 -9.0512580e-01
 -1.3808651e-01
  3.0964676e-02
 -3.4360462e-01
  2.4898358e-01
  3.0015576e-01
  4.2493477e-02
  1.0294115e-01
 -7.9413801e-03
 -9.3160689e-01
  3.1862119e-01
 -9.8505942e-03
 -1.6350538e-01
  4.8359871e-01
  5.7691562e-01
 -2.8156021e-01
 -3.0749282e-01
 -3.6213517e-01
 -2.6326108e-01
 -2.5360671e-01
 -5.1898587e-01
 -8.1401289e-01
 -7.3544450e-02
 -1.2230896e+00
 -5.7955235e-01
 -5.8050591e-01
 -1.1107709e-01
 -2.4985439e-01
 -2.3507122e-03
  7.2187179e-01
  8.7082498e-02
  7.6693386e-01
  1.2909925e-02
  2.7840433e-01
 -1.7856586e-01
 -2.9181504e-01
  8.7395048e-01
 -1.7132348e-01
  6.5907314e-03
 -2.2742490e-01
  3.8129318e-01
  7.6639712e-02
  2.6154748e-01
  5.1186359e-01
  2.4989203e-02
  8.4112726e-02
  5.8483738e-02
 -2.9374218e-01
 -3.5332352e-02
  4.5592293e-02
  3.0481359e-01
 -1.8333590e-01
 -7.7263653e-02
 -2.6197788e-01
 -9.5423692e-01
  2.1909696e-01
  8.2815431e-02
  2.2062688e-01
 -2.7264556e-01
 -2.9612374e-02
 -4.3461365e-01
 -2.6425229e-02
  5.5864239e-01
 -3.7085491e-01
 -2.6446182e-02
  6.4365506e-02
 -1.5754513e-01
 -1.5567999e-02
 -1.4344145e-01
  8.0119900e-02
 -1.0743453e-01
  4.3614529e-02
  7.1746314e-01
  2.4195501e-01
  2.4256598e-02
 -9.8164789e-02
 -2.6404214e-01
  1.5932204e-02
 -1.3372890e-02
 -9.6823767e-02
  4.3386328e-01
  4.1863197e-01
 -2.3807425e-02
  6.4627230e-03
 -7.5456358e-02
 -2.2505268e-01
 -1.1932579e-01
 -7.9707247e-01
 -4.9371842e-02
  3.1872132e-01
  3.1921318e-01
 -2.6579738e-02
  9.4494477e-02
 -2.3095322e-01
  6.0851836e-01
  2.2536016e-01
  2.8273627e-02
 -2.2608824e-02
  2.2364110e-01
  1.5544820e-01
  1.3001001e-02
 -7.6017827e-03
 -2.1548960e-01
 -1.0304880e-01
  1.4844596e-01
 -8.2546878e-01
  1.5807317e-01
 -3.0375272e-01
  4.0645099e-01
  6.5365233e-02
  4.1339181e-02
 -3.3153391e-01
  7.2689694e-01
 -4.9164750e-02
  7.4830271e-02
  2.2670157e-01
  1.6431588e-01
  1.8048911e-01
  1.1297928e-01
  1.5570173e-01
 -4.9688253e-01
  1.6594642e-01
  3.1977928e-01
  2.1417370e-01
 -6.2400056e-03
  5.4527339e-02
 -6.7460001e-02
  4.0924597e-01
  1.7317441e-01
 -1.2532991e-01
 -8.8816695e-02
 -2.5309920e-02
  2.5038224e-01
 -4.0825006e-01
 -1.8463865e-01
  8.7533653e-02
  2.0870231e-03
  8.3696848e-01
 -1.8569155e-01
  2.5159529e-01
 -1.7611967e-01
  2.8909826e-01
  2.3474598e-01
 -6.7721739e-02
 -3.1020817e-01
  9.9495061e-02
 -9.3398905e-01
 -3.5992151e-01
  1.2943454e-01
 -2.5231996e-01
  4.8630666e-02
  7.9305276e-02
 -6.2133437e-01
 -6.5908194e-01
 -7.8089938e-02
 -1.2294416e-01
  8.5777327e-02
 -8.0168724e-02
 -1.4014409e-01
  2.2570079e-02
 -2.2862481e-01
  7.0626259e-01
  3.7099436e-01
  1.3747829e-01
 -1.8537007e-01
 -3.6888316e-01
  1.5798955e-01
  3.4994882e-02
 -6.5771595e-02
  1.7049831e-01
  4.8756026e-02
 -2.1295798e-01
  1.3074506e-02
  2.0577818e-02
  8.3707400e-02
  2.6069137e-01
  1.9965111e-01
  1.6759923e-01
 -1.8713449e-01
 -8.4634691e-02
  5.1971801e-02
 -6.1857656e-02
 -2.9596007e-01
 -1.2397619e-01
  1.5252550e-01
 -2.3841576e-01
 -5.9726469e-02
  3.5199708e-01
  3.4761760e-01
  3.1374240e-01
  1.2297115e-01
 -5.5100195e-02
  2.6783824e-02
 -6.8773247e-02
  2.9500359e-01
  1.4207534e-01
 -7.1537101e-01
  4.5626242e-02
  3.5357311e-01
 -3.7255171e-01
 -8.9684492e-01
  2.4243614e-01
  8.0373846e-02
 -4.0879506e-01
  9.2269972e-02
 -5.6397814e-01
 -9.0456933e-02
 -4.8812041e-01
  1.5023019e-02
  2.6692557e-01
  1.8727401e-01
  8.8121161e-02
  1.4476193e-02
  5.3220045e-02
  9.1316238e-02
  3.6714724e-01
 -1.8787210e-01
  3.6450632e-02
  5.0075576e-03
  5.1414943e-01
 -4.8570246e-01
  1.0578837e-01
 -3.7349254e-02
 -5.8954346e-01
 -1.9197313e-01
  2.0356005e-01
  9.9653795e-02
  3.7596911e-01
 -1.9394472e-01
 -4.0919378e-01
 -2.0265803e-01
  1.0479149e-01
  7.6460429e-03
 -7.1871138e-01
  1.9288702e-01
  1.2618935e-01
 -4.7795296e-01
  1.3929576e-02
 -6.5443182e-01
  3.4155646e-01
 -5.7790929e-01
  1.5020953e-01
  6.5319255e-02
  3.1482261e-01
 -1.7906705e-01
 -3.9099118e-01
 -8.3428788e-01
 -3.2779198e-02
 -3.0939300e-02
  2.1172692e-01
  3.3789523e-02
 -1.8875530e-02
  1.0726337e-01
 -1.2938179e-01
  9.3682535e-02
  2.4270914e-01
 -4.8530248e-01
  3.2228804e-01
  1.2629576e-02
  7.5881273e-01
 -1.4113753e-01
 -1.1493679e-01
  3.9656714e-01
  2.5215590e-01
 -1.5604797e-01
 -4.2784754e-03
  4.9968394e-03
  6.5740221e-03
 -1.4051369e-01
  2.4434733e-01
  8.6438709e-01
 -3.1914324e-01
 -1.1227914e-01
 -4.2138252e-01
  7.9974914e-03
  3.5051632e-01
  2.9853332e-01
 -2.1706589e-02
 -2.2074272e-01
 -2.9668459e-01
 -1.3617505e-01
 -4.3740034e-02
  2.0057264e-01
 -3.8908240e-01
 -5.5636287e-02
 -7.6116914e-01
  5.9149235e-02
 -4.7337875e-01
  7.8938109e-01
 -7.5640881e-01
  3.3285147e-01
 -1.9818538e-01
  5.2288971e+00
 -1.6660988e-01
 -4.0138841e-02
  4.8961751e-02
 -1.2011988e-01
  2.3667488e-01
  1.3771531e-01
  1.0978872e-01
 -4.8849784e-02
  1.6573875e+00
 -1.3024242e-01
 -1.7348346e-01
 -2.7817133e-01
  1.5617311e-01
  2.7813113e-01
  1.0012812e-01
 -3.5523301e-01
  8.2110524e-02
  4.8725601e-02
 -1.5426475e-01
  3.3698890e-01
 -1.5351906e-01
  1.5536731e-01
 -2.0627446e-02
  1.2558050e-01
 -1.0042144e-01
  1.1797853e-01
 -4.4917220e-01
  4.8546758e-01
  5.4958109e-02
 -6.7130917e-01
  1.1193043e-01
  5.2739933e-02
  2.5243944e-01
 -3.4464756e-03
 -2.7025181e-01
  1.1923242e-01
  3.7793916e-02
  1.5496156e-01
 -5.3193800e-02
  1.6344857e-01
 -6.9885924e-02
 -6.0344338e-01
 -2.6891765e-01
  1.5839618e-01
  3.2148920e-03
  1.2126327e-01
 -2.2105536e-01
  2.5241560e-01
  9.7378440e-02
 -1.0830680e-01
  2.2179684e-01
 -4.1516542e-01
 -1.7353366e-01
 -6.6328776e-01
 -1.7073649e-01
  2.1383747e-01
 -8.2258984e-02
 -5.1094797e-03
  4.1803512e-01
 -5.5472963e-02
 -2.1273483e-02
 -3.3516221e-02
 -7.3814578e-02
  2.2416136e-01
  3.3559966e-01
 -2.0170224e-01
  6.7382920e-01
  1.4453623e-02
 -8.3737470e-02
  7.6848753e-02
 -8.1881881e-04
  1.7932457e-01
 -3.3641726e-02
  5.4492348e-01
 -7.3691882e-02
 -1.6159716e-01
 -2.0306514e-01
 -1.1973110e-01
 -2.3583293e-01
  8.2182758e-02
  3.0656397e-01
  5.5649817e-02
  1.3795694e+00
  4.7199970e-01
 -4.4478817e+00
 -5.9039831e-01
 -2.0859342e+00
 -8.6269325e-01
  5.1052833e-01
  7.4817650e-02
  2.3578322e+00
 -7.8036875e-02
 -4.5639116e-01
 -1.1307245e-01
  8.1261855e-01
 -1.0729783e+00
  9.0619439e-01
  8.6328703e-01
  1.2914270e-01
 -1.2557293e+00
 -2.5173862e-02
 -2.7099204e+00
 -1.0900134e+00
  2.7959734e-02
 -2.4918336e-02
 -1.2379508e+00
  1.4980189e+00
 -1.2125621e-02
 -1.3390369e+00
 -4.0066448e-01
  4.6179137e-01
  6.5559989e-01
  3.3725229e-01
 -4.9794361e-02
 -9.7351307e-01
 -7.7996308e-01
 -8.1193131e-01
  5.4560024e-01
 -1.7059432e-01
  1.8493011e+00
 -1.5639284e-01
  1.2626395e-01
 -1.6831245e-01
 -4.9663600e-01
 -1.7683291e-01
 -3.4528247e-01
  8.9999042e-02
  2.8553727e-01
 -1.1614604e-01
 -1.0515549e-01
 -4.0781832e-01
 -3.4873646e-01
  4.6452561e-01
 -1.8979210e-02
  1.5232669e-01
 -7.6216487e-03
 -2.5933266e-01
  1.1745022e-01
  2.0426692e-02
 -1.4975904e-01
  2.0955503e-02
 -5.6516999e-01
 -1.9153143e-01
 -7.2501846e-02
  2.0425582e-01
 -3.0430907e-01
 -1.6336600e-01
 -1.8692140e-01
 -9.6043171e-03
  1.7418841e-01
  1.0841126e-01
 -6.1389733e-02
  1.8537092e-01
  3.0583479e-02
 -3.5450241e-01
  4.3442127e-01
 -1.4312892e-01
  1.1188792e-01
 -2.1687010e-01
  3.8470668e-01
  8.0365516e-02
 -1.8664477e-02
 -9.5844738e-02
  3.5372430e-01
 -7.7228971e-02
  2.4984977e-01
  1.6525440e-01
  7.6607466e-01
  4.5196685e-01
  1.7173668e-02
  2.3530252e-01
  7.4416637e-02
  4.8118517e-02
  1.0707293e-01
 -1.8648732e-01
 -1.5212487e-01
 -3.8997245e-01
 -1.6997838e-01
  1.7333816e-01
  3.9545944e-01
 -6.6105694e-02
 -5.1983291e-01
 -7.6867342e-02
 -1.2107278e-01
 -1.9123070e-01
  4.0167637e-02
 -7.3084071e-02
  9.1549248e-02
 -1.2227073e-01
 -5.9847611e-01
  1.0021202e-01
 -4.6079955e-01
  8.1477113e-02
  1.7876096e-01
  2.2404650e-01
  1.5776354e-01
  3.1091304e-02
 -5.1426637e-01
  4.9224055e-01
  2.9081005e-01
 -1.1548787e-01
  1.7404151e-01
  5.2049156e-02
  1.9550866e-01
 -2.1109161e-01
 -2.7613783e-01
 -1.8838695e-01
  1.8079028e-01
 -4.0183663e-03
  3.8518351e-01
 -7.7847026e-02
 -4.8527233e-03
 -7.5891390e-02
 -3.0431945e-02
 -1.9688356e-01
 -1.4747441e-01
 -6.2682606e-02
 -2.7821186e-01
 -2.6069427e-01
 -1.6418181e-01
 -1.6594574e-01
  7.5038560e-02
  5.8634084e-01
 -2.6975879e-01
  1.5767245e-01
 -1.2171105e-01
  4.1601393e-01
 -1.4379567e-01
 -2.2511566e-02
  7.7222876e-02
 -3.7085280e-01
 -1.2552030e-01
  5.8089101e-01
  2.3025978e-01
 -1.3716055e-01
 -1.3604404e-01
 -4.8412526e-01
  3.5893184e-01
  1.0081588e-01
  1.5397942e-01
 -2.6406255e-01
 -3.1723000e-02
 -1.6644812e-01
  5.7286266e-02
  7.3827319e-02
 -1.3694327e-01
  1.1100186e+00
 -1.2750315e-02
 -5.6765627e-02
 -1.3926850e-01
  1.6840132e-02
  1.6873585e-01
 -2.7245006e-01
  2.6689181e-02
  1.6362492e-02
 -7.1292138e-01
 -4.9737647e-01
 -7.5015627e-02
  3.0179828e-02
 -2.5206828e+00
  3.6588103e-01
 -7.9484537e-02
 -4.2286262e-02
  2.3648635e-01
  3.0969912e-02
  3.8674283e-01
 -4.6743304e-02
  3.2955110e-01
  1.3665906e-01
  5.2099997e-01
 -1.7004411e-01
 -1.6084100e-01
  4.2287376e-02
  2.5462455e-01
  1.0161407e-01
  1.9562393e-01
  1.7205963e-01
  3.9677414e-01
 -3.2137889e-01
 -7.3665187e-02
  2.9030585e-01
 -5.1178716e-02
 -4.2833471e-01
 -1.3117020e-01
  2.3886783e-01
 -2.8645823e-02
 -8.3418272e-02
  1.1628643e-01
 -1.2768051e-01
 -1.8638968e-01
 -1.0158419e-01
  6.4916921e-01
  2.9974401e-02
  1.8419906e-01
 -3.3713567e-01
  7.5629532e-02
 -2.3489740e-01
 -1.1871101e-01
 -3.8775834e-01
  3.1013027e-01
 -1.8568417e-01
  1.1124285e-01
 -4.6547851e-01
  1.2600993e-01
  1.9079331e-01
  2.3249051e-02
 -5.5007982e-01
 -3.9432853e-01
 -9.1892749e-01
  4.7278666e-01
  7.9368129e-03
  5.1253247e-01
 -5.8601517e-02
 -3.1603771e-01
 -1.0897567e-01
 -2.4228968e-01
 -9.8661296e-02
 -2.6910883e-01
  3.0174839e-01
  1.5806954e-02
  1.4968233e-01
 -1.4752209e-01
  6.6934869e-02
  3.5099857e-02
  5.1979446e-01
 -8.5069045e-02
  1.0442770e-01
 -3.4767607e-01
 -2.7044603e-01
 -3.7395296e-01
 -3.2847220e-01
  5.0675012e-02
 -4.9316905e-02
  1.0851748e-01
  7.0602009e-03
 -6.2758833e-02
  2.3474461e-01
  2.0243993e-01
 -8.0012403e-02
  1.6644311e-01
 -5.6689873e-02
  1.3802487e-01
  4.4120423e-02
  6.0267717e-01
  6.0239673e-02
  1.4520478e-01
  2.7314210e-01
  1.2142138e-01
  1.9183168e-01
 -3.7354961e-02
 -2.7079183e-01
 -2.2530901e+00
 -1.0312096e-01
  1.6323140e-02
  4.4965539e-02
 -9.4136313e-02
 -2.2904646e-01
  2.6275200e-01
 -2.0820037e-02
  7.3153168e-01
  4.9028757e-01
 -1.1634260e+00
 -2.9826224e-01
  5.0258092e-03
  2.3719166e-01
 -1.2636560e-01
 -9.9809624e-02
  3.9805617e-02
 -1.6547635e-01
 -3.4596812e-02
  1.5525438e-02
 -5.1480627e-01
 -9.0595961e-02
  7.2074878e-01
  2.5349283e-01
  6.2528992e-01
  3.8747984e-01
 -1.5038088e-01
  2.7297944e-01
 -1.5996455e-01
 -4.4258941e-02
 -2.4229878e-01
 -1.0206144e-01
 -3.6495501e-01
  4.2984205e-01
  1.9724838e-02
 -9.1092139e-02
  6.7406487e-01
 -7.1883708e-02
  1.2257548e-01
  5.7096195e-01
  2.8728127e-01
  2.6669234e-01
  2.7065924e-01
 -3.1721690e-01
 -1.4090562e-01
 -3.0740839e-01
 -6.9139254e-01
 -1.6108306e-01
  3.5425402e-02
 -1.2578292e+00
  6.3596636e-02
 -1.4028354e-01
 -1.7571062e-01
 -4.4995911e-02
 -6.6567615e-02
  3.3178765e-01
 -5.4855188e-03
  8.9555115e-01
  1.0254619e-01
 -1.9206595e-01
 -6.0777798e-02
 -3.4471668e-02
 -1.3255683e-01
 -4.0550807e-01
 -5.3819012e-02
 -6.0985900e-02
  7.5439699e-02
  2.0887952e-02
  8.7958679e-02
 -8.6783454e-02
  3.3632058e-01
 -1.2092941e-01
  3.9429897e-01
  4.6681955e-01
  1.1293222e-01
 -7.6979488e-02
  2.5083947e-01
