nep4_zbl 2 Li Al 
zbl 1 2
cutoff 7 6.5 253 210
n_max 8 8
basis_size 10 8
l_max 4 2 0
ANN 60 0
 -3.2723749e+00
 -2.3334422e+00
 -1.9395738e+00
 -2.0416369e+00
 -3.0591920e-01
 -1.3344067e+00
 -1.6027008e+00
 -3.3976655e+00
 -3.3526087e+00
  2.5352857e+00
  2.0188427e+00
  2.0976632e+00
 -3.2162497e+00
  3.1657984e+00
 -1.6314297e+00
 -2.0482903e+00
  5.6008846e-01
  1.0590399e-01
 -4.5835751e-01
  1.3739789e+00
  1.2534599e+00
 -1.3703849e+00
  1.2965899e+00
  1.2800660e+00
 -6.4754003e-01
 -6.2129557e-02
  1.5915794e+00
 -9.0131178e-02
  1.6215191e+00
  6.4049488e-01
 -1.5303165e+00
 -2.4493830e+00
  2.1439431e+00
  2.9712837e+00
  7.1995717e-01
 -6.1512196e-01
  2.9210743e-01
  2.7220067e-01
  1.5538989e+00
  1.4211331e-01
  1.3777889e-01
 -1.4937936e+00
  1.1071842e+00
  2.9885834e-01
 -6.5384388e-01
  1.7885071e+00
  9.9184841e-01
  9.5080310e-01
 -1.8514636e-01
  1.6942781e-01
  3.3238301e-01
 -3.4676933e-01
  1.0412294e+00
  7.8830644e-03
 -2.2551386e+00
 -3.7658739e-01
  1.9481367e+00
 -6.8895090e-01
 -6.2368613e-01
  3.5498741e+00
  3.6343296e+00
 -3.3715959e+00
  2.0196235e-01
  1.7140615e-01
  9.7114551e-01
  1.3069279e+00
  1.8525032e+00
  2.4250207e+00
 -3.2423711e+00
  5.8772869e-02
 -1.4331521e+00
  8.9844409e-04
  2.4566274e+00
 -2.7279055e+00
 -5.4455733e-01
  1.1685196e-01
 -7.6813203e-01
 -4.1552296e+00
  3.0800533e-01
 -1.3788506e-01
 -1.7450374e+00
  3.5818391e+00
  5.8174109e-01
 -1.3793036e+00
 -2.2064769e+00
  1.6093478e+00
 -1.3225278e+00
 -6.6902953e-01
 -7.1921301e-01
 -5.3712028e-01
 -2.8966829e-01
  9.9150670e-01
  8.5920227e-01
 -6.9831324e-01
  2.6402402e+00
 -1.0798960e+00
 -4.2652357e-01
  4.4611764e-01
  1.0672991e+00
  2.4473743e+00
  2.1037459e-02
 -1.0238851e+00
  9.2384291e-01
 -3.0686030e-01
 -3.4003973e-01
  9.3051440e-01
  1.7033217e+00
  4.3096557e-01
  1.8299720e+00
 -3.0108097e+00
  4.7290155e-01
 -8.2754022e-01
  1.2581986e+00
 -2.7858788e-01
 -4.3351244e-02
 -7.6784700e-01
  5.3800023e-01
 -1.4697454e+00
  1.1240697e+00
  1.9747142e-01
  2.0128655e+00
  5.6962502e-01
  1.9855219e-01
 -8.3360350e-01
  3.6792248e-02
 -1.2025807e+00
  4.2987803e-01
  1.6921033e+00
  2.0118552e-01
 -7.3234773e-01
  7.0900023e-02
 -3.4745756e-01
 -1.1544006e-01
  1.0104797e+00
  1.0839859e+00
  1.8921894e+00
  6.2855467e-02
  7.1182534e-02
 -6.2966928e+00
  5.4668617e-01
 -1.3113704e+00
  7.2923595e-01
  2.2092547e-01
 -5.4332131e-01
  3.8878351e-01
 -5.6764376e-01
  1.9227974e-01
 -1.7400467e-01
 -5.9114659e-01
  8.2086539e-01
  4.9091983e-01
  5.0830865e-01
 -8.3180815e-03
  8.0456221e-01
 -6.6814840e-01
 -2.1166444e-01
  1.3356681e+00
  6.0038817e-01
  1.1440406e+00
 -1.2486808e+00
  2.1903507e-02
  2.4069832e-01
 -2.9832271e-01
  6.9286978e-01
  1.5472134e+00
  1.4612485e-01
  6.8240333e-01
 -1.3784833e+00
 -2.0493630e-01
  5.0550502e-02
  1.4375681e+00
  3.4628913e-01
  7.5995988e-01
 -8.0971152e-02
 -4.0485758e-01
  3.9157957e-01
 -9.8596144e-01
  3.8062885e-01
 -1.7827588e-01
  5.9999037e-01
  8.6575327e-03
 -1.1690317e+00
 -8.5686845e-01
  5.0581884e-01
  7.2930670e-01
  6.3115740e-01
 -1.7825476e+00
 -3.0299693e-01
  3.7795164e-02
  5.0455332e-01
 -1.4383619e-01
 -9.1644377e-03
 -1.4056161e-02
 -3.7249580e-01
  1.7446884e+00
 -4.5048469e-01
 -6.6778922e-01
  4.8212126e-01
 -1.0184417e+00
  2.7320725e-01
  5.8191381e-02
 -1.1391014e-01
  3.8935530e-01
  3.6800725e+00
 -1.6410682e-01
  3.1452590e-01
 -1.2553335e+00
  1.3789192e-01
  6.7634094e-01
 -2.6502934e-01
 -5.1955581e-01
  9.5637351e-02
 -1.2321116e+00
 -1.4658391e-01
 -1.9614015e-02
 -7.5588632e+00
  6.0551357e-01
  7.1097839e-01
 -2.1803124e-01
  1.1307143e+00
  1.2545046e-01
 -3.6816204e-01
  8.1590652e-02
  6.1487317e-01
  4.0606695e-01
  9.1710573e-01
  1.6994616e-01
 -1.4996375e+00
  3.4329191e-01
  7.2071649e-02
 -1.0890826e+00
 -2.9873517e-01
  1.9710311e-01
 -1.9736572e-01
 -5.7672364e-01
 -6.2224552e-02
  7.6632416e-01
  2.5359544e-01
 -7.8931880e-01
 -9.1290498e-01
 -4.5162567e-01
  3.2447308e-01
 -1.5111812e+00
  1.1489771e-01
 -1.9118287e-01
  5.9029061e-02
 -1.7581580e+00
  1.5798521e+00
  1.4770395e+00
  1.7443488e+00
  4.5713481e-01
 -1.5238117e+00
 -4.1706994e-01
 -4.4466650e-01
 -1.8720511e-02
 -1.9760889e-01
 -3.7500656e-01
 -5.6541383e-01
  1.2843225e+00
 -7.9570818e-01
  1.4808338e+00
  4.8118001e-01
  8.1590962e-01
 -6.1822534e-02
  2.2085824e+00
 -4.1280255e-01
 -2.9617086e-01
  7.9482979e-01
  1.9926889e+00
 -2.2728801e-01
 -2.7069299e+00
  1.6804968e+00
 -1.2559078e+00
  1.8659277e+00
 -1.6877679e+00
 -2.3654125e+00
  7.2806424e-01
 -3.0494733e+00
 -1.0327563e-02
 -8.9457937e-02
 -5.5201322e-01
  7.1151793e-01
  3.2698861e-01
 -4.5802090e-01
 -1.8148738e-01
  1.5505043e+00
 -3.1636086e-01
 -3.2967627e+00
  2.5716228e+00
 -1.3539978e+00
  1.6160107e+00
 -1.0965464e+00
 -2.7074583e-02
 -2.8271632e-02
 -1.4080052e+00
 -7.3524880e-01
 -2.4130249e+00
  1.7209463e+00
  1.1760223e+00
  1.1953753e-01
 -7.2283381e-01
  1.2048620e+00
 -1.6224948e+00
 -1.4360340e+00
 -1.2822002e+00
 -2.9241495e+00
 -9.3367672e-01
 -8.8657403e-01
  4.5938537e-01
 -8.3786142e-01
 -6.1943150e-01
 -5.8046944e-02
 -1.6443338e+00
  1.6256066e-01
  1.1325724e+00
 -6.5862978e-01
  2.1800706e-01
 -1.0161138e+00
 -1.4011080e+00
  3.0841856e+00
  1.3005607e+00
 -6.2432116e-01
  1.3789619e+00
  1.4394335e-01
 -1.2607746e+00
  2.4036919e-01
 -3.9138117e-01
 -6.3872927e-01
  3.8496339e-01
  9.1914475e-01
  4.3844292e-01
 -6.0408562e-01
  1.9655427e+00
  5.4264057e-01
  6.1143345e-01
 -2.6294589e-01
 -1.1319533e-01
  3.8094687e-01
 -4.8088181e-01
  8.3362907e-02
 -5.0936818e-01
 -7.8010231e-01
 -5.6653148e-01
 -2.8919140e-01
  5.2984083e-01
 -4.9393350e-01
  4.9717762e-02
  1.6908128e+00
  4.4804457e-01
  3.9031529e-01
 -1.4235114e+00
  5.0366926e-01
  3.1887121e-02
 -6.0241723e-01
  2.0955874e-01
 -2.4230814e-01
 -4.8733979e-02
 -3.7535954e-01
  1.0801553e+00
  2.4089177e+00
  9.8931062e-01
 -8.1717342e-02
 -1.6883349e+00
  2.5868890e-01
  7.3398173e-01
  1.7475799e-01
 -1.5985087e-01
 -1.0559759e-01
 -1.0948465e+00
  2.8876454e-02
 -1.0037584e+00
 -5.7969147e-01
 -1.8196448e+00
 -6.5129197e-01
  5.8777040e-01
  1.9603832e-01
  5.2967560e-02
 -2.0718067e+00
  1.5085453e+00
  8.1702960e-01
 -8.5263145e-01
  3.0512440e-01
  1.2677430e+00
 -3.5279191e+00
 -3.0629769e-01
 -5.8855325e-02
 -2.0611668e+00
 -2.4021828e-01
 -5.4345548e-01
  7.0652056e-01
  2.7662954e-01
  8.0852115e-01
  2.8001869e+00
 -4.0657595e-03
 -1.6358264e-01
 -5.6146002e-01
 -3.3041894e-01
  3.1573501e-01
 -1.6941966e+00
  6.5186280e-01
 -5.1758516e-01
 -2.5947490e-01
  1.7493527e+00
  1.6388073e+00
  1.8975523e+00
  1.4095396e-01
 -5.1453108e-01
 -7.4073875e-01
  8.0167305e-01
  3.8301575e-01
  1.9615631e-01
  1.9237081e+00
  1.5002744e+00
  4.2978102e-01
  1.1705298e+00
  2.9006758e+00
  1.1072138e-01
  1.8016841e-01
 -1.9158985e-01
 -1.3766748e+00
  2.5954673e+00
  4.1676414e-01
  1.3363198e+00
  1.5781824e-01
  1.2490577e-01
 -9.8703086e-01
 -1.5376905e-01
  3.6883828e-01
 -3.5146427e-01
  2.6822492e-01
 -1.3060987e+00
 -5.6171650e-01
 -1.2809225e+00
 -8.5908490e-01
  2.5313830e+00
  3.6141229e+00
 -2.0208213e+00
  3.0446677e+00
 -1.5138102e+00
  4.7298336e-01
  4.5892868e+00
  4.5175776e-02
 -1.6273093e+00
  3.3658054e-01
  3.0627567e-01
 -4.8977524e-01
 -7.9190159e-01
  7.2844076e-01
 -2.5381225e-01
 -7.1864593e-01
  8.0941671e-01
 -2.0177815e+00
  1.5600011e-01
  9.0017319e-03
  5.6116432e-01
 -1.5368862e+00
 -1.2668693e+00
 -1.1569642e-01
  8.2533157e-01
  7.6348764e-01
 -7.6783699e-01
 -1.9805485e+00
  2.7966875e-01
  3.1166425e+00
  7.6001048e-02
 -8.1203073e-01
 -3.5476965e-01
 -9.1776264e-01
 -1.4408431e+00
  3.0715916e-01
 -1.3304199e+00
  1.6092101e-01
  2.1828046e-01
 -2.7196140e+00
  6.8808275e-01
  3.2381968e+00
  4.9279562e-01
 -1.7442374e+00
  1.6402584e+00
  4.5053434e-02
 -4.4520524e-01
 -9.7955301e-02
  9.2017955e-01
 -7.2898793e-01
  6.5430856e-01
  1.3192643e+00
  1.9693165e-01
  3.3992672e+00
 -1.1810175e+00
 -8.5069895e-01
  2.3451629e+00
  3.6985061e-01
 -3.1792700e-02
 -1.9690758e+00
 -4.7520918e-01
 -6.8396844e-02
 -1.0639683e+00
  2.5011784e-01
 -5.2692831e-01
 -4.7470480e-01
 -3.0135918e-01
  1.0680140e+00
  2.4901628e+00
 -1.0508627e+00
  1.2662573e+00
  2.5278854e-01
 -4.7922075e-01
  2.0340480e-02
 -6.0162210e-01
 -1.5693990e+00
  7.9408616e-01
 -1.2928298e-01
  2.5171635e+00
  1.6362517e+00
  3.6516911e-01
  3.9627063e-01
  1.3182943e+00
  1.4129156e+00
 -4.7927704e-01
 -2.2383887e-01
  2.1109490e+00
 -4.7238388e+00
 -1.1291622e-01
 -1.3652833e-01
  6.2700123e-01
 -2.6572261e+00
  2.6048048e+00
 -4.7349748e-01
  4.5106306e+00
  1.4607482e-02
  5.3833848e-01
  2.8623283e-01
 -1.4258627e+00
 -7.4584264e-01
 -6.0354280e-01
  1.2546338e-01
 -9.9227160e-01
  3.9636588e-01
  1.7204370e+00
 -2.3301835e-01
 -9.5136538e-02
 -1.6786344e+00
  8.7034070e-01
  2.9220787e-01
 -1.0719744e+00
  3.0016108e+00
  2.6476997e-01
 -2.5589104e+00
  2.5623229e+00
  1.0848747e+00
  7.6066315e-01
  2.8455627e-01
 -4.9428141e-01
  9.4271237e-01
  8.0619901e-01
 -2.0892471e-02
  3.4192100e-02
  9.0996426e-01
 -2.5903434e-02
 -3.8659197e-01
  1.3371851e+00
 -4.2135209e-01
 -6.2861368e-02
 -3.0832395e-02
 -1.4594963e+00
 -8.0733991e-01
 -1.9294703e-01
 -6.0661447e-01
  5.5274345e-02
 -1.0026512e+00
 -9.2592949e-01
 -9.6255159e-01
  1.4891592e+00
  6.2691098e-01
  3.1709157e-02
 -8.1301683e-01
 -9.5599699e-01
  5.5137002e-01
  6.5179944e-01
  1.0918096e+00
 -2.4872498e-01
 -7.7153480e-01
 -9.2305708e-01
 -9.2264289e-01
  1.0512098e-01
  2.4923144e-01
 -5.0722891e-01
  6.5114301e-01
 -7.5712013e-01
  6.2036544e-01
 -3.7886202e-06
 -1.2489095e+00
 -7.8545409e-01
  6.1992353e-01
  2.2818315e-01
 -7.4106574e-01
 -4.2387396e-03
 -2.1938012e+00
 -2.0551637e-01
 -1.9168732e+00
 -5.1512849e-01
 -1.2198964e+00
  1.0839318e+00
 -2.0643029e-01
  1.2483170e+00
 -1.1080449e+00
  2.3606557e-01
 -6.2726960e-02
 -4.5984689e-02
  7.7845448e-01
 -1.2692549e+00
 -9.3097997e-01
  1.1215354e+00
 -7.5042123e-01
 -4.7461694e-01
 -7.9108959e-01
  8.6806631e-01
  9.3059099e-01
 -6.8359065e-01
  1.3368133e+00
 -6.7329901e-01
  9.9667495e-01
 -1.1114242e+00
 -9.8194009e-01
  2.1449737e-01
  9.9288166e-01
  9.4089478e-02
 -3.7889019e-01
 -3.5922447e-01
  1.0784751e+00
 -1.4878584e+00
 -7.4147362e-01
 -9.6908972e-02
 -7.7092731e-01
  2.2401426e+00
  2.0055483e-01
  1.2346459e-01
 -2.0603705e-02
  1.8511651e-01
  1.8429778e+00
  7.4802138e-02
 -7.9517543e-01
  9.9777222e-01
 -5.7322478e-01
  9.7383368e-01
 -1.3682392e-01
 -3.6874875e-02
  1.7548552e+00
  2.0787582e-01
  1.6323668e-01
  1.2315784e-01
 -5.8523870e-01
  7.3798907e-01
 -2.3224908e-01
 -7.0837247e-01
 -9.1185248e-01
 -1.5458596e-01
  2.4685487e-01
 -4.9010742e-01
 -7.8777719e-01
 -1.8767750e-01
 -3.2506621e-01
  5.4822832e-01
 -2.7221560e-01
 -7.7031362e-01
 -1.4212006e-01
  1.3051559e+00
 -2.9210019e-01
  8.1710237e-01
  1.0861727e+00
  8.3851349e-01
 -3.4617287e-01
  1.1248291e-03
  1.5829813e+00
 -4.8442863e-02
 -4.9549896e-01
 -2.2930293e+00
  1.5776776e-02
 -1.2826720e-01
  1.0885760e+00
 -9.2014021e-01
 -1.5429779e+00
  6.6294038e-01
  6.0869746e-02
  2.1269897e-01
  1.1853893e+00
  2.3670265e-01
  9.8929964e-02
 -8.0419505e-01
  1.6825094e+00
 -1.8172597e+00
 -2.9658216e-01
  1.8123658e-01
  1.6252439e+00
 -8.5675329e-02
  4.9439508e-01
 -3.7622222e-01
  1.3837417e+00
 -8.6504638e-02
  1.6346170e+00
  1.8787135e-01
  2.8070697e-01
  2.4014947e-01
  1.2825549e-02
 -2.3975718e-01
 -8.6377060e-01
  1.6718267e-01
 -1.1395241e+00
 -5.4155314e-01
 -7.2579491e-01
  6.8869430e-01
  4.6094835e-02
 -5.0255299e-01
  1.4753675e-01
  4.3917024e-01
 -1.2696847e+00
  4.0707648e-01
  2.1116192e+00
  7.6707393e-02
  4.1335469e-01
  1.2479653e+00
 -1.2361299e+00
  1.3909072e+00
  1.1415671e+00
  3.3219032e+00
  5.8330023e-01
 -6.4874673e-01
  3.3803466e-01
 -3.4693998e-01
  6.2238872e-03
  1.6386210e+00
  2.8747976e-02
  2.8569591e+00
 -8.1208479e-01
  5.4291570e-01
 -1.4797298e+00
  1.8033330e+00
  8.7330081e-02
 -2.9481140e-01
  3.4803724e-01
  8.3458483e-01
  2.5789492e+00
 -7.4829572e-01
 -1.2301985e+00
 -1.2108651e+00
 -2.0954639e-01
  1.1461293e+00
  4.2389297e-01
 -6.1099716e-03
 -2.0187740e-01
  1.9622651e-01
  7.1977663e-01
 -4.6771649e-01
  2.1076522e+00
 -1.0986763e-01
 -6.0213166e-01
 -2.9129257e+00
  1.0764054e+00
 -4.7417799e-01
 -7.4961442e-01
 -8.9546382e-01
  2.7478099e-01
 -3.2508820e-01
  1.8596342e+00
 -5.3162181e-01
  1.0363342e+00
 -7.3839378e-01
  1.6878927e+00
 -8.1066436e-01
 -8.8774896e-01
  8.9956909e-02
  6.1428100e-01
 -2.6289148e-02
 -7.7540582e-01
  6.4927027e-02
 -1.5643255e-01
 -2.3383257e-01
 -8.1411111e-01
  8.1930530e-01
 -4.2421126e-01
 -1.0209072e+00
 -1.4360541e+00
 -2.3216957e-01
  4.3409921e-02
 -7.2471417e-02
  3.8829064e-01
  3.3821288e-01
 -7.0931578e-01
 -1.0142745e+00
  3.5535917e-01
 -8.3951354e-01
  2.3041320e-01
  8.0292839e-01
  5.0384581e-02
 -5.1991570e-01
 -1.4448316e+00
 -6.4868462e-01
 -1.3353163e-03
  9.4479077e-02
 -1.1309850e+00
 -1.4809653e+00
 -8.8972449e-03
 -3.7159681e-02
  3.5921252e-01
 -3.8316515e-01
  2.9549491e-01
  3.6255288e-01
  9.3257177e-01
  4.8380297e-01
 -3.2527524e-01
  1.7972858e+00
  3.0633810e-01
 -8.3882153e-01
  6.6774762e-01
 -2.0483176e-01
  1.8494664e+00
  1.9003078e-01
 -3.9784098e-01
 -1.0184791e+00
 -1.0752394e+00
 -1.5256480e+00
 -6.6115402e-02
 -2.1362650e+00
  1.5076022e+00
 -3.1849155e+00
 -1.9196999e+00
 -1.0553129e+00
 -1.2982925e+00
  4.2162347e-01
 -7.4854875e-01
  9.3394071e-01
 -5.9547883e-01
  1.6082823e-02
 -8.5115027e-01
 -2.2002835e+00
 -3.7931554e+00
 -7.1281642e-01
 -3.0580783e-01
 -1.6953344e+00
  8.1823185e-02
 -1.1947346e+00
  7.2273070e-01
 -1.0697249e+00
 -4.2203730e-01
 -8.3321518e-01
 -1.5696638e+00
  2.3839841e+00
  1.0256884e+00
 -2.8486520e-02
 -2.5571401e+00
 -2.8332756e+00
 -2.2187183e-02
  2.9981503e-01
 -1.5804237e-01
  2.4917324e-01
  9.7775227e-01
  1.2660566e-01
 -4.1691813e-01
 -3.2602870e+00
 -1.1542156e-01
 -7.9224807e-01
 -4.6184048e-01
 -3.8130486e-01
  1.5261309e-01
 -3.9676008e-01
  1.4854822e-01
  2.0732263e-01
  7.2429292e-02
  9.7335839e-01
  1.7011969e+00
  2.2183836e+00
 -3.1574190e-02
 -4.7810625e-02
 -9.2521107e-01
  1.5632424e+00
  1.0890260e+00
  3.8059524e-01
 -3.2739159e-01
 -2.3588286e-01
  4.8139250e-01
  2.0550387e-01
  3.9680186e-01
  2.4500722e-01
 -7.8120723e-02
 -1.0735786e+00
 -5.6584805e-01
  2.9992229e-01
 -2.8350839e-01
 -1.6820798e+00
 -1.2325534e-01
  7.3957419e-01
 -7.4065995e-01
 -3.8069144e-01
  5.2322036e-01
  1.1008801e+00
 -2.2575223e+00
  1.2941711e+00
  9.2705011e-01
  8.9171857e-01
  5.3275597e-01
  5.2413785e-01
 -5.2914804e-01
  4.1692191e-01
 -1.9803311e-01
 -1.6578200e+00
  5.6722158e-01
 -4.9746889e-01
 -1.1667261e-01
 -3.6904192e-01
 -3.1165528e+00
 -6.6681221e-02
 -9.8801047e-02
  4.2907798e-01
  9.7865760e-01
 -2.2810005e-01
 -9.9294776e-01
  4.7668472e-01
  1.7852300e-01
 -1.2352045e+00
 -3.4889528e-01
  2.7596259e-01
  1.2673065e-03
  2.6254952e-01
 -3.3839202e-01
 -3.9432168e-02
  7.1620840e-01
  5.8073658e-01
  2.3975819e-01
 -5.3623152e-01
 -3.0490491e-01
 -4.5791280e-01
  8.3402324e-01
  3.0770129e-01
 -5.5107212e-01
  3.5886610e-01
  5.5364537e-01
 -2.3239690e-01
  1.5035002e+00
 -4.8956120e-01
 -1.3363053e+00
 -1.9033742e-01
 -2.4797127e-01
 -4.5791787e-01
 -3.5165334e-01
  1.7505996e-03
  2.3329379e-01
 -3.2495536e-02
 -1.0171629e+00
 -2.6331627e-01
 -7.7009952e-01
  2.4463937e-01
 -2.2966385e-01
 -7.3912069e-02
  8.8284123e-01
  5.0442719e-01
  7.8491575e-01
 -3.7089521e-01
 -3.2150292e-01
 -2.1577306e+00
 -6.9577682e-01
 -4.0068603e-01
  1.2093976e+00
  7.7131372e-03
 -4.8701191e-01
  1.5489396e+00
  3.1176060e-03
 -8.7151283e-01
 -2.1046653e+00
 -1.8093857e-01
 -4.5588529e-01
  3.3794227e-01
 -2.8128281e-01
 -3.2971973e+00
  4.6012110e-01
  2.0410960e+00
  6.5867466e-01
 -1.1266596e+00
 -1.1577042e+00
 -1.1191484e+00
  1.1534784e+00
  1.6703320e+00
  1.7509503e+00
 -1.6671085e-01
  3.6123119e-02
  3.3913174e-01
  4.4856731e-02
  2.0763193e-01
 -9.9175090e-01
 -8.2609600e-01
  1.4944127e+00
  1.1296456e+00
 -1.7594317e-01
  6.2542748e-01
 -3.5837874e-01
  6.7110330e-02
 -8.6535615e-01
  1.7511705e-01
 -5.3911567e-02
 -2.0587522e-01
  1.2571790e+00
 -1.3423644e-01
  3.2122228e+00
  2.1324780e+00
 -8.7939566e-01
  1.4691576e+00
 -3.7691164e-01
 -1.3110968e+00
 -7.2766584e-01
  6.2471765e-01
  1.1540701e+00
  3.0458930e-01
  1.0206670e+00
  1.3856860e+00
  4.9759126e-01
 -1.4272130e+00
  1.4840698e-01
  1.5902948e-01
  5.0429237e-01
 -6.6706115e-01
 -1.6357718e+00
  1.0769954e-01
  6.8847769e-01
 -2.2674344e-01
  1.2746686e-01
  3.6149621e-01
  3.2387248e-01
  2.0138855e-01
  9.9739665e-01
  4.7933636e+00
  1.6483552e+00
  4.6483818e-01
  4.0408068e+00
  6.4806169e-01
  4.6385685e-01
  4.1479945e+00
  2.0102230e-01
  3.4543106e-01
  1.1993552e+00
 -6.1843026e-01
  5.8178008e-01
  4.3607032e-01
 -5.3456374e-02
 -3.2553333e-01
 -2.4186549e-01
 -8.6173785e-01
 -5.6643593e-01
  6.4857411e-01
  2.8313190e-01
  3.5623640e-01
 -4.6784356e-03
  1.1932498e-01
 -7.6485431e-01
 -7.8843880e-01
  1.2029569e+00
 -1.4141142e+00
  4.9332121e-01
 -1.6784544e-01
 -7.3339087e-03
 -2.6907918e-01
  1.2103479e+00
  9.6593148e-01
  6.7772776e-01
 -8.5557210e-01
 -1.6413951e+00
  2.1180480e+00
  6.5154749e-01
  8.3692515e-01
  1.2250079e-01
  7.3407471e-02
  4.2965001e-01
 -6.2385488e-01
  1.1650690e+00
  1.8456757e+00
  4.4707519e-01
 -5.9136236e-01
  2.8781208e-01
  7.2322476e-01
 -8.4779533e-03
 -1.4302164e-01
 -1.5427881e-01
 -2.2247113e-01
 -1.2099161e+00
  2.7542040e+00
 -1.5261209e+00
  1.7862878e+00
 -8.7982215e-02
  1.9735155e+00
  2.2364604e+00
  4.3947926e+00
  3.7477958e-01
 -3.5985774e-01
  2.8248647e-01
 -1.3243592e-01
 -1.4651563e+00
 -2.5987654e+00
  3.1234890e-01
 -1.2394258e+00
  5.7180512e-01
  8.1271321e-02
  1.1416413e+00
  7.1933192e-01
 -1.1683485e-01
 -3.2018733e-01
 -1.0313065e-01
 -1.2377486e-01
 -2.5793375e-02
  2.0213664e-02
  5.2664208e-01
  6.4898688e-01
  2.3197148e+00
  9.0767682e-01
 -6.8363839e-01
  2.3032647e-01
  1.0961793e-01
  3.5662246e-01
 -2.0538096e+00
 -7.6319510e-01
 -4.0730256e-01
  6.5937035e-02
 -8.3043367e-02
 -6.1683774e-01
 -5.7305105e-02
  6.5394449e-01
  1.2796108e+00
 -7.8182286e-01
  4.5021993e-01
  3.6442125e-01
  1.7681570e+00
 -4.7373135e-02
  8.8298595e-01
  5.1991659e-01
 -1.7957848e-01
  6.2710714e-01
  5.4475647e-01
  1.3284159e+00
  2.3094482e+00
 -1.4164522e-01
 -2.2739303e-01
 -4.3854773e-01
 -3.7432885e-01
 -1.7258143e-01
 -1.8508896e+00
  1.1699373e+00
  1.0411264e+00
  1.6916878e+00
  6.7075491e-01
 -1.9140792e+00
 -2.0257387e+00
  4.8666155e-01
 -4.8647046e-01
 -2.6867616e-01
  9.1408074e-01
  2.0879593e-01
 -2.3084730e-02
 -1.0025220e+00
 -6.1041439e-01
 -9.7129756e-01
 -7.3486584e-01
  8.0301183e-01
  5.4941773e-01
  5.1172769e-01
  1.0600264e-01
  3.6239105e-01
  9.7875851e-01
 -3.6524773e-01
 -1.2256809e+00
 -3.0411434e-01
  7.2307914e-01
 -2.7802542e-01
  1.3376912e+00
  1.0828315e+00
 -6.2384450e-01
  1.5502115e-01
  1.2901691e+00
  2.0873637e+00
  1.2050616e+00
  2.8011882e-01
  4.4713446e-01
  1.3546789e+00
 -4.2927316e-01
 -1.7410533e-01
  3.5215360e-01
  1.2178897e+00
  2.7210572e-01
 -1.2553449e-01
  8.1678617e-01
  4.8620072e-01
 -4.4684601e-01
  3.2054160e+00
  2.7963713e-01
 -1.5882866e+00
 -6.5479720e-01
 -2.0783296e-01
  4.4875333e-01
 -1.1525440e+00
 -4.7076714e-01
 -6.0519832e-01
  1.1665390e+00
  6.9598073e-01
  1.0775746e+00
 -1.1501648e-01
 -1.0758773e+00
 -2.5112665e-01
  7.4106467e-01
  7.1835265e-02
  1.7281044e+00
 -1.1626675e+00
  1.6895598e-02
  2.4024673e-02
 -4.0627870e-01
  7.8986371e-01
  9.2902476e-01
  2.3025253e-01
 -8.9836471e-02
  1.5004958e+00
  9.5608819e-01
  9.1473126e-01
 -2.0848076e-01
 -2.7451089e-01
 -6.8028396e-01
  7.5161231e-01
 -9.4999537e-02
 -5.9939092e-01
  7.2415441e-01
 -8.8548362e-01
  4.3971795e-01
 -8.6375368e-01
  9.1664288e-03
  9.0306091e-01
 -8.2540858e-01
  2.9063201e+00
 -1.0718651e+00
  9.7284436e-01
  1.6964462e+00
  2.2963049e-01
  3.2648617e-01
  2.8287673e+00
 -7.8441548e-01
  1.6273713e-01
 -1.0456527e+00
  5.5278793e-02
 -1.9163939e-01
  3.1979230e-01
  6.1420541e-02
 -6.2383789e-01
 -1.4714764e+00
 -1.6066042e+00
 -8.2351059e-01
  9.9547452e-01
 -6.4920014e-01
  4.5428362e-01
  5.0789225e-01
  3.5644907e-01
  6.7838296e-02
 -1.0985594e+00
 -1.4730789e-02
 -1.6030146e+00
 -5.1020622e-02
  2.9305553e-01
  6.1496943e-03
 -8.1751567e-01
  2.1697852e-01
 -1.2108431e+00
  5.1461309e-02
  1.0282046e+00
  6.5110795e-02
 -1.7567512e-01
  6.3673347e-02
  9.3413156e-01
 -4.4247946e-01
 -4.0492630e-01
  1.8116698e-01
 -3.8429946e-03
 -1.4707769e-01
  2.4206061e+00
 -3.6567548e-01
 -1.0711807e+00
  1.9203806e-01
 -1.7009480e+00
  7.4034131e-01
  1.2919083e-01
 -4.6450973e-02
  4.2653519e-01
 -2.2701947e-01
  2.7224221e+00
 -6.8975464e-02
 -4.8040691e-01
 -2.2873805e+00
  1.9518243e+00
  7.0685232e-01
  1.4262167e+00
  8.1207103e-01
  1.2517545e+00
 -1.4428114e+00
  1.3628681e+00
  1.8942070e-01
 -5.1757020e-01
  1.6528288e+00
 -1.1324244e+00
  1.0667889e+00
 -2.6270982e-02
 -2.7908838e+00
 -3.1813028e-01
  1.9952505e+00
 -1.7881422e-01
  3.6506820e+00
 -1.5703422e-01
  9.4347328e-01
  6.3701883e-02
 -1.6104349e+00
  3.6449653e-01
  2.0749681e-02
 -5.1371241e-01
 -1.2521358e+00
 -3.0428216e-01
 -1.6311307e-02
  1.6157863e+00
  1.6563755e+00
  4.0666872e-01
  1.1386521e+00
  1.4434963e+00
  3.3913543e+00
 -2.6601574e+00
 -1.5460753e+00
 -1.3831385e+00
  3.6570387e+00
 -9.7657156e-01
 -1.8781474e-01
 -3.7801886e+00
 -2.2604883e-01
 -8.9973730e-01
 -7.4315679e-01
  2.6681855e+00
 -1.8621515e+00
 -2.9807314e-01
 -5.2608472e-01
  1.0916694e+00
 -4.8831429e+00
  1.1007622e+00
  1.4594570e-01
  2.2822642e-01
 -7.6735443e-01
 -4.6929702e-01
 -2.2356659e-02
 -1.4302559e+00
 -8.1913292e-01
 -1.1317322e+00
  1.9323957e-01
  6.3293621e-02
  4.2323902e-02
  5.6938607e-01
  8.0438900e-01
  3.0206379e-01
  5.0503320e-01
 -1.0258390e+00
  1.2666594e+00
 -5.4088849e-01
 -1.5647796e-01
 -3.9244132e+00
  5.8130020e-01
  3.8604373e-01
  4.2317158e-01
 -3.5680464e-01
  1.7348441e-01
  4.7411215e-01
 -1.2033736e+00
 -1.5531920e+00
 -6.1319888e-01
 -1.3592434e-01
  6.3224405e-02
 -2.7711111e-01
  1.2668185e-01
  2.6940435e-01
 -7.2580135e-01
  1.3029778e+00
 -1.9124341e-01
  9.4781661e-01
  8.6623579e-01
 -7.7310693e-01
 -1.1275171e+00
  8.4017277e-01
 -1.1715074e+00
 -5.2963960e-01
  8.1906676e-02
  1.6572280e-01
 -1.1783049e+00
 -8.1494743e-01
  1.4598155e-01
  1.6567133e-01
  2.2075078e+00
  2.8210577e-01
 -8.3530444e-01
  1.9226184e-01
  4.4844562e-01
  3.2169147e+00
 -2.3278852e-01
 -1.8189676e+00
 -1.9561610e-01
 -6.6441065e-01
  4.1632950e-01
 -3.1420109e-01
 -1.2036805e+00
  3.6139324e-01
 -1.4718182e+00
  1.3353262e+00
  3.1918228e-01
  1.0072612e+00
 -5.0757676e-01
 -1.1747793e+00
  3.7350169e-01
  8.4261644e-01
 -1.8110460e+00
  6.6363913e-01
  6.2625885e-01
  2.7587697e-01
  2.3202327e-01
 -6.7062873e-01
 -1.2679103e-01
  6.7112416e-01
  5.8921725e-01
 -1.1524853e+00
 -5.2355677e-01
  4.4375890e-01
 -2.0470731e-03
 -7.3686159e-01
  1.6745673e-01
 -4.8185118e-02
  3.5493585e-01
  5.3751606e-01
  1.7082293e+00
 -4.8384253e-02
  6.3655710e-01
 -9.0287662e-01
 -2.8203785e+00
  3.8812172e-01
  1.5234588e-01
  6.8373179e-01
  3.3348525e-01
 -1.4506265e+00
 -1.5883316e-01
 -5.2012432e-01
  3.8855240e-01
  2.9828030e-01
  6.8001091e-01
 -5.8090270e-01
  5.8307278e-01
 -6.0729802e-01
 -2.5640769e+00
 -6.9045269e-01
  9.2076284e-01
  2.6400406e+00
 -3.3856088e-01
 -4.3180096e-01
  4.3122903e-02
  7.2662967e-01
  1.4630365e-01
  7.5093246e-01
 -3.1366670e-01
  6.1451554e-01
 -3.5597491e-01
  1.1128632e-01
  2.8172690e-01
  2.4776809e-01
 -6.9038337e-01
 -1.7307856e+00
  8.4007281e-01
 -6.7253208e-01
  4.6403944e-01
  3.7384111e-01
  3.6864448e-01
  3.3603019e-01
 -3.5975441e-01
 -9.3231654e-01
 -2.5178415e-01
 -5.1595187e-01
  1.2199029e+00
 -2.8216308e-01
  4.6717611e-01
 -2.9834397e-02
 -1.1736166e-01
  7.6262116e-01
 -1.2895589e+00
  3.7352957e-02
  7.7446735e-01
  1.1190268e-01
  2.0849678e-01
  2.7088353e-01
  7.5731546e-01
  8.6337209e-01
 -4.2337814e-01
  2.3967962e-01
 -1.5598351e-01
 -5.3333783e-01
  1.0768795e+00
  2.4307284e-01
  2.5969479e-02
  3.3117804e-01
 -1.2870014e-01
 -1.8278751e+00
  6.4120805e-01
  1.2457803e-01
  1.1361712e-01
  1.6425173e+00
  4.3128675e-01
  3.3721069e-01
 -1.7555677e+00
  2.2646000e+00
 -5.1706165e-01
  5.0169170e-01
 -4.2485130e-01
 -2.9949033e-01
  6.0701020e-02
  5.0811243e-01
  2.9362160e-01
  1.4405380e-01
 -1.8248267e-01
  2.1488166e+00
  9.1738713e-01
  4.0931731e-01
 -7.7378559e-01
 -4.5242362e+00
 -2.8750330e-02
  7.3742795e-01
 -4.2120785e-01
  4.1459268e-01
  8.0029017e-01
 -7.9493308e-01
  1.0753630e+00
 -1.2711384e-02
 -1.2071464e+00
 -3.2322937e-01
  9.7231752e-01
 -8.7151772e-01
 -6.8590248e-01
 -3.1889433e-01
  7.1352553e-01
 -8.2506299e-01
  6.1270708e-01
  9.9576935e-02
 -5.6838036e-01
 -4.2762679e-01
  2.8661740e-01
 -7.5252578e-02
  1.4479029e-01
 -1.8378223e-01
  1.2736014e+00
  3.8603795e-01
 -1.1149856e-01
  1.2314998e-01
 -6.9649196e-01
  4.5537090e+00
  6.2976107e-02
 -2.5254837e-01
  5.0194645e-01
 -1.4190447e+00
 -1.4697562e+00
 -8.8566053e-01
 -9.0841413e-02
  2.3049340e+00
  2.6285848e-01
  7.2813064e-01
  1.5980767e-01
  9.9779856e-01
 -4.3062672e-01
 -8.2198077e-01
  2.1999965e+00
 -1.2335337e+00
 -3.3375764e+00
 -6.0965121e-01
  1.4423071e+00
 -1.1305561e+00
  3.6447749e+00
  2.4451998e-01
 -1.1064807e+00
 -8.0383527e-01
  1.0231515e-02
  1.8534441e-01
 -1.3302171e+00
  2.3223956e+00
 -2.5324179e-02
 -5.0324833e-01
 -3.5152963e-01
 -1.4912653e+00
  6.2901601e-02
 -5.0449514e-01
  1.3048478e+00
  5.8171314e-01
  1.2461168e+00
 -6.3451225e-01
  4.5429340e-01
 -3.3309212e-01
  1.4331951e+00
 -3.8536447e-01
 -3.3378136e-01
  1.6064923e+00
 -3.5380140e-01
  1.5478535e+00
  2.1424239e+00
  4.4724306e-01
 -8.8135171e-01
 -1.6800529e-01
 -3.8220343e-01
  6.1002374e-01
  6.3355571e-01
 -1.2793596e+00
  9.2143810e-01
  1.8455863e+00
  1.8558917e+00
 -2.3532861e-01
  4.4676298e-03
 -2.1126352e-01
  7.4830717e-01
  9.2152096e-02
 -4.4303513e-01
 -3.8483939e-01
  7.9830118e-02
 -2.2121826e-01
 -1.8627615e-01
  6.5136266e-01
 -6.1549461e-01
  2.0079355e+00
  7.5187600e-01
 -1.0726568e-01
 -1.5641469e+00
  5.8458668e-01
  7.8836465e-01
 -1.4354130e+00
  9.2511332e-01
  6.3494527e-01
  1.7547792e-01
  6.5591574e-02
 -1.1865436e+00
 -3.7452331e-01
 -7.0457029e-01
  2.2459440e+00
 -2.0937282e-01
  2.2513702e+00
 -2.1186455e-01
 -2.3875968e+00
 -1.3865025e-01
 -7.4011542e-02
  2.0831094e+00
  3.5630442e-02
  2.0938168e+00
 -1.2647486e-01
  5.3238130e-01
  8.5614914e-01
 -1.8800789e-01
 -1.6621237e+00
 -1.0953896e+00
  1.5883788e+00
  9.5006120e-01
  1.4889216e+00
 -1.0723066e+00
 -2.5314656e-01
 -7.9347193e-03
 -6.2478858e-01
 -7.7035743e-01
 -1.6708241e-01
  9.5252410e-02
 -8.7151325e-01
 -7.4127980e-02
 -8.4670234e-01
  1.6480058e-01
  1.9835675e-01
 -8.3564293e-01
 -1.8336964e-01
 -4.3990439e-01
 -1.6018535e-01
  1.1622604e+00
 -5.2614099e-01
 -1.1358230e-01
  7.4976039e-01
  1.5483160e-01
 -7.2874349e-01
 -2.1840947e+00
  1.6131735e+00
  1.2787579e+00
 -6.3740820e-02
  3.0563934e+00
  8.9894015e-01
 -3.7561506e-01
  2.1183538e+00
  3.2840639e-02
 -1.4770110e+00
 -3.7959504e+00
  4.3081293e+00
 -4.1170838e-01
  1.3569358e-01
 -6.6805804e-01
 -9.1789919e-01
 -4.2318821e+00
 -1.9159503e+00
 -2.6813421e+00
 -1.4081734e+00
  3.9853845e+00
 -1.8646768e+00
 -2.5791216e-01
  8.1255153e-02
 -1.6744554e+00
 -8.9587528e-01
 -4.0765877e+00
 -3.9841443e-02
 -2.0248942e+00
  7.6853722e-02
 -8.3858526e-01
 -2.7079263e+00
  2.2519065e-01
  3.0515274e-01
  1.3093328e-01
 -9.3031532e-01
  1.4326434e+00
 -6.7346060e-01
  2.2642593e+00
 -2.1107365e-01
 -1.7080015e+00
  7.0336777e-01
 -1.7893370e+00
  6.9858938e-02
 -3.1037122e-01
  1.5095872e-01
 -4.0057786e-03
  7.6707733e-01
 -1.9361028e-01
  9.4436014e-01
 -7.5763685e-01
  1.6769637e+00
 -9.5726544e-01
  1.6680220e-01
 -7.0718646e-01
  3.3721462e-01
 -9.9016792e-01
 -2.4785993e-01
  4.1506007e-02
 -2.2387263e-01
  1.1682816e-01
 -1.0034219e+00
  3.7130404e-02
 -1.1517551e+00
 -9.9770762e-03
  1.3626236e+00
 -1.5714957e+00
  9.0675533e-01
 -8.6505049e-01
 -2.1584842e+00
 -1.5961766e+00
 -4.2328373e-01
  9.9899894e-01
  5.4810697e-01
  8.7418717e-01
 -6.2248051e-01
 -2.8987634e-01
  1.0404482e-02
 -1.6105996e-01
 -8.2183614e-02
 -4.7125208e-01
  7.5629616e-01
  8.8076979e-01
 -2.3855773e-01
  2.5287914e-01
  1.4212682e+00
 -9.5101094e-01
  6.7286384e-01
 -1.0760581e+00
  5.6314802e-01
 -3.2734144e-01
 -1.5256894e+00
 -8.5970807e-01
  3.7458542e-01
 -5.1095963e-01
 -8.4179014e-02
 -1.1402439e+00
  1.6368082e+00
 -1.2697372e+00
  3.3539516e-01
 -6.5976250e-01
  1.6737404e-01
 -3.5796225e-01
  7.6090276e-01
  4.2917192e-02
  1.7002674e+00
 -1.6233106e+00
  1.1523572e+00
 -3.5252455e-01
  7.5469178e-01
 -1.6849221e-01
 -7.7883422e-01
 -1.4663543e+00
  7.2008276e-01
 -1.4189115e+00
  1.1441479e+00
  1.8672125e-01
  2.2742282e-01
  1.2849997e+00
  8.3970773e-01
  7.4836522e-02
 -1.8875772e-01
  1.0491261e-01
 -1.5971150e+00
 -9.2149802e-02
 -3.1122245e-02
  7.8670502e-01
  5.8452022e-01
  1.8224826e-01
  1.5401893e+00
 -3.4301010e-01
  8.8914627e-01
  1.6005361e-01
  1.7038946e-01
 -1.1451060e+00
 -1.0982312e+00
 -8.5813016e-01
  7.9006028e-01
  3.4264782e-01
  3.6301765e-01
  8.5700937e-03
 -2.0357749e-01
  3.5230249e-01
 -8.0417119e-02
  1.0617343e+00
 -1.9335720e-01
 -5.3549969e-01
  1.2574885e+00
  1.2180777e-01
 -3.1439289e-01
 -1.5107483e-01
 -6.4702660e-01
  7.8192249e-02
  4.3589073e-01
  3.2615796e-01
  1.3423234e-01
  5.9923565e-01
 -2.0015430e+00
  2.0686141e-01
 -1.7452496e-01
  4.8960075e-01
  1.8818015e+00
  1.9357796e+00
 -2.1018472e-01
 -3.0992560e+00
 -1.9848257e-01
  1.1317877e+00
  3.4038883e-01
 -2.7536213e-01
  1.9077288e+00
 -1.8466079e+00
  9.7218275e-01
 -1.0820923e+00
 -2.7034152e+00
 -9.2720747e-02
 -2.0583557e-01
  8.8322920e-01
  3.4468822e+00
  1.5950348e+00
  6.7389226e-01
 -2.9605550e-01
  2.8801173e-02
  8.1001437e-01
 -2.7749759e-01
 -1.5660483e-01
  1.4527863e+00
 -2.4840379e-01
 -1.0855685e+00
  1.4271936e-01
 -5.1239151e-01
 -1.6396292e-01
  1.2975356e-01
 -2.7058208e-01
 -1.7227609e+00
  6.2122136e-01
 -2.8863794e-01
  7.2762096e-01
 -7.4219751e-01
 -6.7933267e-01
  1.0713984e+00
  1.6209644e-01
 -4.1449122e-02
 -1.9728504e-02
  9.8092353e-01
 -7.9871044e-02
 -8.9936686e-01
  6.8006271e-01
 -5.5776888e-01
 -1.3890828e+00
 -3.6771216e+00
  1.9237532e-01
 -1.2421811e-01
 -2.4526129e+00
  1.8179549e-02
 -3.0378802e+00
 -5.8350754e-01
  2.2071198e-01
  2.1268696e-02
 -4.2204654e-01
 -2.5845370e-01
 -7.0704162e-01
 -5.3773981e-01
 -2.9456621e-01
 -1.6465799e+00
  1.2382213e+00
 -4.9919301e-01
 -4.4216618e-01
  1.8775580e+00
 -5.0074822e-01
  9.4006509e-01
  2.7090791e-01
 -9.2942342e-02
  2.1604884e+00
 -4.2964783e-01
  1.4692545e+00
  6.1612010e-01
 -2.8416502e-01
 -5.9230113e-01
 -3.4811237e-01
 -1.1863071e-02
  3.3384445e+00
  1.2311077e+00
  3.7744305e-01
 -1.0186374e-02
  3.3174911e-01
  3.9978075e-01
  1.2514642e-01
  6.2726311e-02
 -1.2596153e-01
  1.6314143e-01
  4.3787849e-01
 -1.0145450e-01
 -3.4222630e-01
  2.0656075e+00
  7.3546588e-01
  3.3168399e-01
 -2.4516544e-01
  2.0106518e-01
  1.8757253e+00
 -2.1222599e+00
  9.7863084e-01
  4.8047990e-01
  4.6154580e-01
 -9.3802881e-01
 -4.6345747e-01
 -1.9033267e-01
  6.0630870e-01
  1.2523134e+00
 -1.1736981e+00
  1.4294281e+00
  4.9067199e-01
 -6.6339046e-01
 -1.2890761e+00
  4.7734183e-01
 -3.5041553e-01
 -9.8608285e-01
  1.8941377e+00
  2.3273158e+00
 -2.4916032e-01
  3.0837100e+00
 -2.7387875e-01
 -2.1124232e-01
 -1.0776114e-01
  5.5277973e-01
  8.3568001e-01
  1.9345558e-01
  7.3867184e-01
 -1.6655248e-01
 -6.0561836e-01
  3.2303283e-01
  2.0493140e+00
  9.0214783e-01
  8.7321973e-01
 -2.6601511e-01
 -7.2795606e-01
  4.0025228e-01
  2.1934482e-01
  6.6031814e-01
 -8.1044531e-01
 -5.4828924e-01
  7.7481979e-01
 -6.1250198e-01
 -8.7948002e-02
 -3.3574796e-01
  2.8644887e-01
  9.2787606e-01
  2.5550729e-01
  1.9896064e+00
  1.2174474e-01
 -2.3913124e-01
  2.4391833e-01
 -4.2247653e-01
 -1.7148921e+00
 -8.5798514e-01
 -8.5739005e-01
 -2.7941266e-01
  2.4485765e-01
 -3.4101081e-01
 -1.2444128e+00
 -6.7626816e-01
 -5.2195150e-01
 -2.8075082e+00
 -4.5539290e-01
 -3.2614481e+00
  2.4249063e-01
 -4.4340825e+00
 -6.4246660e-01
 -1.9942057e-01
  1.6441488e-01
  7.1625322e-01
  3.1401640e-01
  4.2628768e-01
  2.3496836e-01
  3.2468230e-02
 -1.0782032e+00
 -2.7257040e+00
 -6.8266869e-01
  5.7732537e-03
  3.2580155e-01
  4.0939343e-01
 -2.0810142e-02
 -3.2308352e+00
 -1.8416730e-01
  1.4921408e+00
 -7.8022134e-01
 -1.2237373e-01
  8.8660377e-01
 -3.8718456e-01
  3.5333443e-01
 -1.5967568e+00
 -3.9344984e-01
 -7.8163552e-01
  4.7659075e-01
  2.1682734e+00
  2.1708573e-01
  1.9729364e-01
  1.1709701e+00
 -5.2900755e-01
 -1.6146474e+00
 -5.4070717e-01
  3.0567363e-02
  7.1196544e-01
 -1.6534815e+00
  6.1054844e-01
  9.7389013e-02
  3.8681231e-02
 -5.9212089e-01
  1.0468738e+00
  2.9734701e-02
  1.2225506e+00
 -2.1187539e+00
  2.1767667e-01
 -2.6259860e-01
 -2.7640614e-01
  1.4319669e+00
  7.6371682e-01
  1.5661639e-01
 -6.9642991e-01
 -5.2136242e-01
  2.3951581e+00
 -6.1296088e-01
  7.8250694e-01
  6.3401008e-01
  1.1788208e+00
 -9.1736776e-01
  1.3865927e+00
 -1.8658754e+00
  2.0762405e+00
 -4.8309270e-02
 -5.9665197e-01
 -8.3135432e-01
  9.5605135e-01
 -1.1087723e+00
 -3.8084784e-01
 -3.3183992e-02
 -2.1965861e+00
  4.4085264e-02
 -1.1600810e+00
  1.1972102e+00
  9.3942687e-02
  1.0849055e-02
 -8.3486313e-01
  1.4040649e+00
  2.0993231e-01
 -8.0352926e-01
  9.1177113e-02
  2.0308650e+00
  1.0117098e+00
  1.0690482e-01
  1.9872488e+00
 -3.2539800e-02
 -1.8650846e+00
 -2.8839054e+00
 -8.1366140e-01
  4.6145183e-01
 -5.8597422e-01
  1.8274692e+00
  2.6097095e+00
 -7.4262935e-01
 -3.9383477e-01
  4.0550961e+00
 -5.9426868e-01
  6.5716279e-01
  6.9218272e-01
  4.7124708e-01
  7.1731091e-01
  6.4075011e-01
 -1.2595925e+00
 -1.3875595e-01
 -5.7224852e-01
  2.2651560e+00
 -1.4152132e+00
 -4.2675918e-01
 -2.1350381e-01
 -3.3745250e-01
  6.0789067e-01
  3.4993844e+00
 -2.7023053e-01
 -1.9427314e+00
 -2.3597417e+00
 -9.6540338e-01
 -2.0621083e+00
  5.0507158e-01
 -7.2680902e-01
 -2.1764182e-02
  1.1726073e+00
  5.2799761e-02
 -8.7803084e-01
  1.5061181e+00
 -6.9596246e-03
  2.7356192e-01
  3.5519986e+00
 -3.8963670e-01
  3.4594533e-01
 -4.9578112e-01
 -7.3373154e-02
  6.4284968e-01
  3.2737270e-01
  1.9810504e+00
  2.0939447e-02
 -1.0802135e+00
 -4.3660092e-01
  1.0362921e-02
  2.6307827e-01
  3.4571213e-01
 -5.6513751e-01
 -8.9982021e-01
 -2.0496191e-01
 -2.9202592e+00
  3.9668220e-01
 -1.1280499e+00
 -1.2306368e+00
 -6.5369889e-02
  1.4329989e-01
  7.0251548e-01
 -3.3287552e-01
  2.4846402e-01
 -2.9597855e-01
 -5.4151344e-01
 -2.9945621e+00
  8.8144541e-03
 -6.8889797e-01
  4.1362679e-01
 -4.6330976e-01
 -4.4034764e-01
 -6.8888992e-01
  1.3443301e+00
 -4.7830942e-01
 -1.0824572e-02
 -5.5004925e-01
 -4.0385234e-01
 -1.1437553e-01
  4.8192757e-01
 -3.2035661e-01
  3.8579661e-01
  1.4887075e+00
 -5.9178656e-01
 -3.5426778e-01
  1.5064003e+00
 -3.0702323e-01
 -1.2319000e+00
  7.4907124e-02
 -1.7567360e-01
 -9.0467697e-01
  4.7703624e-01
  1.0535432e-01
  1.2598003e-01
  1.2393131e-01
  7.2195992e-02
  1.1931081e-01
 -1.7034158e-01
 -8.8338740e-02
 -2.6587898e-01
  7.8081489e-02
  6.4141154e-03
  3.1561330e-01
  1.7211272e-01
 -9.6447760e-01
 -2.4171253e-01
 -6.7410254e-01
  3.2372788e-01
 -4.9599218e-01
 -8.3797681e-01
 -2.3261209e-01
  7.0353162e-01
 -1.3335897e-01
  8.4633428e-01
  3.7685443e-02
 -3.8810629e-01
 -2.3526249e+00
  1.2086197e+00
  1.3896629e+00
 -9.9666238e-01
  3.8855255e-01
  2.1466177e-02
  2.5253013e-01
 -4.7770187e-01
  3.0151945e-01
 -7.2772574e-01
 -9.0155363e-01
 -3.5572270e-01
  9.5398411e-02
  8.4362054e-01
  1.1401048e+00
  7.5656585e-02
  1.6621614e-01
  1.0038896e+00
  2.0640717e+00
 -5.1913607e-01
 -1.3340968e-01
  5.1860344e-02
 -1.1212693e+00
 -1.1746235e+00
 -1.0201955e-01
 -1.2569388e+00
 -4.1307420e-01
  1.4320925e+00
  1.4695251e+00
 -3.0013211e+00
  2.9426926e-01
 -9.4388533e-01
  1.3313663e+00
  7.0306855e-01
 -5.1838535e-01
 -1.1532621e+00
  8.9298213e-01
 -6.9766361e-01
  3.6392343e-01
 -1.5958380e+00
 -5.9768105e-01
 -1.7911600e+00
 -2.6155939e-02
  1.0247413e-01
 -9.6802247e-01
  3.1180330e-02
  5.6443095e-02
  1.1443886e+00
 -8.2465434e-01
 -1.2326040e-01
 -3.1762761e-01
 -7.7626967e-01
  1.7899183e+00
 -6.9989407e-01
 -2.6202676e+00
 -2.0029360e-01
  1.6617686e-01
  2.2930054e-01
  1.2623087e-01
  2.7828664e-01
  2.2227399e-01
 -2.3911950e-01
 -1.3038617e-01
 -3.2011706e-01
  3.8940066e-01
 -9.4765133e-01
 -7.0402908e-01
  3.8711355e+00
  6.6822964e-01
 -2.1731763e+00
 -5.9257287e-01
 -8.4625315e-03
  9.6525323e-01
 -3.1455734e-01
 -1.0030184e-01
  2.9304758e-01
  6.0505974e-01
 -3.1186128e+00
 -2.8936825e+00
  1.0900875e+00
 -8.3721405e-01
 -2.4710155e-01
 -2.5581341e+00
  2.0402334e+00
 -1.9278789e+00
 -9.2962220e-02
  4.7003469e-01
 -1.0653591e+00
 -2.0143977e-01
  6.1203682e-01
 -8.1513339e-01
 -6.9007397e-02
 -9.1806203e-01
 -2.4361198e-01
  5.3535408e-01
  5.1232612e-01
 -8.9707893e-01
  6.0319245e-02
 -8.4669568e-02
 -1.9175570e+00
 -1.6541195e+00
  9.9946636e-01
 -2.5678208e-02
  9.9245709e-01
  1.9795749e-02
 -2.9318187e+00
 -8.3055317e-02
  1.8760034e-01
  5.4160571e-01
  8.1214589e-01
  9.0341830e-01
  7.7028173e-01
 -3.6490077e-01
 -4.2303213e-01
 -3.8095212e-01
  2.5022733e-01
 -4.1984797e-01
 -6.4720988e-02
 -6.5244770e-01
 -2.9582731e-02
  1.5364219e+00
 -3.3990047e+00
  1.3248109e+00
  1.7124369e+00
 -1.2838328e+00
 -1.6454546e+00
  1.2404801e-01
 -4.8673254e-01
 -9.4597983e-01
  1.3034778e+00
 -2.4744946e-01
  4.4710889e-01
 -2.5471439e+00
 -2.6410768e+00
  2.4873704e-01
  3.8207614e+00
 -1.3171309e-01
 -1.3812958e-01
 -1.3455793e-01
 -9.3483961e-01
 -6.8544632e-01
 -2.5256929e-01
  7.8999120e-01
  2.0710499e+00
 -8.0823487e-01
 -2.1720924e+00
  1.1738054e+00
 -2.4064970e+00
 -1.5904887e+00
 -2.2643425e+00
  2.3267820e-02
  6.8525684e-01
  5.4816136e+00
  1.3562996e+00
 -3.1035078e+00
  2.7404437e+00
 -5.6503396e-03
  9.0256953e-01
 -1.0088736e+00
  8.0667013e-01
  2.5735216e+00
  8.2025027e-01
  1.1853275e+00
 -6.5551847e-01
  1.3193961e+00
 -5.7948810e-01
 -2.5377882e-01
  1.2963592e-01
 -2.6705515e-01
  7.8853679e-01
  2.6328483e-01
  4.7323704e-01
 -1.6932690e-01
  7.5067836e-01
  1.4499074e+00
 -1.0420313e-01
 -1.7557454e-01
 -2.6993916e+00
  1.1381528e-01
 -1.8158813e-01
 -1.3571972e+00
 -2.8442654e-01
 -2.1225062e-01
 -2.8706390e-01
 -6.0790963e-02
 -7.8848892e-01
 -4.7419870e-01
  1.2557054e-01
 -8.5149360e-01
 -8.2913429e-01
 -2.2481220e+00
  4.2022753e-01
  6.3957632e-01
  7.4514556e-01
  2.7111679e-01
 -1.0040434e-01
  4.5264921e-01
  3.7677309e-01
 -1.5229046e-01
  1.1429299e+00
 -2.7443412e-01
  2.6821393e-01
  5.1163918e-01
 -1.6858791e+00
 -3.5771814e-01
  5.3774428e-02
 -7.6282847e-01
 -2.1591786e-01
 -7.9908818e-01
 -7.7155703e-01
 -4.5262530e-02
  1.1772174e-01
  1.7721525e-01
 -1.7222153e-01
  7.4723047e-01
 -9.8532486e-01
 -2.3584074e-01
 -1.9249207e-01
  9.1984943e-02
  1.1671130e-01
  5.0644016e-01
  9.7018200e-01
 -2.2926748e-01
  1.1817604e-02
 -1.0523862e+00
 -1.9860001e+00
  1.1119166e-02
 -3.8358948e-01
  4.0208799e-01
 -1.0132587e-01
 -8.7775826e-01
 -1.7568282e+00
  1.4131501e+00
 -1.4663709e+00
 -5.7216597e-01
  7.9321307e-01
 -5.9280902e-01
  1.1356311e+00
 -7.3006636e-01
  8.8612181e-01
 -1.2714527e+00
  1.2049960e+00
 -8.6652547e-02
 -2.7877293e+00
 -1.8695037e-01
  4.1226399e-01
  2.3926170e+00
  8.3584017e-01
  4.3562070e-01
 -9.2208374e-01
  4.0577668e-01
 -3.1572476e-02
 -7.5876635e-01
  1.5875871e+00
 -3.3241491e+00
  3.7759635e+00
  8.1641901e-01
  1.5565419e+00
 -1.6951685e+00
  1.5371975e-02
 -7.9949939e-01
  1.0547410e+00
 -3.2728842e-01
  4.5998201e+00
 -3.1632301e-01
 -2.0082569e+00
  2.9571946e+00
 -2.3480611e+00
  2.1058114e+00
  1.6895626e+00
 -4.5628950e-01
  1.0212775e+00
  1.5373955e+00
 -2.0586390e+00
 -2.9432693e-01
  7.9046822e-01
 -2.4576999e-01
  1.4578713e+00
  1.6614372e-01
  5.2167749e-01
 -9.6149957e-01
  3.8365883e-01
 -1.4746516e+00
 -3.5365784e-01
  8.6619484e-01
 -9.2116779e-01
 -4.7389188e+00
  2.0804684e+00
  5.8301318e-01
 -4.2373306e-01
 -3.3214921e-01
 -2.6988575e-01
  1.4470463e+00
 -2.0196426e-01
  2.4754174e+00
 -1.8230952e-01
 -4.8773897e-01
 -2.9821367e+00
 -1.1640486e+00
 -1.2802283e+00
 -1.4385664e+00
  1.2814218e-01
 -2.5054538e-01
  1.0276982e+00
 -4.3741241e-02
  2.4072045e-01
 -2.9606237e+00
  9.5324814e-01
 -8.0789201e-02
 -7.7155048e-01
  4.9177280e-01
  2.3039439e+00
  1.8542494e+00
 -2.2423007e+00
  4.4217697e-01
 -1.1901530e+00
 -2.1193285e+00
  2.6420420e-01
  1.6408944e+00
  9.0325773e-01
 -3.4249631e-01
 -2.7035016e-01
 -1.1450965e-01
 -5.1851320e-01
 -1.5687678e+00
 -4.4629949e-01
  4.8057741e-01
 -4.1121593e-01
  1.4251665e+00
 -6.3399750e-01
  1.4927040e+00
 -2.4986520e-01
 -2.0479553e+00
 -1.2396909e+00
  5.0435954e-01
  3.3417720e-01
 -1.7348508e+00
  1.6690845e+00
  5.4124159e-01
  2.3586285e-01
 -2.4383828e-01
 -8.6651278e-01
  2.4795499e+00
 -2.1566951e-01
  7.3226136e-01
  1.5156277e-01
  3.4170195e-01
 -3.1622311e-01
  1.1329817e+00
  1.2868170e+00
 -4.0133443e-01
  1.8822902e+00
  1.0932542e+00
  3.2238105e-01
 -3.6209729e-01
 -5.8401811e-01
  4.4960046e-01
 -4.0534586e-01
 -9.4532502e-01
 -1.9573945e+00
  8.0753148e-01
 -2.4974674e-02
  6.0715109e-01
  1.1508240e+00
 -1.5569532e+00
 -6.8937965e-02
 -2.0647424e-01
  1.1695043e+00
 -6.1117756e-01
 -1.5142156e+00
 -8.4168494e-02
  1.2054507e+00
 -5.1498735e-01
  3.4905913e-01
  6.1511099e-01
 -1.2033734e+00
  2.0205905e+00
  7.4498844e-01
  7.4520552e-01
 -3.8597974e-01
  1.2358902e+00
 -1.4395128e-01
  1.2763245e+00
  6.0167456e-01
  1.2001051e+00
 -1.6000122e-04
  6.7030065e-02
  3.8030019e-01
  8.1570148e-02
 -1.3767505e+00
  8.2459593e-01
  2.8142962e+00
  1.0696713e+00
  4.7610039e-01
  4.2791921e-01
 -5.6698397e-03
  2.7227488e-01
 -2.3764192e-01
 -4.1161045e-01
 -2.1156286e-01
 -1.0858818e+00
  2.7872849e-01
  3.9661291e-01
  4.8804436e-02
 -2.0530101e-02
 -8.7455249e-01
 -8.4579349e-02
 -3.1534593e+00
  7.3735750e-01
  2.9935724e-01
  7.5978321e-01
  1.7501121e+00
  1.8031876e+00
  5.0686795e-01
  2.7117482e-01
 -5.0182295e-01
  2.7841121e-01
  2.1070284e-01
  1.1499037e+00
  7.5825834e-01
 -1.6470148e-01
 -1.6695836e+00
  4.4711164e-01
 -1.1960723e+00
  3.7921605e-01
 -1.4692728e-01
  2.5863647e-03
 -1.6511999e+00
 -2.4742475e-01
 -3.0624437e-01
 -1.8229724e-01
 -8.9451069e-01
  6.1034732e-02
 -5.7950920e-01
 -3.1949520e-01
  5.9175217e-01
  4.6057709e-02
  1.5767977e-01
 -4.2909908e-01
  6.7635578e-01
 -1.8406050e+00
 -1.9957228e-01
  4.4757354e-01
 -5.6931382e-01
  9.5657748e-01
  1.2666603e+00
 -1.0659951e+00
  7.1001880e-02
 -1.4748940e+00
  1.3281410e+00
  3.7506273e-01
 -3.2993150e+00
 -1.6621562e+00
 -9.1784501e-01
  1.4770578e-01
  1.6468617e-01
 -2.6371326e+00
  8.4004384e-01
 -5.3034522e-02
 -2.7845749e-01
 -1.5867431e-01
  1.5862976e+00
 -1.1974827e+00
  5.5687702e-01
  3.1598902e-01
 -4.5175192e-01
 -6.1454380e-01
 -1.0063163e+00
  1.8963528e-01
  1.7597379e-01
  1.1790684e+00
 -8.7122560e-02
 -9.6611410e-02
 -4.7307134e-01
  6.1586785e-01
 -5.9118718e-01
 -2.2023165e+00
  3.0647743e-01
 -8.1731349e-01
  4.7611270e-02
  1.1136897e+00
  9.1771317e-01
  1.1213509e+00
 -1.0699257e+00
  6.9876629e-01
 -6.9900811e-01
  8.6879599e-01
 -3.7194270e-01
 -4.9251747e-01
  1.3699563e+00
  3.0397071e-02
 -5.7613927e-01
 -8.0052540e-02
 -9.1678888e-02
  8.9626086e-01
 -3.3378145e-01
  4.5436141e-01
  9.8753393e-02
  1.0204628e+00
 -1.9614226e-01
 -5.3300428e-01
  9.9707946e-02
  2.1204820e-01
 -1.1121593e+00
  1.4354343e+00
  3.0881944e-01
 -2.1895852e+00
 -6.7517638e-01
  3.5267746e-01
  5.3924257e-01
  4.8060827e-02
 -6.6271806e-01
  1.9946902e+00
 -6.8997645e-01
  1.1151248e+00
 -3.2338110e-01
  1.9869035e-01
  1.6717892e+00
  1.7862351e-01
 -1.8820448e-01
 -2.9265803e-01
  1.1423215e+00
 -1.0543303e+00
 -1.5168191e-01
 -5.8003955e-02
  1.2060715e+00
  1.0887269e+00
  2.7542150e-01
 -4.7365585e-01
  6.1491650e-01
  1.7882667e-01
  3.9460823e-02
 -1.3861673e+00
 -5.7861090e-01
  3.6256725e-01
  1.9767641e+00
 -1.0604156e-01
 -3.0683130e-01
  3.2630715e-01
  5.5092990e-02
 -1.8395293e-01
 -1.7858474e-01
  1.5357369e-01
  6.8922326e-02
 -4.1820731e+00
 -1.2194422e+00
  1.4806653e+00
  2.7316308e-01
 -9.8158544e-01
 -9.8209202e-02
 -4.3014604e-01
  1.0395006e+00
 -6.1438441e-01
  2.1905218e-01
 -1.0708582e+00
 -5.6028080e-01
 -2.2040384e+00
  1.9515069e-01
  3.6561713e+00
  1.2495493e+00
  8.2998353e-01
 -1.4242935e-01
 -2.1179154e+00
  6.2570184e-01
 -1.1755769e+00
  9.7656429e-02
  1.4326113e+00
 -1.1261001e-01
  1.9793022e+00
 -1.3569602e-01
  6.5044713e-01
 -2.2072959e-01
  5.0471377e-01
 -5.4355043e-01
 -1.1387813e+00
  1.5527558e+00
  7.4795902e-01
 -3.4447330e-01
  1.6050051e-01
 -7.9043162e-01
  5.7320529e-01
 -1.3334407e+00
  2.7175417e+00
 -2.9791635e-01
  4.6788159e-01
 -1.9512226e-01
  9.6697569e-01
 -8.4296143e-01
 -6.8402231e-01
 -3.4004956e-01
 -1.0204321e+00
  4.0977329e-01
  1.1782809e-01
  4.5402426e-01
 -9.8170757e-01
  1.0822141e-01
 -7.7648586e-01
  4.4507727e-01
  2.6202494e-01
  2.2624378e+00
  6.1054546e-01
  5.2174908e-01
  2.9339957e-01
  1.3148794e+00
 -3.5856801e-01
  5.4102921e-01
  7.9901576e-02
 -2.5040406e-01
 -2.9525745e-01
 -2.9108095e+00
  5.5647981e-01
 -1.0864047e-01
 -3.4149268e+00
  5.0340825e-01
  1.0812393e+00
  1.4342374e-01
 -6.9918513e-01
  5.5767775e-01
 -3.5717508e-01
 -9.1166127e-01
 -2.2338142e-01
  2.2050993e+00
  7.7310070e-02
  1.7727725e-01
  1.2618604e+00
 -1.9131310e-01
 -7.7451760e-01
  6.9661349e-01
 -3.3857033e-02
 -4.7245055e-02
  4.9082398e-01
  1.8481171e-01
 -4.6064055e-01
  1.8500310e-01
  9.4407254e-01
 -1.4955055e+00
  7.8394163e-01
  6.6063768e-01
  4.0573484e-01
  1.8549873e+00
 -6.0055739e-01
  7.4355662e-01
  1.6696152e-01
  2.5254819e-01
 -4.8873794e-01
  8.1578326e-01
  2.0773659e+00
  1.2464809e+00
 -3.1049268e-02
  1.1782423e-03
 -9.1925806e-01
 -3.6281109e-01
  1.8976647e-01
 -6.4171749e-01
 -2.0147337e-01
 -3.1739664e-01
 -1.0717046e+00
 -7.7135146e-02
  2.2282776e-01
 -1.4419131e+00
 -1.3359326e+00
 -7.5621367e-01
 -3.5642454e-01
  4.2128274e-01
  8.4720409e-01
  6.9412619e-02
  1.2694842e+00
 -8.1738639e-01
  2.4931622e+00
  1.2350849e+00
 -6.8298900e-01
  2.6274925e-01
  1.3540936e-01
 -5.5309486e-01
  4.1563886e-01
 -4.3823898e-01
 -5.3919291e-01
  3.9921057e-01
  8.0155623e-01
  5.9000748e-01
 -6.8138689e-01
  1.4485074e+00
  1.3732092e-01
 -9.5226508e-01
  9.2271656e-01
  2.1175517e-01
  1.7195237e-01
  3.1926274e-01
  2.1162066e-01
  1.4834090e+00
 -1.6785767e+00
  2.3352077e+00
  1.6466644e+00
 -8.4971249e-01
 -4.2347464e-01
  2.5011173e-01
 -2.0280734e-01
 -6.9827783e-01
  1.0983792e-01
 -9.4988853e-01
  1.8893315e-01
  2.4348760e+00
  3.4189826e-01
 -1.2996136e+00
  3.3666737e-02
 -8.2684010e-01
 -6.6254514e-01
  5.6592786e-01
  7.2895908e-01
 -2.9607728e-02
 -7.0449039e-02
 -4.3236800e-02
  1.5470532e+00
  4.4371414e-01
 -1.5058619e+00
  1.8419999e-01
  9.6392766e-02
 -9.9691987e-02
  2.5422192e-01
  9.2365032e-01
 -8.0361408e-01
 -1.8763202e-01
  7.4252114e-03
  8.8411981e-01
  9.8516202e-01
 -3.9000362e-02
  1.8677500e-01
  3.7345466e-01
 -7.4587047e-01
  2.7583823e-02
 -1.9252514e+00
 -4.1388491e-01
  1.7764507e-01
  6.2635440e-01
 -7.8814387e-01
  1.3118200e+00
 -3.6770275e-01
  1.0432565e+00
 -2.7450469e-01
  1.5849045e-01
  1.9219533e+00
 -1.0675397e+00
 -2.7363908e+00
  1.3049538e+00
 -2.3417668e+00
  1.4584684e+00
  8.2242316e-01
  4.4840224e-02
  3.7129033e-01
  1.2100324e-02
 -6.8063837e-01
  2.1780311e-01
 -3.0651137e-02
  4.6025583e-01
  6.2900901e-01
 -1.1191474e-01
 -3.3482519e-01
 -3.9428118e-01
  3.5780652e+00
  7.7626139e-01
 -2.6511538e-01
  6.5228790e-01
 -1.3224193e+00
  3.8776803e-01
 -3.6869687e-01
  2.3809927e+00
  9.7198033e-01
 -3.3754799e-01
 -2.9331890e-01
  4.1375777e-01
  1.9995448e-01
  7.6479578e-01
  5.8153236e-01
  2.9064915e-01
 -1.3937910e+00
  8.1888986e-01
  7.3321182e-01
 -1.0552280e+00
 -3.6532471e-01
  1.0912828e-01
 -1.8218193e+00
 -4.6054536e-01
  1.1188338e+00
  9.2593402e-01
 -1.9011241e+00
 -2.2983007e+00
  1.0138508e+00
 -3.0899265e-01
 -1.8366095e+00
 -5.2925718e-01
  1.3693335e+00
  7.5343364e-01
  6.1989367e-01
  8.4836131e-01
  1.3626438e-01
 -5.3895307e-01
  4.5914483e-01
  2.1231708e-01
 -7.4602371e-01
 -1.1236049e+00
 -7.3215187e-02
 -1.1089014e-01
 -4.0246774e-02
 -6.4578396e-01
  3.8854451e+00
 -9.3391515e-02
  6.0742164e-01
 -6.7258579e-01
  1.7342401e+00
  1.7557442e+00
 -3.7806925e-01
  6.4036751e-01
  3.4180060e-01
 -3.0896223e-01
 -3.5344045e+00
 -5.0508037e-02
  2.8962982e+00
 -7.3623008e-01
 -3.3734009e-01
 -3.6986613e-01
 -6.9180357e-01
  3.8178828e-01
 -1.4354749e+00
 -3.9383441e-02
 -1.1640233e+00
 -6.7988789e-01
  3.4693173e-01
  1.4775833e-01
  4.3165475e-01
 -1.7231613e-02
  1.0630603e+00
 -6.8731487e-01
 -7.9324847e-01
  4.6035373e-01
 -1.1960539e+00
 -2.8740403e-01
 -8.5734582e-01
 -5.1565778e-01
  4.7344473e-01
  9.6321172e-01
  8.6688772e-02
 -4.0093678e-01
 -8.5916871e-01
  7.9311913e-01
 -1.3544548e+00
 -9.8095149e-02
  2.8325632e+00
  8.9728355e-01
 -3.0446351e-01
 -1.9914945e+00
 -2.1268035e-01
 -6.4012624e-02
 -1.9584508e-01
 -5.1352322e-01
  7.8926522e-01
  1.4348863e+00
  6.2977505e-01
 -2.8457695e-01
 -3.0447635e-01
  3.5353678e-01
 -2.0507142e-01
  7.8834254e-01
 -2.2282956e+00
 -2.0356311e-01
 -4.2606550e-01
  5.1170945e-02
 -1.6276119e+00
  7.5088251e-01
 -1.6371164e-01
  1.5708690e+00
 -2.1372753e-01
 -8.5543162e-01
 -1.5731103e+00
 -1.0904638e+00
 -1.0723758e+00
  3.8842213e+00
 -3.0500782e-01
 -8.5529220e-01
  3.2896288e-02
 -3.4611636e-01
 -2.7937031e-01
  6.5781903e-01
  1.0819702e+00
 -3.9886364e-01
 -1.6360790e-02
 -7.5330967e-03
  3.1139734e-01
  4.9925566e-01
  2.5718513e-01
 -4.1818023e-02
  4.9981260e-01
 -5.5826139e-01
 -6.5486151e-01
  2.0273502e-01
  1.1235616e+00
  2.1412628e+00
 -8.2786047e-01
  2.8064985e+00
 -1.2654491e-01
 -3.5106474e-01
 -8.2863903e-01
  1.0325985e+00
 -2.6215076e-01
 -3.9542091e-01
 -2.3888525e-01
  4.9535698e-01
 -6.4058548e-01
 -3.2768304e+00
 -2.0620370e+00
  2.3201531e-01
  7.8051132e-01
 -1.2134399e-02
 -4.5664454e-01
 -3.2802460e+00
  1.0217319e+00
  1.1081488e+00
 -2.7495989e-01
 -8.6442953e-01
 -3.2617538e+00
 -2.9322023e-02
 -2.4029036e-01
 -3.7868819e-01
 -7.8541771e-02
 -1.6215411e-01
  4.7312707e-01
  1.7214805e-01
 -5.7051748e-01
  4.0880486e-01
  3.0871668e+00
 -1.6941589e+00
  9.0823990e-01
  3.7061134e-01
 -7.1588171e-01
 -3.1962074e-02
  5.8283252e-01
  4.2785656e-01
  1.0623735e+00
  7.3734403e-01
 -8.3761501e-01
  6.9810823e-02
  6.6339403e-01
  1.2670509e+00
  3.5395092e-01
 -1.3020563e+00
  3.0822223e-01
  7.0870280e-01
 -2.0733254e-01
  2.7047102e+00
 -3.7383802e-02
 -9.7749871e-01
 -2.6803312e-01
  6.3461892e-02
 -6.2047720e-01
 -7.7701658e-02
  2.4174776e+00
  7.1628165e-01
 -4.8769185e-01
  8.7737155e-01
  1.1038028e+00
 -2.2875325e-01
  8.3642417e-01
 -8.6996603e-01
 -5.4360867e-01
 -4.3126918e-02
  3.1292369e+00
  5.7074213e-01
  6.0200846e-01
  3.1451789e-01
 -2.4231439e+00
 -2.0589057e-02
  4.0440297e-01
 -1.0998319e+00
 -4.2538519e+00
  2.5718658e+00
 -4.3654941e-02
  6.6542363e-01
  1.1431376e+00
 -4.7332704e-01
  5.1024348e-01
 -1.2526217e+00
 -7.1707711e-02
  1.6739720e-01
 -2.1314426e-01
 -1.0948718e+00
 -1.0878425e+00
 -1.1390262e+00
  1.9040009e+00
 -4.3823838e-02
  1.3491774e-02
  3.4426507e-01
  1.7041661e-01
  9.9308652e-01
  1.7841774e-01
  2.2278635e-01
 -7.7772677e-02
 -6.8005133e-01
 -2.4052440e-01
 -8.4655479e-02
  9.8884046e-01
 -3.1737661e-01
 -1.0242052e+00
 -1.2732562e-01
  3.4438640e-01
  1.7709067e-01
  1.4401947e-01
 -4.6278057e-01
  5.0191903e-01
  1.9634952e-01
 -1.1460142e+00
  4.6914974e-01
  1.5699185e-01
 -1.0423903e+00
  1.9569561e-01
 -6.1214072e-01
  5.3647834e-01
  1.5087733e+00
  1.3717668e-01
  2.4703749e-01
 -2.7808934e-02
 -4.7786900e-01
  1.3040543e-02
 -1.6511440e+00
  9.2665523e-01
 -1.6296467e-01
  2.9630986e-01
 -3.4854090e-01
  5.2759987e-01
  2.5393388e-01
  5.8632553e-01
 -1.9428195e-01
  2.3456828e-01
 -1.9013514e-01
 -1.0402422e-01
  5.5599105e-01
  1.4513698e+00
 -8.9798905e-02
  9.4172787e-03
  3.6552322e-01
  2.4947609e-01
  6.5391874e-01
  1.7731775e+00
  4.2810166e-01
  1.4297717e+00
  2.2954593e+00
 -3.8132675e+00
  1.3096898e+00
 -3.5816371e-02
 -4.6974608e-01
  1.8351992e+00
  1.4496207e+00
 -4.8795027e-01
 -1.6490599e+00
 -3.8300669e+00
 -3.2618790e+00
  7.6849872e-01
  8.6063015e-01
 -1.7834012e-01
  9.5608222e-01
 -2.0496540e+00
  1.1097882e+00
  8.4673554e-01
  9.6726060e-01
  4.5563668e-02
 -1.8631848e+00
 -1.7272300e+00
 -4.1041028e-01
  7.5590676e-01
 -9.3499029e-01
  2.7757907e+00
  1.2042028e+00
 -3.3221452e+00
 -1.3534071e+00
  4.8168445e-01
 -2.0068049e+00
 -1.7632104e+00
  1.0684745e-01
 -1.3317780e+00
  1.1634879e+00
 -9.7978240e-01
 -1.3385390e+00
 -1.9092932e+00
  4.9546346e-02
  1.2919981e+00
  3.0964062e-01
 -2.9623585e+00
 -2.0595164e+00
  8.3844769e-01
 -7.6974535e-01
 -8.9845741e-01
 -3.4732192e+00
 -1.2919058e-01
 -2.7782030e+00
 -3.9197066e+00
  1.5274047e+00
  1.3567237e+00
  1.6012324e+00
  1.9667493e+00
  4.9684429e-01
  2.2999176e-01
  5.3475404e-01
 -4.5041032e-02
  4.7579184e-01
 -1.3968366e+00
 -5.6781703e-01
  2.1778724e-01
  2.7352849e-01
 -3.5205516e-01
 -3.4291077e-01
  6.8189293e-02
 -1.3263065e+00
  1.1507303e-01
  1.0172479e+00
  2.3377125e+00
  1.0192082e+00
  2.3489402e-01
  3.1770211e-01
  1.8185213e+00
  4.5954379e-01
  2.0566300e-01
  2.8460777e-01
  5.2987903e-01
 -2.8814533e-01
  9.0520708e-03
  4.4727780e-02
 -2.3331196e+00
 -4.7194657e+00
 -9.5920295e-01
 -2.7852154e-01
 -3.7995357e-02
 -6.1985946e-01
 -5.9514964e-01
  4.3362057e-01
  2.2771199e-01
  2.0068675e-02
 -8.5735232e-01
  6.0974538e-01
  1.9515634e-01
 -1.6957739e-01
 -3.2921210e-01
 -4.8624560e-01
 -1.3589905e-01
  4.2885166e-01
 -2.8036034e+00
 -2.4967174e-01
  4.5174703e-01
  1.0364271e+00
  1.9723670e-01
 -2.7566433e-01
  1.5619531e-01
  3.9167929e-01
 -1.1261491e-01
 -3.0557749e+00
 -1.7719458e+00
  1.1375319e-01
  3.0124156e+00
  2.4025457e-01
  2.5741010e+00
 -2.6453543e-01
 -2.0517914e-01
  4.0494409e-01
 -7.5043958e-01
  5.8806174e-02
 -1.3071923e-01
 -9.3562669e-01
 -1.4198247e+00
  4.5883942e-01
  1.4450474e-01
  9.3658513e-01
 -5.9081644e-01
 -3.0838645e-01
 -1.1635000e+00
 -7.9167980e-01
  1.6353250e-02
  5.0360483e-01
  8.8997698e-01
  4.3170863e-01
  1.0686034e+00
 -9.7637224e-01
  6.1437106e-01
 -5.1219988e-01
  2.5908383e-02
 -3.5397357e-01
  7.1128583e-01
  3.6929326e+00
  6.1941825e-02
 -9.9468243e-01
  1.5068857e-01
 -1.4650204e+00
  9.8628914e-01
  8.1284630e-01
  5.8521879e-01
  7.1944177e-02
  2.2139320e-01
  1.4860308e+00
 -8.6737025e-01
 -4.7925046e-01
 -4.5553723e-01
 -2.4945563e-01
 -5.5026817e-01
  4.4094849e-01
 -6.9350404e-01
  2.4254033e-02
 -1.2091309e+00
 -3.6167431e-01
 -3.7012240e-01
  1.7177942e+00
 -2.2711234e+00
 -7.7600047e-02
 -4.6666782e-02
  7.8838104e-01
 -7.9965198e-01
 -6.0724562e-01
 -1.4814028e-01
 -3.4799421e-01
  1.4853196e+00
 -3.2203823e-01
  4.6174136e-01
  3.3296111e-01
 -2.1807642e+00
  1.6508573e+00
 -5.5300996e-02
  1.3926680e-01
  2.5860636e+00
 -2.5553280e-01
 -2.5951022e-01
 -1.8670416e-02
 -9.2463732e-02
 -1.1808779e+00
 -7.8031355e-01
  5.6828493e-01
  2.5221321e-01
 -2.1353076e+00
  1.0899910e+00
 -4.7893953e-01
 -1.5684596e+00
 -3.3281416e-01
  1.7268901e+00
  1.3130307e-01
 -1.0172995e+00
  8.5410112e-01
  1.9150107e-01
  2.3723131e-01
 -1.0409623e+00
  4.0091615e-02
  1.8833941e-02
 -3.1472303e-02
  2.9700215e+00
  3.6875634e+00
  3.7541354e-01
  2.2495782e-01
  7.9972994e-01
 -9.4291294e-01
 -5.1304060e-01
 -2.7243561e-01
  1.1654326e-01
 -7.1859914e-01
  5.0508344e-01
 -1.6276360e-02
  8.9652395e-01
  3.3857003e-01
  1.4628391e+00
 -1.4793607e+00
 -1.5325561e-01
  1.5183821e+00
  6.8446034e-01
  4.2641234e-02
 -6.1526871e-01
 -2.0770665e-01
 -1.6187944e+00
  1.4763536e-01
  1.3589342e+00
  8.8835359e-01
  4.0691873e-01
  2.5468853e+00
  1.0281409e-01
 -1.1344089e-01
  5.6968987e-01
  1.8199366e-03
  6.4168733e-01
  2.8731580e+00
  1.4068426e+00
  3.1128979e-01
 -9.6026182e-02
  2.5834358e-01
 -8.5576278e-01
  1.2167742e-01
 -1.8409045e-01
  2.0366254e-01
 -3.3366686e-01
 -1.5406716e-01
  2.5442946e-01
 -6.4232804e-02
  7.2946590e-01
 -2.1823582e-01
  1.2189633e-01
 -9.5165290e-02
  2.4800040e-01
 -1.2919368e-01
 -1.2829681e-01
 -3.3481997e-01
  6.0193282e-01
  1.3472025e+00
  1.0358934e+00
  3.4153247e-01
 -4.4208914e-01
  1.2359670e+00
 -4.4759661e-01
 -8.6533844e-02
  3.0808985e-01
 -5.4555398e-01
 -3.8619846e-01
  5.4834056e-01
 -2.3371717e-01
 -1.8139545e-02
 -6.2239146e-01
 -9.0298712e-02
 -1.2110703e-01
  4.2667282e-01
  4.1107443e-01
  3.8058597e-01
  2.5877035e-01
 -9.8940128e-01
  2.6875210e-01
 -3.6104390e-01
  5.6629378e-02
 -7.5755280e-01
 -4.3253809e-02
 -6.5643656e-01
  5.1915771e-01
 -6.2020831e+00
 -6.6227865e-01
  4.2265683e-02
 -5.0144339e-01
  6.5460330e-01
 -2.2341473e-02
  1.3533075e-01
 -4.6098232e-04
 -8.1045723e-01
  8.0644362e-02
  1.1077460e+00
  1.0459949e+00
 -2.6923841e-01
  1.4073142e-01
  5.1926184e-01
 -4.5065832e-01
  3.8743013e-01
  3.1019145e-01
  6.9764316e-01
  1.6831670e+00
 -7.9861891e-01
 -3.3993208e-01
 -7.8137696e-02
  7.9655200e-01
 -2.9029983e-01
  2.3932420e-02
  6.9327003e-01
 -3.5288733e-01
 -1.5816115e+00
 -3.1895351e-01
  3.6901215e-01
  4.7450265e-01
  2.2581264e-01
  1.4784449e+00
 -4.6386858e-03
 -5.2498126e-01
 -4.0642479e-01
 -1.3271363e+00
  5.1967107e-02
  2.5368106e-01
  8.7219849e-04
  1.5790833e+00
  1.5315591e-01
  1.6783606e+00
 -7.4478877e-01
 -3.2324940e-01
  7.2909755e-01
  6.9680327e-01
  3.4407592e-01
 -1.9853903e-01
 -1.5436524e-01
  4.4414654e-02
  8.1726968e-02
 -1.7284266e+00
  1.1120312e+00
 -3.7737194e-01
  6.1728108e-01
 -7.9905438e-01
 -1.4514636e+00
 -4.7981045e-01
  2.4148972e-01
 -7.6726758e-01
 -2.3404601e-01
  3.0887300e-01
 -6.2701631e-01
  5.0267544e-02
  6.6300422e-02
 -3.3099365e-01
 -2.9291010e-01
 -2.8374479e+00
 -1.6594951e+00
 -9.5463163e-01
 -4.4821751e-01
  1.7797015e+00
 -8.7353826e-01
 -4.9689847e-01
 -1.0855498e+00
 -3.3143985e-01
 -6.6739422e-01
 -1.3820976e+00
  9.3755513e-02
  2.4496265e-01
  4.5612299e-01
 -3.7258396e-01
  2.1416713e-01
 -4.0596213e+00
  3.2496953e-01
 -6.5107428e-02
  2.3548760e+00
 -1.9552554e+00
 -1.3079381e-01
  9.2292202e-01
 -5.0048608e-01
 -1.7355134e+00
  4.1796291e-01
 -4.7945803e-01
  4.6125257e-01
 -1.4544499e+00
 -1.2756052e+00
  2.6861054e-01
 -8.9980459e-01
  1.4800189e+00
  2.0607526e+00
 -9.8113966e-01
 -7.6691091e-01
  8.7837017e-01
  5.5472159e-01
 -7.0345426e-01
  2.3299831e-01
 -5.6545436e-03
 -1.4592791e+00
  2.4241604e-01
 -3.8949627e-01
 -1.2527694e-01
 -1.8405937e+00
  6.1512768e-01
  1.8276438e-01
 -3.9640322e-01
  7.1590883e-01
  6.3265765e-01
 -5.5846637e-01
 -5.6349969e-01
 -5.6192890e-02
 -1.0344721e-01
 -1.5008184e-01
 -3.8199532e-01
  1.6477915e+00
  4.5183307e-01
  3.9277360e-01
 -1.0509943e+00
 -3.0082569e-01
  4.1797566e-01
  3.0546120e-01
  1.7627054e+00
 -4.6721265e-01
  1.2524643e+00
 -6.5367192e-01
  6.8521214e-01
  7.5619519e-02
  4.0590653e-01
  8.7888673e-02
  5.2054912e-01
  4.8978975e-01
  1.1198305e+00
 -1.9725461e+00
 -6.2445275e-02
  1.6012633e+00
  1.2368573e+00
 -7.7806681e-02
 -2.8885931e-01
 -4.1640317e-01
  4.7354579e-01
 -1.9591101e-01
  1.0296815e-01
  5.5138171e-01
  4.7735965e-01
  5.1454926e-01
  1.3693352e+00
 -1.1031303e+00
  4.9683782e-01
  1.9962136e-01
  1.1394091e+00
 -2.9243025e-01
  5.2365512e-01
  8.2364392e-01
  8.5048717e-01
 -1.3557355e-01
  8.9612293e-01
  1.0164457e-01
 -6.2115066e-02
 -1.2149096e-02
  1.4116660e+00
  9.5260864e-01
  6.2577054e-02
  2.2465829e-02
  4.4282921e-02
  1.7269714e+00
 -7.3214304e-01
  6.9946617e-02
 -5.7739049e-01
  4.1640535e-02
  4.1230264e-01
  3.8961625e-01
  9.8463798e-01
  4.5644361e-01
  2.8502288e-01
 -3.1503057e-01
  6.7346048e-01
 -7.7680254e-01
 -7.6360756e-01
  9.1122943e-01
 -4.2309585e+00
 -1.1987177e+00
  1.2520365e+00
 -9.5111233e-01
  1.0672429e+00
 -1.0682545e+00
  1.5865368e+00
  1.1138164e+00
 -6.1351222e-01
 -2.3752162e-01
 -1.9999186e+00
  1.8633902e-01
  4.3352744e-01
  5.8643883e-01
  7.2677493e-01
  1.1374248e+00
  1.0622176e+00
  3.1141696e+00
  8.1250057e-02
 -1.2391962e-01
  5.6265807e-01
 -1.3440008e-01
  2.2539260e+00
  1.4224413e-01
  1.3445376e+00
 -4.8287399e-02
  6.4291400e-01
 -1.2483944e+00
  1.0060019e+00
  2.0337227e-01
  1.0788733e-01
  9.4679439e-01
  7.8993782e-02
  7.4771535e-01
 -5.3112864e-01
 -1.4348364e+00
  7.3788667e-01
  2.0384595e+00
 -1.8708992e-01
  1.8740952e+00
 -2.8107352e+00
 -5.1779842e-01
 -3.7516576e-01
  3.1479546e-01
  5.6108344e-01
  8.8920605e-01
  1.1061748e+00
 -2.9529375e-01
  2.1836560e-02
  1.4466646e+00
  1.3670570e-01
 -3.0967069e-01
 -4.3968713e-01
 -8.8257343e-01
  5.1330400e-01
 -1.3189673e+00
  2.0800278e-01
  3.9146833e-02
 -1.0375008e-01
  3.1619303e+00
 -6.7495203e-01
 -1.8990764e-02
 -8.2783723e-01
 -6.8485647e-02
 -4.0187240e-01
  9.5731866e-01
 -3.0028722e-01
 -6.4100176e-02
 -3.6476845e-01
 -1.3978379e+00
 -4.2202926e-01
 -2.3206890e+00
  2.9646730e-01
  1.8147362e+00
 -2.2511690e+00
  2.4546446e-02
  7.3244011e-01
 -1.1938325e-01
  6.4570165e-01
 -1.5288174e-01
  3.5787263e+00
 -2.2048293e-01
 -5.4860061e-01
  4.4571680e-01
 -4.8834491e-01
  8.0737984e-01
  7.1033382e-01
 -5.0270027e-01
  1.8891256e-01
 -7.9379189e-01
 -6.7725521e-01
  2.4504475e-01
 -9.1116339e-02
 -6.5901071e-02
 -5.0842035e-01
 -2.1676743e+00
  5.4961675e-01
 -3.7264442e-01
  8.1826490e-01
 -1.0357176e+00
  4.3343291e-01
 -6.8601444e-02
 -9.3777490e-01
  9.0895124e-02
 -1.5384473e+00
  1.1325426e+00
 -2.7277780e-01
 -3.0794710e-01
 -9.6696788e-01
  1.6149418e+00
 -1.1696557e+00
 -1.0553358e+00
  2.1820544e-01
 -5.7038105e-01
  1.2254026e+00
  1.9127829e-01
 -4.4814891e-01
 -1.0824749e+00
  1.1249155e+00
 -1.7184280e+00
 -1.2944958e-01
  3.4313066e+00
 -6.4376932e-01
 -1.8210410e+00
  2.6810604e-01
  2.4899218e+00
 -2.3620167e-01
 -3.5363212e-03
  3.0090958e-01
 -9.1360867e-01
  2.1414394e+00
 -7.4668461e-01
  6.0863441e-01
 -2.4423377e-01
  9.8948538e-01
 -2.3442049e-01
  6.6388041e-01
  1.0074090e+00
  1.8071532e-02
  6.4106154e-01
 -3.6586615e-01
  2.7291328e-02
 -1.6967149e-01
 -7.4626911e-01
 -4.3588501e-01
  1.6418339e-01
  1.8237863e+00
  2.3565608e-01
  2.6130557e-01
 -6.4197141e-01
  3.4047437e-01
 -7.6155737e-02
  3.1591415e-01
 -3.0898430e+00
  4.0133294e-01
  2.5605798e-01
  6.9808358e-01
 -9.3361747e-01
  4.3198544e-01
  4.0587173e+00
 -1.6191885e-01
 -2.8659067e-01
  4.1954082e-01
 -1.2085087e+00
  3.0845091e-01
  8.6091554e-01
 -8.2868946e-01
  1.6220656e-01
 -5.6123519e-01
  5.8725482e-01
  9.9651223e-01
  4.2414206e-01
  4.2549741e-01
 -1.0051341e+00
  2.8768694e-01
 -3.6566603e-01
  1.4278802e+00
 -1.0345603e+00
 -6.8558764e-01
 -3.7586188e+00
 -9.1032237e-01
  2.5416929e-01
  2.2656010e-01
 -3.7858650e-01
  7.2508949e-01
 -9.2194704e-03
 -3.4534651e-01
 -1.2234665e+00
  2.9275712e-01
  4.4865650e-01
 -4.2517641e-01
 -4.1875193e-01
 -3.1618643e-01
 -1.8728894e-01
  5.6401235e-01
  2.0604827e-01
  6.3880944e-01
  2.1793242e-01
 -6.7695230e-01
  2.2647592e-01
  5.2641153e-01
 -2.6396137e-01
 -4.7266150e-01
 -7.0428443e-01
 -2.4828224e-01
 -6.3842577e-01
 -1.7662660e+00
  1.7219526e-01
  5.1230609e-01
 -7.9014413e-02
  7.9843491e-02
 -3.9541078e-01
 -7.2134525e-02
 -6.7735240e-02
  5.8537149e-01
  9.5754236e-01
 -7.7713984e-01
  6.2465203e-01
 -2.2938460e-01
 -8.4111512e-01
 -8.7516367e-01
  7.5831020e-01
  1.1843361e-02
 -1.3442430e-01
 -1.2122900e-01
  9.4681728e-01
 -4.3869030e-01
  8.6747640e-01
  1.1583652e-01
 -1.6684172e+00
 -1.4645139e+00
  1.0874150e+00
  7.9702139e-01
  7.0513684e-01
 -7.9560256e-01
  3.9452806e-01
 -1.0923691e+00
  2.3463557e+00
  6.8858004e-01
  6.6447163e-01
 -2.9165301e-01
 -8.8896936e-01
 -4.0278167e-01
 -1.4098785e+00
 -5.5922985e-01
 -4.5187572e-01
 -1.1520753e+00
 -5.1930243e-01
  1.9663712e-01
  1.6436586e-01
 -3.5360689e+00
  9.2168993e-01
  5.5573225e-01
  1.7047653e-01
 -1.1389042e+00
 -7.1643269e-01
 -9.4425881e-01
 -3.5318154e-01
  4.5775312e-01
  4.2959118e-01
 -2.1683425e-01
 -1.1171649e+00
 -8.4555918e-01
 -4.6809539e-01
  4.4363278e-01
  5.6461251e-01
 -3.5458347e-01
  1.6453008e-01
  2.1815002e+00
  1.7711774e-02
 -1.6471252e-01
 -7.5513113e-01
  1.2384869e+00
 -4.6089643e-01
 -4.5374930e-01
 -5.7889652e-01
 -5.0023115e-01
  1.0951748e-01
  3.8812616e-01
 -6.1455512e-01
 -5.1387507e-01
  3.1211931e-01
 -5.0403005e-01
 -1.1658737e-01
 -8.7168419e-01
  8.3228581e-02
 -5.0541830e-01
 -6.5212637e-02
  1.2518178e+00
 -1.0873806e+00
 -1.3273122e+00
  4.6286568e-02
 -2.3438638e-01
 -9.9671984e-01
  7.9785758e-01
 -9.1419274e-01
  2.1939294e-01
 -8.7192303e-01
  1.7716025e-01
  7.8237301e-01
  1.3082440e+00
 -1.5370622e+00
 -3.8049001e-02
 -6.8017498e-02
 -2.5499535e-01
 -1.6935143e+00
 -5.2113563e-01
 -2.2923748e+00
 -2.2857773e+00
  3.6621398e-01
  3.5496300e-01
  1.5656944e-01
  1.9799535e+00
 -2.5579649e-01
  3.4177172e-01
  6.0238463e-01
  1.5497537e+00
 -3.0217069e-01
 -3.6332235e-01
 -1.4268881e-01
  1.3152931e+00
  5.5978686e-01
  6.8167947e-02
 -1.3329640e-01
 -6.7529625e-01
 -1.5808032e-01
 -2.6926473e-01
  1.4985709e+00
  1.2717450e+00
 -7.0438939e-01
  1.0108061e-01
  2.0024897e-01
 -9.9987149e-02
  4.7204167e-01
 -4.5202270e-02
 -1.4101343e+00
  8.1262422e-01
 -1.4642460e+00
 -1.2276086e+00
 -2.3291266e-01
 -8.6004478e-01
  4.9142277e-01
 -8.7906861e-01
 -2.7713847e-01
 -1.5105771e-01
 -2.7641088e-01
  3.8722157e-02
  3.1273493e-01
 -2.0000818e-01
 -3.5098080e-02
 -1.0870467e+00
 -6.0528070e-02
  2.0058019e-01
 -1.1183772e-01
 -2.1103887e-01
  1.1006610e+00
 -5.4343438e-01
 -1.2507873e+00
  1.0891263e+00
  1.0158856e+00
  2.4998955e-01
  2.8983635e-01
 -4.2609504e-01
  2.7705303e-01
  1.2499580e-01
  2.7463901e-01
  4.3497515e-01
  6.6723183e-02
  7.0058358e-01
  2.5503489e-01
 -7.1952218e-01
 -1.2292178e+00
  8.2150763e-01
 -9.2281651e-01
  4.0409613e-01
  1.1716381e-02
 -2.3668699e-01
 -2.0327674e-02
  1.8522208e+00
 -5.4279256e-01
 -1.7067462e-01
  7.8918183e-01
 -1.9465816e+00
 -3.2618806e-02
  9.9246526e-01
 -4.4332501e-01
 -1.1481665e+00
 -8.8355206e-02
 -6.6361472e-02
  2.4178767e-01
 -1.5702801e+00
 -9.9810237e-01
 -3.4455910e+00
  1.3887751e+00
 -3.0119088e-01
  1.4888067e+00
  6.1054325e-01
  8.9935172e-01
  5.1094306e-01
 -1.1828158e-02
 -3.7866691e-01
 -1.0813099e+00
  5.0942314e-01
 -6.8549418e-01
 -6.3083667e-01
 -1.3650517e+00
 -1.6939309e+00
  2.5368387e-01
 -1.7670730e+00
 -8.6993352e-03
 -7.2634268e-01
  6.5614372e-02
 -2.7782056e-01
 -5.7206476e-01
 -2.5822315e-01
 -1.2221974e+00
 -1.0772262e+00
  2.5238305e-01
  3.7380582e-01
  1.0704055e+00
  4.3045899e-01
  2.1288019e-01
  1.1385727e+00
  4.4818604e-01
 -3.6535868e-01
 -1.7849131e+00
 -3.2855821e-01
  4.2607149e-01
  1.3815294e-01
 -5.1269647e-02
 -7.8746766e-01
 -7.8446597e-01
  2.9503221e-02
  8.5980348e-02
  5.4156035e-01
  1.6848952e+00
  2.0541312e-02
 -8.7735772e-01
 -1.7160649e+00
 -1.0299214e+00
  5.7765400e-01
 -3.5505080e-01
 -1.1719273e+00
 -1.4421165e-01
  1.7045516e+00
  6.4196575e-01
 -9.9028134e-01
  5.4104173e-01
 -6.9211543e-01
 -9.6667057e-01
  1.8330522e-01
 -1.7718698e-01
  1.4994825e-01
 -1.0496130e-01
  9.5728002e-02
 -7.9768491e-01
  1.6297774e+00
 -2.0289590e+00
  1.6705592e+00
 -2.3194477e-02
  5.2360284e-01
  1.1054871e+00
 -7.1546936e-01
 -1.1915412e+00
 -1.1142242e+00
  3.3998743e-02
  1.9064751e+00
 -7.7093554e-01
 -7.1119738e-01
  3.5139909e-03
 -2.5117466e-01
  3.6629167e-01
 -5.2405059e-01
 -7.2438878e-01
  1.1055546e-01
  5.8463794e-01
  6.6425884e-01
 -2.6488033e-01
  4.8569975e+00
 -1.0242796e-01
  1.1783142e-01
 -5.0456172e-01
 -2.0153487e-01
 -5.3809130e-01
 -5.4528348e-02
 -2.7276307e-01
  2.1353646e-01
  7.2346616e-01
 -1.4450724e-01
 -1.0252910e+00
  7.4042761e-01
  9.4259822e-01
  8.1342274e-01
 -4.9162807e+00
  1.2343971e+00
  6.9096744e-01
  1.7837408e-01
 -1.0776683e+00
  1.6183957e+00
  3.7882519e-01
 -2.2976810e-01
  6.4982998e-01
  5.0134033e-01
  8.8451087e-01
 -3.1947386e-01
 -1.8090829e-01
 -4.3989202e-01
 -2.2114596e+00
 -5.4187822e-01
 -3.1224497e-02
  2.5062871e-01
  1.5635058e-01
 -3.7345394e-01
  4.8532340e-01
  1.0850510e-02
  5.9807962e-01
  1.7771063e+00
  1.1637715e-01
 -9.3796393e-03
 -6.1494455e-02
  9.2857885e-01
  4.4800749e-01
  5.0487745e-01
 -1.9077733e+00
 -5.9476841e-02
  2.1627691e-01
 -4.1945356e-01
 -4.9318925e-01
  4.2832386e-01
  7.5935530e-03
  3.1427903e+00
  7.1182680e-01
 -1.1534870e+00
  7.6381248e-01
  8.2383478e-01
 -4.4658187e-01
  9.0647846e-02
 -3.6174884e-01
  7.3013610e-01
 -1.1389977e-01
 -6.3708317e-01
  1.8172887e-01
 -3.9844930e-01
  1.1066939e+00
  7.0709538e-01
  6.8456537e-01
  3.7467805e-01
 -6.0050380e-01
  6.2380131e-02
 -8.9478731e-01
  1.4134407e+00
 -1.7084029e+00
  5.2080238e-01
  3.5303563e-01
  1.9612509e-01
 -2.8662321e-01
  5.2955878e-01
 -6.1806045e-02
  2.7870730e-02
  1.3582757e+00
 -2.3239350e+00
  2.3827069e+00
 -9.7162032e-01
 -9.8986588e-02
  3.0260258e+00
  8.2175410e-01
 -1.5302879e+00
 -2.0922041e-01
  9.7138572e-01
  3.4175470e-01
  1.6920435e-01
  1.2881743e+00
  1.4027038e-01
 -5.1586068e-01
  2.4961102e+00
 -5.0215796e-03
  2.3065171e-01
  1.9748671e+00
  1.0407110e+00
  1.1057487e+00
  1.0973775e+00
  2.5947096e+00
  3.5350204e-01
  1.8133152e-01
 -5.0472021e-01
  3.1108502e-01
  7.6842815e-02
 -1.1794848e+00
  6.6937286e-01
  1.3809830e+00
  3.5923001e-01
  7.5280809e-01
  1.2897388e+00
  9.4287556e-01
  3.9291298e-01
 -2.5127792e-01
  3.9218569e-01
  1.2003264e+00
 -2.3141670e-01
  8.7494946e-01
  5.5135226e-01
 -2.4558932e-01
  2.1760799e-01
  7.0312262e-01
  5.9483486e-01
 -4.2328000e-01
  2.1597636e-01
  5.9290510e-01
 -2.7385070e+00
 -3.9932714e+00
  8.4340644e-01
  9.5820792e-02
 -2.8175533e-01
  1.0518636e+00
 -2.3366621e+00
  3.0998841e-01
 -2.4441725e-01
 -9.0932608e-02
 -1.2577986e+00
 -1.1335887e-01
  1.4852126e+00
 -5.3887624e-01
 -4.3678683e-01
 -1.1272295e-01
 -9.8227322e-02
  3.3103256e+00
 -1.8922272e+00
  1.7403954e+00
 -1.0930108e+00
  7.7671684e-02
  3.2767274e+00
 -6.6152978e-01
 -8.9400172e-01
  4.8194653e-01
  1.1192346e+00
 -4.0347239e-01
 -1.5923357e-01
 -2.4333045e-01
  3.9295986e-01
 -8.5120332e-01
  9.4995898e-01
 -3.3662441e-01
 -3.7355752e+00
  5.7857132e-01
  1.4732118e-01
 -9.5280719e-01
  1.9786056e+00
 -5.6107485e-01
  3.4472373e-01
 -2.0082452e+00
 -7.8917795e-01
 -4.1695935e-01
  3.2722473e-02
  7.5629234e-02
 -2.4474043e-01
  6.8848836e-01
 -1.8990912e+00
  8.3771989e-02
  1.7522686e+00
  1.6172451e-01
  2.0862560e+00
  4.1380852e-01
  2.6790013e+00
  5.7442486e-01
 -2.5203490e-01
 -2.5115981e+00
  1.5362325e+00
 -2.3896410e+00
  2.2114018e-01
 -5.1509351e-01
  1.8348476e-01
 -2.5258322e+00
  2.1356478e-02
 -4.0081012e-01
 -7.7260715e-01
 -9.7017390e-01
 -1.3449273e-01
 -6.6434264e-01
  2.3014988e-01
  8.8035449e-02
  3.1239815e+00
 -8.7202215e-01
  1.0137850e+00
 -1.4744954e-02
 -1.2920995e-01
  6.0864675e-01
  1.9925743e-01
 -1.4232383e+00
 -1.1881824e+00
  1.0181306e-01
  5.2233040e-02
  2.6624334e-01
  1.1091825e-01
 -9.3601960e-01
 -7.8728068e-01
 -1.6934488e+00
  6.4713526e-01
  1.2881191e+00
  1.4249849e+00
  9.6620277e-02
 -5.3399098e-01
  3.7752956e-01
 -6.5381400e-02
  1.3440983e+00
 -2.5987351e-01
  6.1166972e-01
 -1.3660052e-01
  2.9550529e-01
  9.3073589e-01
  2.9453808e-01
  6.1232816e-02
  6.6840214e-01
  1.8955812e+00
  4.0751922e-01
 -4.2709682e-02
 -8.9482862e-01
 -1.0022924e+00
  9.5909461e-02
 -4.7217911e-01
  1.6586668e+00
  1.0677528e+00
 -2.9892787e-01
 -1.2187317e-02
  8.0914563e-01
 -1.8351832e-01
  1.5648199e+00
 -1.4098684e-01
 -2.8504908e+00
 -3.0451725e+00
 -1.1764541e+00
  6.2589979e-01
  1.8371235e-01
 -1.7183647e-02
 -8.5318848e-02
  1.1770794e+00
  4.3188515e-01
 -1.8031757e+00
  1.1978927e+00
 -2.6327717e-01
 -3.4736398e-01
  3.1997770e-01
  8.0124742e-01
  1.1243459e+00
 -3.7915713e-01
 -3.7010556e-01
 -7.8966063e-01
 -2.9264250e-01
 -8.3571471e-02
  2.8677043e-01
 -5.7920307e-01
  6.6524357e-01
 -7.7073157e-01
  2.7696416e-01
 -2.6827934e+00
 -5.5958194e-01
 -8.7698525e-01
  5.3744078e-01
  2.2037656e+00
  8.7538278e-01
 -1.3761140e+00
 -2.6192546e-01
 -3.8572851e-01
  1.0552269e+00
  4.9066445e-01
 -3.1066725e-01
 -2.8852826e-01
  1.1520389e-01
  4.2482135e-01
 -1.2789527e+00
  1.4088789e-01
  7.9136640e-01
 -6.4270400e-02
 -3.2613927e-01
 -1.4643306e+00
  3.1435335e-01
  3.6031747e+00
 -5.5821341e-01
  1.6731197e-01
 -9.7569394e-01
 -9.7301602e-03
  1.6859633e-01
 -1.2859250e+00
 -1.2984847e+00
 -4.9089581e-01
  8.1319034e-02
 -1.4415041e-01
 -2.6218014e+00
 -4.4072986e-01
  1.1490418e-01
 -1.7960969e-01
 -1.9721149e-02
  5.0679630e-01
 -8.3729464e-01
  5.7600641e-01
  1.4885223e-01
 -4.5956212e-01
 -1.0478729e-01
  2.4698903e-01
 -1.8169519e+00
 -4.5321372e-01
 -2.6712987e-01
 -6.9976401e-01
 -4.8329026e-01
  3.3776391e-01
  1.7935498e-01
  3.0703686e-02
  4.2933145e-01
  1.0981799e+00
  3.8656253e-01
 -7.9621887e-01
  2.6776424e-01
 -5.8160186e-02
  1.3679717e-02
 -1.8109000e-01
  4.4594638e-02
  9.6784323e-01
 -3.9365375e-01
  2.0992275e-01
  7.5579357e-01
 -8.4417045e-02
 -8.0888420e-01
 -3.0472546e+00
  5.8384192e-01
  2.6876271e-01
  4.6786964e-01
  1.1417253e+00
  3.5304108e-01
  3.6141463e-03
  1.1301006e+00
 -2.4465740e-01
  3.4515554e-01
 -5.5846071e-01
  5.7290077e-01
 -7.6004559e-01
  1.6921233e+00
 -1.0647795e+00
  3.1601286e-01
 -2.1845600e-01
 -4.3822104e-01
 -1.1716838e+00
  1.0128944e-01
  1.0644001e-01
 -6.8865412e-01
 -6.2081569e-01
  3.4307638e-01
  1.7903964e-01
 -1.3513155e-01
  5.0579987e-02
  5.1708460e-02
 -3.8057956e-01
  3.9526606e-01
 -7.6219523e-01
  8.6049843e-01
  6.9229239e-01
  2.8858759e-02
 -3.8146701e-02
 -2.5150958e-01
 -2.4406133e-02
  4.5831308e-01
  2.2000568e-01
  1.4831014e-01
  5.3875268e-01
 -1.1824769e+00
  7.5338686e-01
  3.0576035e-01
 -6.0663223e-02
  3.2358378e-02
  2.9383665e-01
 -1.2717910e+00
 -4.9043412e+00
  2.9763668e+00
 -7.8818226e-01
 -6.5696830e-01
 -1.2087854e+00
 -1.5187755e+00
 -4.9916178e-01
 -2.4095410e-01
 -9.7838767e-02
 -6.5491074e-01
  1.4206369e+00
  1.6338472e+00
 -6.9782972e-01
 -8.8334775e-01
  1.8431722e+00
 -2.2519001e-01
 -1.0119009e+00
 -1.5732645e+00
  1.3218791e+00
  6.5534222e-01
 -8.2615352e-01
 -5.5197406e-01
  1.2766787e+00
  1.6098665e+00
 -5.7831626e-02
 -5.5815482e-01
 -1.6118035e+00
  2.2762542e+00
 -3.1896526e-01
 -3.9372253e-01
 -1.3916739e+00
 -2.2724905e+00
  5.1433697e-02
  5.0130630e-01
 -3.0391443e-01
 -5.9548140e-01
  3.1137601e-01
 -2.7170479e-01
 -1.3462062e+00
 -7.1567720e-01
 -1.5285532e-01
  3.0853099e-01
  1.6990689e+00
  1.0000936e+00
 -1.9919986e+00
  7.5556558e-01
 -2.4694708e-01
 -1.8937925e+00
  2.5317955e+00
 -5.0770420e-01
  1.9284981e-01
  1.4910665e+00
  5.7226919e-02
 -7.4519500e-02
 -5.4394317e-01
  5.7594448e-01
  1.9435048e-01
 -6.4805388e-01
  3.2832298e+00
 -5.1591146e-01
 -5.1229626e-01
  2.9137698e-01
 -4.6740922e-01
 -4.7493166e-01
  9.1862220e-01
  2.3228310e-01
  1.1812536e+00
  8.3159637e-01
  1.5094924e-01
  2.2940870e-01
  4.0610725e-01
 -3.4856443e+00
 -3.1834710e-01
  7.9926205e-01
 -5.3172076e-01
  6.1520350e-01
  4.3365676e-02
  1.4356321e+00
  1.0288137e-01
  5.2787322e-01
  1.6527026e+00
  4.8675064e-02
  4.7781086e-01
 -1.9887504e-01
 -7.4613178e-01
  6.4069504e-01
  2.1900626e-01
 -3.9767798e-02
  3.1400916e-01
  7.1362197e-01
 -8.4015602e-01
 -1.1268970e-01
 -1.2670360e+00
 -4.7942081e-01
  8.2775354e-02
 -7.8616124e-01
  4.7058034e-01
  9.7948021e-01
 -8.0772176e-02
  4.0551412e-01
  4.1532540e-01
 -4.9079448e-01
  3.5148671e-01
  5.1682341e-01
  1.0035756e+00
 -3.1847310e-01
 -6.0502607e-01
 -6.7228842e-01
  1.5676907e+00
 -1.2900734e+00
  6.0649031e-01
 -8.7670487e-01
 -2.7844995e-01
 -6.3482469e-01
  1.4095625e+00
  3.7687916e-01
  9.4265074e-01
  1.0496367e+00
  7.4909008e-01
  5.6854033e-01
 -8.2934016e-01
  7.0285851e-01
 -6.2753528e-01
 -2.5745410e-01
  1.9075381e+00
  3.4969053e-01
 -1.4089271e-01
  1.9115099e-01
  2.2838637e-01
 -4.7623809e-02
 -6.2571168e-01
  5.5190277e-01
  7.8383929e-01
  8.5156637e-01
  4.9258456e-01
 -1.6991153e+00
 -9.3590438e-01
 -1.0337510e+00
 -1.0153836e+00
  1.5332792e+00
  7.5028169e-01
  2.8471830e-01
 -4.5926441e-02
 -1.8184016e+00
  1.4680906e-01
  2.0863718e-01
 -5.7416523e-01
 -1.6585779e-01
  8.3955514e-01
  2.0144099e-01
 -4.2699164e-01
 -3.7461908e+00
 -1.4735097e+00
 -3.0272314e-01
 -1.3001990e+00
  2.1167257e-01
  8.3394891e-01
  1.3158554e+00
 -4.5888850e-01
 -7.6602209e-01
  6.5187448e-01
 -1.6820552e+00
 -3.9796183e-01
 -3.3581756e-02
 -4.3581575e-01
 -1.9350890e-02
 -8.2436329e-01
 -1.8573177e+00
  1.3734690e+00
 -1.9435871e+00
 -2.1761030e-01
 -4.6003479e-01
  2.3827972e-01
  4.6390283e-01
 -2.1144573e-01
 -6.1591011e-01
  3.3267751e-01
 -2.8011090e-01
  2.5724092e+00
 -2.7232111e-01
 -7.1618068e-01
 -1.4763732e-01
  7.7474952e-01
 -7.6072462e-02
  3.8197786e-01
  9.8486090e-01
 -9.8486352e-01
  4.8118609e-01
 -6.8409914e-01
  1.6428529e-01
 -2.5288555e-01
 -2.0857598e-01
 -3.5178822e-01
  1.3408725e+00
  1.7239802e-01
 -2.2362241e-01
 -7.1027493e-01
  2.3514539e-02
  6.0180899e-02
 -2.3187103e+00
 -6.8284079e-02
  7.5375390e-01
  5.6879878e-01
 -1.0220683e+00
  1.4421602e-01
 -2.9606023e+00
  1.2453406e+00
  5.8520287e-01
  7.7154410e-01
  2.3499312e-01
  4.3520543e-01
 -8.8627052e-01
 -1.5436447e+00
  3.2487831e-01
 -1.5702283e+00
 -8.7285197e-01
  8.8772014e-02
  1.1310543e+00
  1.1938155e+00
  1.2166783e-01
 -8.3978510e-01
 -1.3461432e+00
  5.6137383e-01
  5.1856858e-01
  9.2610383e-01
 -1.3211104e+00
  3.1484373e-02
  4.9967423e-01
  8.8502610e-01
 -1.1648748e+00
 -1.6421543e+00
  7.1571064e-01
  1.6007760e+00
  7.5461423e-01
  2.0366028e-01
  7.6613170e-01
  2.9344451e-01
 -2.9280341e-01
 -1.1665400e+00
  3.4946048e-01
  6.8947804e-01
  1.7244595e-01
 -1.4971827e+00
  7.9561687e-01
  1.7500329e-01
  2.5416281e+00
  1.9503115e+00
 -3.0324998e-01
  8.4997654e-01
  2.0582933e+00
 -1.2927903e+00
  1.0685378e+00
  2.1040702e-01
 -6.8264550e-01
 -4.2112705e-01
 -5.1722121e-01
 -9.5186287e-01
  9.8117478e-02
  6.4653289e-01
  1.2373929e+00
 -1.3316311e+00
  3.6736903e-01
 -9.2601538e-01
  1.3192831e-01
 -1.2919185e+00
  3.2898182e-01
 -3.6365129e-02
 -2.9176681e+00
 -3.6784008e-02
  9.5760792e-01
 -1.3523482e+00
 -2.9441514e+00
 -1.0529780e+00
  5.3324437e-01
 -6.6231048e-01
  7.9602259e-01
 -4.6371257e-01
 -8.5324651e-01
  6.3162184e-01
  4.4378281e-01
 -6.7195594e-02
  1.3137594e-01
 -5.9849399e-01
  4.6575669e-02
  6.0170275e-01
 -2.4448535e+00
 -7.8900272e-01
  4.0442061e-01
  1.5457171e+00
 -8.9006591e-01
 -4.4917829e-02
 -6.3450607e-03
  1.6322188e+00
  6.9096982e-01
 -2.2935456e-01
 -1.2713194e-01
  6.5470237e-01
  7.9625744e-01
 -4.4501835e-01
  5.3504944e-01
  1.1905799e+00
  3.7651792e-02
  4.3063518e-01
 -9.7526163e-02
  2.5479284e-01
 -6.3571990e-02
  6.0402989e-01
  1.2097364e-01
  2.9112649e-01
  1.6045198e+00
 -8.0085677e-01
 -4.9518514e-02
  5.3776085e-02
  1.6994697e-01
  1.7192706e-02
  2.4303186e-01
 -5.2135173e-02
 -1.9462049e+00
  1.1175725e+00
  3.1434864e-01
  5.8132470e-01
 -8.4490645e-01
  4.0017115e-03
  8.7191272e-01
  1.9834642e-01
 -1.3294792e-01
 -8.6735034e-01
 -7.6555502e-01
 -1.2057989e+00
  4.2967021e-01
 -2.7961934e-01
 -4.7660273e-01
 -1.0554646e-01
  1.9860753e+00
 -1.0841155e+00
  2.6118543e+00
 -1.5697087e+00
  1.2910291e+00
  1.2323698e+00
  1.8557408e+00
 -7.0553645e-02
 -1.9155192e-01
 -2.0792142e-01
 -2.0432479e+00
 -1.6384214e-01
 -1.7925474e-01
 -1.7860332e-01
  2.8985292e-01
 -4.2998743e-01
  5.9498602e-01
  4.3152171e-01
  4.1656569e-03
 -1.9195312e-01
 -1.5129253e-01
 -4.2897773e-01
 -7.9263926e-01
  1.1953821e-01
  1.1190687e+00
 -2.1604036e-01
 -1.7924033e+00
  4.5488876e-01
  8.0837822e-01
 -3.1103757e-01
 -4.1383891e+00
 -1.6803877e+00
 -9.0472209e-01
 -7.5149894e-01
 -5.7991576e-01
 -2.2764626e-01
 -6.4697945e-01
  1.4354171e-01
  3.6127263e-01
 -3.5526323e-01
  1.3615867e+00
 -5.8889240e-03
  7.5778705e-01
  3.9886436e-01
  6.1567539e-01
  4.7878855e-01
  2.1160331e-01
  1.6181406e-01
  5.5588031e-01
  5.9930623e-01
  5.1052219e-01
  2.8264973e-01
  3.2111982e-01
  5.8734310e-01
  5.1994741e-01
  5.2953738e-01
 -2.4565883e-01
  1.0631232e+00
  4.6866551e-02
 -2.0221426e+00
 -1.6298752e+00
  1.7177294e+00
 -1.2996906e-01
 -4.2536902e-01
  1.7176502e+00
 -3.3451333e+00
 -9.6576311e-02
 -1.2310806e-01
  1.6538808e-01
  3.5763532e-01
  6.3757153e+00
 -8.3359236e-01
 -3.0902171e-01
  1.3376442e+00
  1.5807478e+00
  8.7033629e-01
 -5.8542073e-01
  4.6374869e-01
 -8.8070351e-01
 -6.0061437e-01
 -1.4577180e-01
 -6.9377393e-01
  1.5061204e+00
 -1.2956707e+00
 -1.2533950e+00
  6.9123942e-01
  4.0515500e-01
 -3.3993262e-01
 -1.1483444e-01
  1.2830915e+00
  7.4339950e-01
  4.1630101e-01
  8.8177544e-01
 -1.0183134e-01
  1.3737994e+00
  1.1979719e+00
 -1.2872764e+00
  8.1507534e-01
 -3.2741559e-01
  1.5999262e+00
  4.7722799e-01
  1.3893880e+00
 -9.5506012e-01
 -1.7948943e-01
 -3.6165032e-01
 -1.2401755e+00
  5.1170313e-01
 -1.0563048e+00
 -1.6300921e-01
 -5.1674801e-01
 -2.6880044e-01
 -3.1392148e-01
  1.9659425e-01
 -7.9084164e-01
 -9.8198277e-01
 -7.9635745e-01
 -9.7706378e-02
 -6.3740444e-01
 -7.7372336e-01
  1.0809114e+00
 -3.8947910e-03
 -4.0356153e-01
  7.9062855e-01
  2.5240725e-01
 -6.5598384e-02
 -1.1415769e+00
 -4.8250768e-01
 -1.1164719e+00
  1.2376051e-01
 -1.7520677e+00
 -2.4337649e-01
 -8.5132539e-02
 -4.0406483e-01
 -4.9696080e-02
 -6.8763709e-01
  6.0332584e-01
 -1.0692293e-01
 -1.3232449e-01
  5.7301641e-01
 -4.0907460e-01
 -4.5571461e-01
  2.0863683e+00
  1.0029978e+00
 -3.2898363e-01
 -1.0262752e-01
 -5.1637340e-01
 -3.1894195e-01
  6.2463868e-01
  1.1015534e-03
  7.9185885e-01
 -2.5558360e-02
  1.4906809e+00
  3.2177690e-01
  4.6129784e-01
 -4.7274044e-01
  7.4866787e-02
  6.5137371e-02
 -4.2663956e-01
 -1.0659851e+00
 -8.5614514e-01
  5.0830692e-03
 -3.1666875e-01
 -6.1523341e-02
  2.3578084e-01
 -6.7576754e-01
  4.3860134e-01
 -3.4777194e-01
 -5.8377898e-01
 -3.8834998e-01
 -1.5359201e-02
 -9.7522956e-01
 -1.6282755e-01
 -8.3574057e-01
 -3.1568885e-02
  2.6220781e-01
 -3.8313121e-01
  1.8343060e+00
 -1.5104449e+00
 -4.9478740e-01
  1.1659502e-01
 -3.6990538e+00
 -1.4795810e-02
  3.1055415e-01
 -7.1387023e-01
 -6.7729853e-02
  1.4766111e+00
  6.4199293e-01
 -3.2611781e-01
 -1.1926463e-01
 -7.4443662e-01
 -1.1583130e+00
  9.5723176e-01
  5.4419839e-01
  3.1626031e-01
  1.2005409e+00
  1.1820246e-01
  1.6200355e-01
  1.0716671e-01
  4.7963390e-01
 -9.2451227e-01
  2.4788469e-02
  7.4481416e-01
  4.0263265e-01
 -1.9710056e+00
  7.4256104e-01
  1.1536583e-01
 -4.9903142e-01
  1.7512702e+00
  1.4424509e-01
 -6.6351461e-01
 -1.6654642e+00
  3.9694375e-01
  4.3606117e-01
  2.1835238e-01
 -1.4479613e+00
  1.1266965e+00
 -2.7827808e-01
  2.5870497e+00
  7.1423009e-02
  9.2321731e-02
 -8.4726018e-01
  1.7401166e+00
  2.5936809e-01
  1.6107450e-01
 -1.0701450e+00
  9.9702731e-02
 -6.8863004e-01
  1.3677602e+00
 -3.8507500e-01
  4.7382645e-02
  2.2068968e-01
  8.0920470e-01
 -1.7743719e-01
 -1.6175010e+00
  2.4220120e-02
  1.8470453e-01
 -1.2031798e+00
  2.0989589e-01
  2.8513043e+00
  1.5938001e+00
  9.7243693e-03
  2.0295107e-01
  6.9413596e-01
 -8.6872900e-01
 -1.6170342e+00
  4.8085046e-01
 -1.9780064e-01
  1.8018862e+00
  1.0111761e+00
  8.7016791e-01
 -1.5049930e+00
 -3.1278282e-03
 -9.4123703e-01
 -3.0478680e-01
 -8.3143301e-03
 -5.3362346e-01
  3.6036462e-01
  1.6797655e+00
  1.9741239e-02
 -5.9412944e-01
 -1.1814054e-01
  2.5373167e-01
 -1.8406259e-01
  1.0373998e-01
 -2.8737432e-01
  5.7287914e-01
  2.9471583e+00
  5.3825378e-01
  3.2759252e-01
 -1.4029807e-01
  8.9007181e-01
  3.7908006e-01
  1.6738359e+00
  2.5720701e+00
 -1.8797465e-02
 -6.8413651e-01
 -3.0801693e-01
  1.0782681e+00
 -2.6671526e-01
 -5.0517440e-01
  1.1933712e+00
 -2.9155838e-01
 -5.6437165e-01
 -8.4780313e-02
  3.3179462e-01
 -1.5622956e-01
  2.0498547e-01
  1.0057559e+00
  2.9949617e-01
  2.6208768e-02
  7.0234364e-01
 -6.7149684e-02
 -4.9697417e-01
 -7.5542247e-01
 -1.9761419e-01
  2.6099056e-01
  9.0461308e-01
  5.2991819e-01
 -3.4501755e-01
  7.4847656e-01
  6.7787999e-01
  2.8219569e-01
  2.2591500e-01
  3.7738046e-01
 -3.4515157e-01
 -3.9919367e-01
 -2.1063772e-01
  7.9580867e-01
  1.8020174e-01
 -6.5367386e-02
  1.8879098e+00
 -5.5064805e-02
  1.0104731e+00
  3.2134223e-01
 -8.6522371e-01
 -2.4721868e-01
  3.1115115e-01
  6.8457222e-01
 -9.1411769e-02
 -4.0099430e-01
  4.6897894e-01
 -3.5232544e-02
 -9.1601884e-01
  5.9983939e-01
  7.4431318e-01
 -6.7072548e-03
  1.2230704e-01
  7.0563465e-01
  2.5425607e-01
  7.6548696e-02
 -1.5341718e+00
  4.3718829e+00
  1.5181828e-01
 -8.7087506e-01
 -3.9907640e-01
 -2.6292884e-01
 -1.6027602e+00
 -1.2532705e-01
  3.2880959e-01
 -5.9153044e-01
 -3.1909826e-01
 -6.7798924e-01
 -1.2004757e-01
 -8.0457307e-02
  1.1974248e+00
 -2.0200450e+00
 -5.4821342e-01
  1.0748951e+00
 -6.3626277e-01
  3.0089393e-01
 -2.3776355e+00
  2.6520792e-01
 -7.2037178e-01
  6.5534025e-01
  7.4622846e-01
 -5.3835016e-01
 -1.6046384e-01
 -1.9453198e-01
 -8.4154260e-01
 -1.6065828e+00
 -5.4417920e-01
  5.6374031e-01
  8.4097665e-03
  6.6394168e-01
 -1.4819893e-01
  4.2868313e-01
 -3.4879979e-01
  3.0634487e-01
  8.3401388e-01
  2.3719027e+00
  1.8662158e-01
 -9.3585277e-01
  1.7652844e-01
 -2.4483530e-01
 -9.0077445e-02
  5.1416889e-02
 -7.0552438e-01
  5.8028376e-01
  4.2498946e-01
  3.3238351e-01
 -2.5023046e+00
  1.3970462e+00
  1.1103430e+00
 -1.1094229e-01
  2.2419597e-01
 -1.0985827e+00
  2.6241452e-01
 -5.5854303e-01
  1.1566186e+00
  5.8855665e-01
  2.7520924e+00
  2.7634287e-01
 -7.1427745e-01
 -8.5922647e-01
 -1.6703562e-01
 -1.9688607e+00
  3.3622690e-02
  7.7199244e-01
 -2.3041666e-02
  7.0401168e-01
  5.5035561e-01
 -3.6688310e-01
 -5.0050586e-01
 -1.1963505e-01
  1.5914741e-01
  6.8537056e-01
 -4.1541231e-01
  7.0973068e-01
  1.6908596e+00
 -1.7126830e-01
 -9.7589962e-02
 -1.2103006e-02
  3.3370829e-01
 -3.7279013e-01
 -8.1510288e-01
 -4.1871014e-01
  9.4920087e-01
 -3.9603937e-01
 -4.3159589e-01
  2.8931022e-01
 -1.8759379e-01
  3.5316426e-01
  1.5729738e+00
 -1.6677397e-01
  1.2404331e+00
  1.3850815e+00
  5.2958190e-01
  1.0914274e-01
 -4.5015553e-01
 -1.7726798e-01
 -1.5616832e+00
  4.6762526e-01
  8.6732306e-02
 -4.8664153e-01
  8.6119825e-01
  1.1609479e+00
  4.4573480e-01
 -5.5950063e-01
 -7.5660813e-01
 -2.1763149e-01
 -2.8121063e-01
 -3.7993473e-01
 -2.2288451e-01
  1.2747163e+00
 -6.1938152e-02
 -6.8033820e-01
  5.8511168e-02
 -4.8688245e-01
 -4.5036584e-01
 -6.3493884e-01
 -4.7036892e-01
  4.7047240e-01
  4.8949069e-01
  6.8672460e-01
 -4.6405807e-02
  2.9682699e-01
 -4.9237385e-01
  6.7460907e-01
 -5.3035635e-01
 -4.9021295e-01
  4.6880979e-02
  6.0157150e-01
 -2.0288420e-01
  8.2023627e-01
  1.0771342e-01
  6.8901360e-02
 -1.1025079e-01
 -4.7694498e-01
  3.1373397e-01
  8.0178970e-01
 -3.2640105e-01
  2.5298735e-01
  5.6063277e-01
  3.9883024e-01
  2.5873256e-01
 -7.6594019e-01
 -4.8585060e-01
 -2.3523012e-01
 -1.2700950e-01
  1.2432004e-01
  2.3062239e+00
  2.8961089e+00
 -1.2753795e+00
  2.6275170e-01
  1.6667396e-01
 -7.6880658e-01
 -2.1022078e-01
 -2.1487564e-01
 -5.4457861e-01
 -1.1339854e+00
  2.0153293e-02
 -1.2275822e-01
  3.2092780e-01
 -4.2105544e-01
 -2.0570442e-02
 -9.4382256e-02
  1.3692647e+00
 -7.7817731e-02
 -2.4562979e-01
  1.1029088e-01
 -8.7540269e-02
 -4.3042335e-01
  2.3739254e-01
 -5.8728623e-01
 -1.7044333e+00
  1.6570982e+00
  3.7769651e-01
  5.1340240e-01
  1.5688202e-01
  2.9445237e-01
  4.3594676e-01
 -1.0234877e-01
  3.3385539e-01
 -4.9658448e-01
  5.4731671e-02
 -5.2634086e-02
 -3.0863219e-01
  1.8086584e+00
 -8.1554450e-02
  4.4466439e-01
 -1.7768736e+00
  3.7459195e-01
 -5.7451010e-01
 -7.5450134e-01
 -1.5757682e+00
 -4.9773932e-01
  4.8724902e-01
 -1.1599197e+00
  6.4940937e-02
  4.3808731e-01
  5.3110093e-01
 -3.0092716e-01
  8.1031865e-01
 -3.5939544e-01
  4.8280063e-01
  1.7275049e-01
 -4.9392588e-02
 -1.1463525e+00
 -3.9589998e-01
  1.3698260e+00
 -9.7401696e-01
 -4.4411920e-02
 -3.4474665e-01
  2.3665398e-01
 -2.5305784e-01
 -5.9273496e-02
 -7.8304917e-01
 -2.9788117e+00
 -3.0378301e+00
 -2.4207175e+00
 -1.0458210e+00
  1.1698885e-01
  2.3221025e-01
 -9.2047983e-01
 -1.4807451e-01
 -3.4372306e-01
  1.3566499e+00
  5.0778575e-02
  3.1191796e-02
  1.4143312e+00
 -1.3025076e+00
 -2.0808259e-01
  8.0972570e-01
  2.1429908e-01
  8.7922424e-01
  1.0531317e-01
  9.7649837e-01
  3.3856279e-01
 -1.3514254e+00
 -3.4415889e-01
 -4.3461543e-01
  1.0690680e+00
 -1.5840123e+00
 -1.2760266e+00
 -4.1512874e-01
 -1.1876106e-01
 -3.2116035e-01
 -7.5994152e-01
  2.7435681e-01
  2.8368992e-01
  1.6000563e-01
  3.8151979e-01
 -4.3551302e-01
 -5.3067490e-02
 -4.5349747e-01
  1.6139483e-01
  1.2922750e+00
 -1.4819107e+00
  6.1415130e-01
  1.6206920e-01
  1.8502903e+00
  1.3356236e-01
  3.0260143e-01
 -4.0540892e-01
 -8.4371197e-01
  4.4038959e-02
 -7.4728239e-01
 -4.5367330e-01
  7.2098874e-02
 -1.0862347e+00
  3.6517811e+00
 -8.4007424e-01
  1.0195541e+00
 -9.7197986e-01
  5.1111108e-01
  8.2771635e-01
 -3.3880177e+00
 -1.8934743e-01
  2.6496261e-01
  2.2856966e-03
 -1.0597040e-01
  5.5513784e-02
  2.0562735e-01
  4.4901416e-02
  1.1395530e-01
 -9.5675528e-01
  9.4189531e-01
 -7.6294787e-02
  5.0188057e-02
 -3.1693196e-01
 -1.2851712e-01
  1.5677583e+00
  2.6647840e+00
  1.1730821e-01
  8.3072358e-01
  1.0771157e+00
 -5.3081179e-01
 -4.4278657e-01
  1.0112246e+00
  9.9654686e-01
 -3.8648450e-01
  4.6624297e-01
 -5.6244326e-01
 -6.0458320e-01
  2.0309712e-01
 -1.1597310e+00
 -7.5773507e-02
  2.2959383e-01
 -1.0647407e+00
 -4.7310740e-01
 -4.3504292e-01
 -3.7519127e-01
 -3.0166203e-01
 -8.4053820e-01
  9.2149812e-01
  4.8844212e-01
  3.6513162e-01
 -7.5799167e-02
 -2.7265304e-01
  8.8457406e-02
  1.2657824e-01
 -7.9639500e-01
 -5.1747048e-01
  6.8791056e-01
 -8.8061339e-01
  3.5071877e-01
 -7.2099686e-01
  4.2338222e-01
 -3.5691466e-02
  1.1349723e+00
 -7.8121528e-02
  6.2608457e-01
  5.4941565e-02
 -7.4642277e-01
 -3.4193969e+00
 -8.1421965e-01
  1.0513391e+00
 -1.2055883e+00
  6.2646776e-01
 -3.9611253e-01
 -4.1386686e-02
 -4.1632402e-01
 -5.6672561e-01
  2.1074982e-01
  4.7207706e-02
  1.0614104e+00
  6.5017557e-01
 -5.8524833e+00
  8.1970376e-01
 -1.2747923e+00
 -3.5079798e-01
 -4.3689141e-01
  1.0766237e+00
 -5.0966233e-01
 -5.7285839e-01
  2.8036937e-02
  1.6280786e+00
  9.1744798e-01
  2.9682669e-01
  3.5398524e+00
  9.1486526e-01
  1.5603429e+00
 -1.1953939e+00
 -3.0072814e-01
  3.8193896e-02
 -9.1153592e-01
  6.1693698e-02
 -1.0245219e+00
  7.6987565e-02
  4.0110847e-01
 -1.1319638e+00
  6.4741415e-01
 -8.1011796e-01
 -3.0804479e-01
 -1.8815540e-01
  1.1325278e+00
 -5.0159073e-01
 -7.2069198e-01
  1.8655300e-01
  2.5895727e-01
 -8.8723838e-01
 -2.4512662e-01
  3.7857480e-02
 -7.3855269e-01
 -1.1474699e+00
 -5.4832017e-01
 -2.5665227e-01
  7.9306465e-01
  1.5885845e+00
 -1.4989763e+00
 -2.8145400e-01
  1.5258849e+00
 -1.9883563e-01
  3.3847451e-02
  1.8650281e-01
 -1.3904628e+00
  1.0369600e-01
  9.5209241e-01
 -1.3470554e+00
 -9.9177557e-01
  2.8348848e-02
  2.3565173e-02
 -2.9133666e-01
  1.1841180e+00
 -7.2833771e-01
 -2.1617790e-01
 -5.0323641e-01
 -4.9387130e-01
  3.7103770e+00
 -9.3684262e-01
  2.3869176e+00
 -4.8717260e-02
 -7.1219349e-01
  1.5895671e-01
 -4.7790414e-01
 -4.7109896e-01
  5.5057273e+00
 -4.9742979e-01
 -6.3358158e-01
  8.1934541e-01
  1.3834314e-01
 -3.1238592e-01
  2.0879121e-01
 -1.6562971e-01
 -4.8905647e-01
 -1.5658116e-01
  1.3426961e+00
 -1.9080892e-01
 -1.0026175e-01
  7.3491675e-01
 -1.4342768e+00
  3.9363369e-02
 -9.4439083e-01
 -5.9898800e-01
  3.6746465e-02
 -3.5532609e-02
 -2.5456852e-01
  8.8420093e-01
  1.9815149e+00
 -3.3032939e-01
  3.2789566e-02
 -8.6553282e-01
  4.6263236e-01
 -3.9509633e-01
  1.3926151e-01
  1.9412283e+00
  3.5472795e-02
  6.8299991e-01
  1.7360185e-01
  3.3062522e+00
  3.1769270e-01
 -3.8411260e-01
 -1.2140803e+00
  1.0415348e+00
  2.0274667e-02
 -4.3964604e-01
  2.3498535e-01
  3.9706752e-02
  2.3852028e-01
 -2.5511420e-01
 -9.5756954e-01
  1.8499177e+00
 -5.6704301e-01
 -1.1763213e+00
 -7.9841995e-01
 -1.2330328e+00
 -8.8490659e-01
 -6.5228365e-02
 -2.3797427e-01
  4.7709775e-01
  8.2539462e-02
 -2.9215419e-01
 -1.1579392e+00
  6.6410816e-01
 -1.6258568e-02
 -9.2083752e-01
 -5.3272641e-01
  9.8083508e-01
  3.9139161e-01
  1.0080706e+00
 -3.2596400e-01
 -1.2837531e-01
 -1.2970832e-01
 -2.1756373e-02
  5.1000632e-02
 -1.1869795e+00
 -1.7209260e+00
  1.7236862e+00
  7.8904581e-01
  3.9834404e-01
 -1.9697276e-01
  2.2546497e-01
  7.6188350e-01
  2.2359428e+00
  1.4057474e+00
  3.2765767e-01
  3.7681526e-01
  5.1502252e-01
  2.8788298e-01
  4.4056034e-01
  6.0407370e-01
  6.0624290e-01
  1.3587496e-01
  2.4220170e-01
  6.3274264e-01
 -5.1216120e-01
 -5.4631281e-01
 -2.6896751e-01
 -1.4856465e-01
 -1.2684847e+00
 -9.5687497e-01
  3.2945064e-01
 -1.0565171e+00
 -7.0905572e-01
  4.1538715e-01
 -5.3045458e-01
 -1.0448798e+00
  4.4070899e-02
 -1.5859550e-01
 -1.7127597e+00
  5.3124058e-01
  1.4402893e+00
  1.4197323e-01
  3.8274682e-01
 -1.7481846e+00
  1.8056338e-01
 -6.6700697e-01
 -1.5806675e-02
  1.2214295e+00
  6.6177529e-01
  4.2825130e-01
 -3.2646251e-01
  1.2264001e+00
 -7.0446000e-02
 -1.5816310e-01
  1.1978945e-01
 -1.2421247e+00
  8.9101416e-01
 -4.1455615e-01
 -6.9640481e-01
 -2.5478256e-01
  7.6628260e-02
  1.0293688e-02
  2.4466693e-01
 -7.8845459e-01
  3.5529697e-01
 -5.5292434e-01
  2.2964551e-01
 -1.5970466e-01
 -4.4258296e-01
  1.5410045e-01
 -9.3326747e-02
 -9.9312741e-01
  4.2695126e-01
 -1.7977390e-01
 -8.0365109e-01
  2.0091567e+00
  3.5504792e+00
 -2.0535119e-01
  7.2613657e-01
  1.3073072e+00
 -1.0960938e+00
 -7.2937346e-01
 -5.7106543e-01
 -9.8731041e-01
  6.0145348e-01
 -8.5947925e-01
 -5.1947469e-01
  1.5078983e-01
 -1.6966556e-01
  6.1345267e-01
  3.0740184e-01
 -5.0385928e-01
  2.3266655e-01
 -2.0835045e-01
 -4.6815532e-01
  2.4390915e-01
  7.7783948e-01
 -5.6472582e-01
 -7.7025503e-01
 -2.9311559e+00
  2.8676555e-01
 -5.3695911e-01
  3.9438617e-01
 -1.1725285e+00
  6.2838668e-01
 -1.1247668e+00
 -1.6570672e-01
 -8.1383842e-01
 -2.1277891e-01
  5.0196812e-02
  7.3342286e-02
  5.6384575e-01
 -3.5290754e-01
  5.5461591e-01
 -1.9649732e-01
 -1.8240010e+00
 -1.7728370e-01
 -3.2777855e-01
  8.1676316e-01
  3.9360306e-01
 -7.2478271e-01
 -1.2078917e-01
  1.3976448e+00
 -1.8026242e-01
  6.6183662e-01
  8.0598578e-02
  1.6326963e+00
 -5.2397676e-02
  1.0932827e+00
  1.3235970e+00
 -4.0535593e-01
  9.4066739e-01
  7.4524790e-01
  3.0114460e-01
  1.8691921e-01
  1.5237390e+00
 -2.1832015e-01
  8.4237909e-01
 -1.7642444e+00
 -1.2799702e+00
 -9.8638266e-01
 -3.4702826e-01
  2.4004161e-01
 -2.1567515e-01
 -1.0557259e-01
 -7.9849011e-01
  2.6470411e-01
 -7.4631381e-01
 -5.6317497e-02
 -1.2173192e-01
  4.5123389e-01
 -3.9534396e-01
  5.1976526e-01
  1.9063264e+00
  5.7598680e-01
  8.1507310e-02
  4.6081167e-01
 -4.7017969e-02
 -9.0529841e-01
  1.2174441e+00
  3.1298752e+00
 -5.5530250e-01
  3.1157005e-01
  4.2811516e-01
 -4.9097121e-01
  3.7774757e-01
  6.3621354e-01
 -1.5309036e-01
  1.9809279e-01
 -4.5484602e-01
  5.5514896e-01
  5.3388715e-01
  1.1119050e+00
 -1.3586238e-01
  1.5909755e-01
  4.0030740e-03
 -9.2525208e-01
  4.7946647e-01
  8.8768202e-01
 -1.3129659e-02
  1.0485473e+00
 -1.3007285e-01
  7.3350930e-01
 -7.5043067e-03
 -8.0449611e-01
 -9.1719151e-01
  1.7888603e-01
 -4.7754744e-01
  1.8508492e-01
  1.2874364e+00
  3.6362347e-01
  5.6004047e-01
 -5.5994689e-03
 -5.2168381e-01
  6.1327890e-02
 -1.1486733e+00
 -3.3137238e+00
  2.3643968e+00
 -1.0115442e+00
 -1.0861861e+00
 -1.4924955e-01
  4.7570768e-01
  2.6401541e+00
  2.5161695e-01
 -6.7690080e-01
  5.1969379e-01
 -1.2006170e+00
 -2.1442232e+00
  1.1986645e-01
  1.5300674e+00
 -9.1246717e-02
 -3.0526450e-01
 -2.1311380e-01
  1.2812980e+00
 -4.9366966e-02
 -3.2441601e-02
  3.1264439e-01
 -9.0555394e-01
  1.2087975e+00
  3.5584030e-01
  2.1681798e-01
  2.3752621e-01
  6.2357587e-01
  1.2217264e-01
 -1.3988713e+00
  5.4589581e-01
 -1.9110891e+00
  2.2947317e-01
 -3.1331021e-01
 -1.0662764e-01
  9.5459211e-01
  3.4366301e-01
  9.9446362e-01
  1.4809467e+00
  5.9784496e-01
  3.2929435e-01
 -9.4615877e-01
  1.3604581e-01
 -4.3739522e-01
  6.9783181e-03
  2.8605931e-02
  2.1904439e-01
 -1.1851664e+00
 -1.4016815e-01
 -7.6569903e-01
  6.5951186e-01
 -1.6445124e+00
 -6.8908417e-01
  1.8686054e+00
 -2.5100508e-01
 -5.9208781e-01
 -2.7244741e-01
  3.1999221e-01
 -3.2814673e-01
 -1.7946894e-01
 -1.4416473e+00
 -6.3538134e-01
  5.1953351e-01
  4.1514006e-01
  1.0815988e+00
  4.0756217e-01
  1.3353856e+00
 -8.6182870e-02
 -8.2933676e-01
 -1.2157318e-01
 -2.3437963e-01
  2.3380435e+00
  6.6231415e-03
  2.7456775e-02
 -3.0536716e+00
 -8.2828981e-01
  1.2484791e+00
  1.2299450e-01
  7.4440819e-01
 -1.1066751e+00
 -1.0484210e+00
 -2.0584089e-01
  5.6885868e-01
 -1.4468476e-01
 -5.4877698e-02
  3.5884869e-01
 -2.3025964e-01
  3.1545386e-02
  2.0548639e-01
 -5.1320415e-02
  1.9655807e+00
 -2.9330790e-01
  1.2551091e+00
  7.0814413e-01
  4.7167562e-02
 -1.2216232e-01
 -1.7470166e-01
  7.3173803e-01
  5.5050278e-01
 -1.7499855e+00
  8.0166197e-01
 -1.0194623e+00
 -1.3693944e+00
 -8.3658755e-01
 -1.1649898e+00
 -2.2513864e+00
 -2.9493788e-01
  7.4933219e-01
 -1.8895335e-02
 -2.2206187e-01
 -1.3936064e+00
  2.3856339e-01
  1.1656860e-01
  1.4065388e+00
 -9.2241615e-02
 -4.6678644e-01
 -7.5739288e-01
 -2.7587911e-01
 -5.0149012e-01
 -3.2732826e-02
 -2.1656570e+00
 -4.4483641e-01
  1.0698903e+00
  2.2710824e-01
 -3.1702453e-01
 -2.9349513e-02
 -1.5112859e-01
 -8.2383543e-01
  8.8715750e-01
  9.7559094e-01
 -2.9444644e-01
  2.2116047e-01
  1.9886473e+00
  1.0673914e-01
  4.4606364e-01
  5.8066297e-01
  1.2560569e+00
 -1.4170530e-01
 -7.1649319e-01
  1.0280561e+00
 -1.1267883e-01
 -1.6191325e+00
  3.2030660e-01
 -7.6303834e-01
  1.1367226e+00
  1.8968919e-01
 -1.7883264e+00
 -2.7719006e-02
  5.6297768e-02
  4.7746310e-01
 -1.7659932e-02
  8.7318099e-01
  2.6681277e-01
 -8.6772168e-01
 -1.5313112e+00
 -2.4441314e-01
 -1.8115774e-01
 -1.4726153e-01
 -1.1294240e+00
  8.5247248e-01
  1.3016206e+00
 -1.1000957e+00
  8.8214141e-01
 -3.8232484e-01
  2.3699951e-01
 -1.1300251e-01
 -5.4705299e-02
 -1.9161246e+00
  1.2981482e+00
 -1.9364420e-01
 -2.3343235e-02
  8.1593764e-01
 -1.0483519e+00
 -2.5145173e+00
 -1.0644687e+00
  1.0308661e+00
  2.0275481e+00
 -1.8493390e-01
  1.7544045e+00
 -9.7968239e-01
  2.6016918e-01
  8.8996094e-01
 -2.1311471e-01
 -5.4572392e-01
  1.4015790e-03
  1.8582975e+00
 -2.0113490e+00
  6.4644110e-01
 -2.3784428e+00
 -4.3553847e-01
  2.4539240e-02
  1.1105554e+00
 -1.8756807e-01
 -5.2896607e-01
 -4.4573790e-01
 -1.5778415e+00
 -2.1129510e-01
 -1.4789519e-01
 -1.9727466e-01
 -1.4000219e+00
  2.1732194e+00
  5.6037247e-02
  9.5110750e-01
 -5.7082957e-01
  2.9844341e-01
  4.0918863e-01
  7.9501051e-01
 -2.6268780e+00
 -8.3075613e-01
 -5.2797669e-01
  3.6387414e-01
 -2.9217532e-01
 -3.8592902e-01
 -4.7035754e-01
 -1.6721895e-01
  8.4683484e-01
 -8.6849976e-01
 -3.3115470e-01
  2.1658154e+00
  8.4838951e-01
 -1.0715120e+00
  7.4310315e-01
  9.6483231e-03
  7.9430324e-01
 -9.5865965e-01
  7.9521108e-01
 -3.6544591e-02
 -2.2791192e-01
 -6.7088610e-01
 -1.7021974e+00
  3.5786390e-01
  1.5559079e-01
  1.2215742e+00
 -7.2599709e-01
 -3.1970632e-01
 -9.3330032e-01
 -3.5421300e-01
  7.5321811e-01
  8.8498622e-01
 -2.6683238e-01
  1.1389523e+00
 -2.5970619e+00
 -6.8975371e-01
 -1.5225293e-01
  5.2715713e-01
 -3.2726046e-01
 -5.2429736e-03
  1.8999683e+00
 -1.5996535e+00
 -8.3733714e-01
 -1.1104800e+00
  5.4348201e-01
  1.5811406e-02
  1.2213888e+00
 -2.6964480e-01
  6.2650129e-02
  6.1991954e-01
  2.6709715e-01
  7.1528545e-03
  3.1197870e-01
  4.1938421e-01
 -2.1303621e-01
 -3.5195935e-01
 -1.0151926e-01
  1.4659880e+00
  3.2549948e-01
  1.0352480e+00
 -3.8174787e-01
  9.2874849e-01
  1.5475219e+00
  8.1873462e-03
 -1.8462012e+00
 -2.2009546e-01
 -1.4918963e+00
 -3.5412651e-01
 -4.7122982e-01
 -9.0092272e-03
 -1.7077565e-01
 -6.2704253e-01
  3.1292140e+00
 -3.2706419e-01
 -7.7092803e-01
 -3.2277936e-01
  4.9112442e-01
  7.1875203e-01
 -1.3363359e+00
 -3.9435273e-01
 -2.8704563e-01
  3.4786350e-01
  8.5619032e-01
 -1.5194024e+00
  1.0078260e-01
 -1.0505742e+00
 -2.0594447e+00
  8.7022501e-01
  3.7726465e-01
 -1.3999248e-01
 -3.0172911e-01
  1.0816246e-01
 -8.0741847e-01
  1.6061190e-01
  6.7875886e-01
 -9.5888868e-02
 -8.7534302e-01
 -4.3143255e-01
 -5.4127574e-01
  1.1039498e-01
  1.9680344e+00
  3.4182051e-01
  2.1455728e-01
 -2.0124897e-01
  2.7702790e-01
